{"learner":{"attributes":{"best_iteration":"99","best_ntree_limit":"100","scikit_learn":"{\"n_estimators\": 100, \"objective\": \"binary:logistic\", \"max_depth\": 10, \"max_leaves\": null, \"max_bin\": null, \"grow_policy\": null, \"learning_rate\": 0.05, \"verbosity\": null, \"booster\": null, \"tree_method\": null, \"gamma\": null, \"min_child_weight\": null, \"max_delta_step\": null, \"subsample\": null, \"sampling_method\": null, \"colsample_bytree\": null, \"colsample_bylevel\": null, \"colsample_bynode\": null, \"reg_alpha\": null, \"reg_lambda\": null, \"scale_pos_weight\": null, \"base_score\": null, \"missing\": NaN, \"num_parallel_tree\": null, \"random_state\": null, \"n_jobs\": null, \"monotone_constraints\": null, \"interaction_constraints\": null, \"importance_type\": null, \"gpu_id\": null, \"validate_parameters\": null, \"predictor\": null, \"enable_categorical\": false, \"feature_types\": null, \"max_cat_to_onehot\": null, \"max_cat_threshold\": null, \"eval_metric\": null, \"early_stopping_rounds\": null, \"callbacks\": null, \"_estimator_type\": \"regressor\"}"},"feature_names":[],"feature_types":[],"gradient_booster":{"model":{"gbtree_model_param":{"num_parallel_tree":"1","num_trees":"100","size_leaf_vector":"0"},"tree_info":[0,0,0,0,0,0,0,0,0,0,0,0,0,0,0,0,0,0,0,0,0,0,0,0,0,0,0,0,0,0,0,0,0,0,0,0,0,0,0,0,0,0,0,0,0,0,0,0,0,0,0,0,0,0,0,0,0,0,0,0,0,0,0,0,0,0,0,0,0,0,0,0,0,0,0,0,0,0,0,0,0,0,0,0,0,0,0,0,0,0,0,0,0,0,0,0,0,0,0,0],"trees":[{"base_weights":[-3.6993855E-1,7.963846E-1,-1.8820455E0,1.3982079E0,-9.9429023E-1,-7.7042323E-1,-1.9424698E0,1.660722E0,-2.4696635E-2,-1.3691038E0,1.0327475E0,6.34368E-1,-1.6019795E0,-1.9576007E0,-7.750619E-1,-1.1808741E0,1.7263838E0,-9.8056996E-1,1.2588027E0,-8.637351E-1,-1.7431569E0,1.3165156E0,-1.1990321E0,-4.7204745E-1,1.7970346E0,-1.7269024E0,1.2764404E0,-1.5815657E0,-1.9838488E0,5.21509E-1,-1.5290616E0,2.4865915E-1,-1.7198652E0,1.2917484E-1,1.818052E0,-1.4404522E0,3.7448412E-1,3.8744754E-1,1.7743976E0,-1.5331634E0,-4.8599014E-1,-1.9442027E0,-1.4687234E0,3.2274723E-1,1.6825207E0,9.255487E-2,-1.6304125E0,7.6423776E-1,-1.4447181E0,-2.6467857E-1,1.8555566E0,-6.3584596E-1,-1.8756706E0,1.5317298E0,-9.7156346E-2,1.8524131E-1,-1.7743598E0,-1.8281635E0,-1.9913948E0,-1.3703766E0,1.619603E0,-5.710991E-1,-1.7779706E0,-1.2674351E0,1.1485053E0,-8.505343E-1,-1.9091905E0,8.6698294E-1,-7.7758926E-1,-1.1847037E0,1.8307523E0,-1.8600682E0,-9.643059E-1,1.4332929E0,-1.6153747E0,1.2455541E0,-2.3077732E-1,-6.198598E-1,1.8089453E0,-1.6278796E0,-8.846452E-1,-8.538703E-1,6.158014E-1,-1.7632055E0,-1.1355199E0,-3.732071E-1,1.0485469E0,1.0918339E-1,1.8256954E0,-1.2344317E0,9.181165E-1,-1.683479E0,-3.2444528E-1,-8.964609E-1,1.2849969E0,-1.6659563E0,1.362407E-1,1.8975831E0,3.2905653E-1,-1.3211251E0,5.86456E-1,-1.9198616E0,-9.7494316E-1,-1.7338365E0,9.775133E-1,-1.0646592E0,-1.9259511E0,-9.475014E-1,-1.9623293E0,2.1700135E-1,-1.6169039E0,7.4296325E-2,1.749933E0,-1.3017364E0,8.3306587E-1,-1.83878E0,-2.4034941E-1,-1.924121E-2,-1.6857446E0,-1.9920178E-1,1.492217E0,-1.3438002E0,1.1012857E0,1.0630969E0,-1.3220128E0,-1.0275211E0,9.438965E-1,-1.623811E0,2.0378855E-1,1.4026779E0,1.9018468E0,-1.6679175E0,-1.9700035E0,-1.6667093E0,-5.4637536E-2,4.9207423E-2,1.6000738E0,9.3158007E-1,-1.7612258E0,-1.1582903E0,1.3478034E0,-1.4869483E0,2.8422824E-1,1.3289751E-1,-1.0859864E0,1.8404518E0,5.8533716E-1,-1.6642895E0,-5.701323E-1,-1.3908823E0,-7.070589E-2,-1.7053139E0,-5.2433604E-1,9.878879E-1,-1.3314328E0,-1.8309377E0,-1.2910835E0,-1.4065038E0,-1.8661211E-1,4.3634944E-2,-1.3651615E0,1.2844139E0,-9.3639725E-1,-1.2351911E0,1.6545866E0,-9.296215E-1,1.8556968E0,-2.2781153E-1,1.2435647E0,-4.6867388E-1,-1.723889E0,6.4517945E-1,-1.4104635E0,-5.4825075E-2,1.5732329E0,-6.474298E-1,-1.7680882E0,-8.353279E-1,1.130685E0,1.0694584E0,-1.7414104E0,9.579468E-1,-8.063509E-1,-3.2840034E-1,-1.9304401E0,-1.5526992E0,4.2755863E-1,-1.2147439E0,1.2456903E0,-1.5810069E0,1.6717911E-1,-1.9330728E0,-6.3532037E-1,-1.4461366E0,1.1596235E0,-1.9701757E0,-5.2154326E-1,1.8251649E0,4.7544512E-1,-1.526599E0,-2.4442033E-1,7.366841E-2,1.1055946E0,-7.5617355E-1,8.697584E-1,6.3432956E-1,-1.1393964E0,1.3549653E-1,1.6493965E0,-3.074253E-1,-1.612497E0,5.909877E-1,1.6696173E0,-1.6747383E0,8.1626374E-1,-3.5762876E-1,-1.6344059E0,1.4835105E0,1.0739159E-1,-1.7604998E0,-7.587607E-1,-9.587065E-1,1.1816462E0,7.665871E-1,1.6048303E0,1.9286659E0,1.0690682E0,-1.1710445E0,-1.821823E0,-1.7039996E0,9.970554E-3,-9.361478E-1,7.3363227E-1,-7.2920346E-1,8.2075506E-1,1.725209E0,4.348819E-1,-1.9171715E0,-8.7405086E-1,-8.522513E-1,1.4146671E0,-7.472496E-2,-1.6539776E0,-7.3519784E-1,5.799066E-1,1.3194661E0,1.9088485E0,1.2359896E0,-1.0795738E0,-1.6752154E0,2.5967019E-2,1.0380114E0,-1.1711973E0,-8.081735E-2,-1.5176666E0,5.6474364E-1,-1.3274617E0,-4.6413097E-1,-1.7577323E0,-1.3713278E0,-2.8409553E-1,2.2990003E-1,1.5865508E0,-1.5709289E0,1.3408715E-1,-1.5218502E0,-1.7017686E-1,-1.1204305E0,-1.8401716E0,4.2319208E-1,-1.4705092E0,1.035995E0,-2.6299778E-1,-1.9276434E-1,-1.5751996E0,-4.7864312E-1,1.4324349E0,-1.392715E-1,-1.2238982E0,-1.6131526E0,5.352068E-1,1.8781854E0,1.7262325E-1,-1.8038702E0,-7.088552E-1,9.056624E-1,-8.0705935E-1,1.7432925E0,3.920198E-2,3.021664E-1,-1.1145753E0,1.393812E0,-3.1022184E-2,1.0387833E0,-4.3643776E-1,1.4409082E0,-8.1726533E-1,-1.6570026E0,4.510719E-1,1.1290399E0,-1.0178803E0,-1.6063871E0,5.0745106E-1,-1.7294054E-1,1.4636611E0,-5.1645887E-1,-1.9765811E0,-8.0165845E-1,3.9797467E-1,-2.4571827E-1,1.5411186E0,1.7556386E0,-1.3578948E-1,-1.0843544E0,2.29802E-1,-3.1548604E-1,-1.707524E0,1.6399145E0,3.3266917E-1,7.509615E-1,-8.015478E-1,5.349527E-2,-1.1475735E0,-3.5765073E-1,1.4650068E0,1.8277234E0,9.489358E-1,1.9340084E0,3.541852E-1,1.8332409E0,-4.6746612E-1,-1.5131403E0,-8.466645E-2,-1.8921187E0,-1.0687484E0,-3.3878124E-1,-1.734469E0,-1.2737331E0,-1.582845E-2,-8.805533E-1,1.1837729E0,-1.0253024E0,7.245932E-2,1.1799699E0,-2.4056716E-1,2.793933E-1,1.8115991E0,-5.9715223E-1,9.4971913E-1,6.876623E-1,-1.2945886E0,1.495053E0,-3.1321025E-1,5.31271E-1,-6.46363E-1,-1.6982247E0,-5.1487106E-1,4.3437326E-1,-1.1464474E0,7.0171386E-2,1.2195956E0,1.7292738E0,1.1334731E-1,1.9280072E0,5.1408386E-1,1.4934307E0,1.10379174E-1,-4.9493495E-1,-1.6810836E0,-1.402414E0,-4.580151E-2,-1.6311299E0,4.8474304E-2,1.1633584E0,-6.1086506E-1,-1.1056739E0,7.576417E-1,-8.422761E-1,-1.6764902E0,-7.664388E-2,-1.3648715E0,5.9511435E-1,-1.2832144E0,1.6856049E0,-8.0105186E-1,-1.72022E0,-6.2275585E-2,5.1340795E-1,-3.1147212E-1,-8.333711E-1,-1.7081617E0,4.3455485E-1,-1.1201426E0,-1.0313207E-1,-1.2480088E0,8.515927E-1,-1.1111134E0,-3.7368527E-1,-1.5466175E0,-2.8559533E-1,1.5111846E0,-6.2544703E-1,9.7081715E-1,-4.5511758E-1,-1.6784148E0,-5.160103E-1,1.5478548E0,2.161544E-1,1.8911412E0,-1.0107329E0,-4.9823057E-2,-3.474943E-1,1.5789434E0,-1.7592344E0,9.105852E-2,-4.896287E-1,1.5413246E0,-1.1532321E-1,-1.1557338E0,-1.8616939E0,-1.0022578E0,-1.0586014E0,2.8276014E-1,1.6546749E0,3.848058E-1,1.8522197E0,7.6538026E-1,-3.8617036E-1,1.8270752E-1,2.5635496E-1,-1.3938428E0,-1.2262149E0,7.2071576E-1,-1.0737975E0,5.280382E-1,-1.8362182E0,-9.673374E-1,-1.1140903E-1,1.0895075E0,6.929034E-2,-1.2500833E0,2.4667305E-1,1.8130475E0,1.8413626E0,-2.0119049E-1,-3.0518815E-1,1.1886832E0,1.9372445E0,2.0147485E-3,-7.613897E-1,1.5458474E0,-1.21046506E-1,1.9096178E0,8.747947E-1,-1.3523127E0,-3.7400708E-1,-1.6026049E0,-8.62467E-1,1.1237837E0,-5.290433E-1,-1.3945551E0,9.073023E-2,-5.9869826E-1,-1.0272294E0,-1.7857771E0,6.477363E-1,-1.4121811E0,9.118914E-1,-6.348877E-1,5.105739E-1,-1.454051E0,1.4359288E0,-5.6384313E-1,-6.113931E-1,1.0919011E0,2.46674E-1,1.8819277E0,-8.026487E-1,-8.8969186E-2,1.3021146E0,-2.3932475E-1,2.5208822E-2,-1.5903214E0,1.5432545E0,-2.0208882E-1,8.502167E-1,-2.8588533E-1,1.4090133E-1,-1.353947E0,6.224082E-1,-5.4714215E-1,-4.995444E-1,1.3847754E0,1.7860311E0,3.784259E-1,-1.0956333E0,1.1751387E0,1.0426863E0,-3.9460173E-1,-1.7206966E0,-1.3160496E0,-1.7018657E0,-5.785246E-1,1.5928347E0,-4.372726E-1,7.0451796E-2,-9.84903E-1,-1.1147293E-1,-1.3654583E0,-6.150819E-1,-1.7144628E0,-1.0929176E0,1.2752378E-1,4.491176E-1,-1.507194E0,1.2849662E0,-3.8857913E-1,-3.822597E-1,-1.3916017E0,1.8028486E0,4.7554326E-1,1.6898002E-1,-1.2826672E0,-1.8102825E-1,9.725852E-1,-1.2185049E0,1.0925179E0,-1.4864663E0,-3.911227E-1,1.0623232E0,-4.5447472E-1,-1.5840737E0,5.74781E-1,-3.7118085E-2,-1.00111E0,1.7618074E-1,1.2653606E0,1.6137905E0,1.338987E-1,1.9192866E0,8.688685E-1,1.6825033E0,-2.2768572E-2,-1.7901027E0,-4.2129675E-1,-3.0579352E-1,-1.261541E0,-1.4956914E0,4.7635517E-1],"categories":[],"categories_nodes":[],"categories_segments":[],"categories_sizes":[],"default_left":[1,1,1,1,1,1,1,1,1,1,1,1,1,1,1,1,1,1,1,1,1,1,1,1,1,1,1,1,1,1,1,1,1,1,1,1,1,1,1,1,1,0,1,1,1,1,1,1,1,0,1,1,1,0,0,1,1,1,0,1,1,1,1,1,1,1,0,1,1,1,1,1,1,1,1,1,1,1,1,1,1,1,1,1,1,1,1,1,1,0,1,1,0,1,1,1,1,0,0,1,1,1,1,0,1,1,1,1,1,0,0,0,1,1,1,0,0,1,0,1,1,1,0,1,1,1,1,1,1,1,1,1,0,1,1,1,1,0,1,0,1,1,1,0,0,1,1,1,1,1,1,1,1,1,1,0,1,1,1,1,1,1,1,1,0,0,1,0,0,0,1,0,0,1,1,1,0,0,0,0,0,1,0,0,0,0,1,0,1,1,1,0,0,1,1,1,0,0,0,0,0,0,0,0,0,0,0,0,0,1,0,1,1,0,0,1,1,1,1,0,1,0,0,1,1,1,1,1,1,1,0,1,1,1,1,1,1,0,1,0,1,1,1,1,1,1,1,1,0,1,0,0,1,0,1,1,0,1,0,1,1,1,1,1,1,1,1,1,0,1,1,1,1,0,1,0,1,0,0,0,0,1,0,0,1,0,0,0,0,0,0,0,0,0,0,1,0,1,0,1,1,1,0,0,0,0,0,0,0,1,1,1,1,1,1,1,1,0,0,1,0,0,0,1,1,1,1,1,1,1,1,1,1,0,1,1,1,1,1,1,1,0,0,0,0,1,1,1,1,0,1,1,0,0,0,0,0,1,1,1,1,1,1,0,1,0,0,0,1,0,0,1,0,1,1,0,0,1,1,1,1,1,1,1,0,0,0,0,0,1,0,1,0,1,1,1,1,0,0,0,0,1,1,0,0,0,1,0,1,0,0,0,1,1,0,0,0,0,1,0,1,0,0,0,0,0,0,0,0,0,0,0,0,0,0,0,0,0,0,0,0,0,0,0,0,0,0,0,0,0,0,0,0,0,0,0,0,0,0,0,0,0,0,0,0,0,0,0,0,0,0,0,0,0,0,0,0,0,0,0,0,0,0,0,0,0,0,0,0,0,0,0,0,0,0,0,0,0,0,0,0,0,0,0,0,0,0,0,0,0,0,0,0,0,0,0,0,0,0,0,0,0,0,0,0,0,0,0,0,0,0,0,0,0,0,0,0,0,0,0,0,0,0,0,0,0,0,0,0],"id":0,"left_children":[1,3,5,7,9,11,13,15,17,19,21,23,25,27,29,31,33,35,37,39,41,43,45,47,49,51,53,55,57,59,61,63,65,67,69,71,73,75,77,79,81,-1,83,85,87,89,91,93,95,-1,97,99,101,-1,-1,103,105,107,-1,109,111,113,115,117,119,121,-1,123,125,127,129,131,133,135,137,139,141,143,145,147,149,151,153,155,157,159,161,163,165,-1,167,169,-1,171,173,175,177,-1,-1,179,181,183,185,-1,187,189,191,193,195,-1,-1,-1,197,199,201,-1,-1,203,-1,205,207,209,-1,211,213,215,217,219,221,223,225,227,-1,229,231,233,235,-1,237,-1,239,241,243,-1,-1,245,247,249,251,253,255,257,259,261,263,-1,265,267,269,271,273,275,277,279,-1,-1,281,-1,-1,-1,283,-1,-1,285,287,289,-1,-1,-1,-1,-1,291,-1,-1,-1,-1,293,-1,295,297,299,-1,-1,301,303,305,-1,-1,-1,-1,-1,-1,-1,-1,-1,-1,-1,-1,-1,307,-1,309,311,-1,-1,313,315,317,319,-1,321,-1,-1,323,325,327,329,331,333,335,-1,337,339,341,343,345,347,-1,349,-1,351,353,355,357,359,361,363,365,-1,367,-1,-1,369,-1,371,373,-1,375,-1,377,379,381,383,385,387,389,391,393,-1,395,397,399,401,-1,403,-1,405,-1,-1,-1,-1,407,-1,-1,409,-1,-1,-1,-1,-1,-1,-1,-1,-1,-1,411,-1,413,-1,415,417,419,-1,-1,-1,-1,-1,-1,-1,421,423,425,427,429,431,433,435,-1,-1,437,-1,-1,-1,439,441,443,445,447,449,451,453,455,457,-1,459,461,463,465,467,469,471,-1,-1,-1,-1,473,475,477,479,-1,481,483,-1,-1,-1,-1,-1,485,487,489,491,493,495,-1,497,-1,-1,-1,499,-1,-1,501,-1,503,505,-1,-1,507,509,511,513,515,517,519,-1,-1,-1,-1,-1,521,-1,523,-1,525,527,529,531,-1,-1,-1,-1,533,535,-1,-1,-1,537,-1,539,-1,-1,-1,541,543,-1,-1,-1,-1,545,-1,547,-1,-1,-1,-1,-1,-1,-1,-1,-1,-1,-1,-1,-1,-1,-1,-1,-1,-1,-1,-1,-1,-1,-1,-1,-1,-1,-1,-1,-1,-1,-1,-1,-1,-1,-1,-1,-1,-1,-1,-1,-1,-1,-1,-1,-1,-1,-1,-1,-1,-1,-1,-1,-1,-1,-1,-1,-1,-1,-1,-1,-1,-1,-1,-1,-1,-1,-1,-1,-1,-1,-1,-1,-1,-1,-1,-1,-1,-1,-1,-1,-1,-1,-1,-1,-1,-1,-1,-1,-1,-1,-1,-1,-1,-1,-1,-1,-1,-1,-1,-1,-1,-1,-1,-1,-1,-1,-1,-1,-1,-1,-1,-1,-1,-1,-1,-1,-1,-1,-1,-1,-1,-1,-1,-1,-1,-1,-1,-1],"loss_changes":[1.9201908E4,6.625792E3,3.1695898E2,1.7187148E3,1.1766348E3,2.8847842E2,7.789844E1,7.268252E2,8.816806E2,2.453501E2,1.54811E2,1.1947699E2,5.788971E1,4.0664062E1,5.8654766E1,6.84842E1,5.557207E2,2.572079E2,1.3713025E2,1.40212E2,3.849463E1,7.770804E1,1.5649761E1,5.8877052E1,5.941635E0,2.2967285E1,2.6092339E0,1.0064014E2,1.2285156E0,4.8977276E1,7.9680634E0,3.564114E1,8.9539795E0,1.392798E2,1.3911523E2,5.9688354E1,2.238718E2,6.1463554E1,1.703955E1,1.0882629E1,1.455553E2,0E0,2.949292E1,3.026703E1,3.5165253E1,9.799849E0,9.026871E-1,2.0013159E1,9.752838E0,0E0,2.2016754E0,1.7002026E1,3.3215637E0,0E0,0E0,4.712307E1,2.6525024E1,2.2218811E1,0E0,3.7975655E0,2.8304672E0,1.0567596E1,2.3099518E0,5.0889196E0,7.824383E0,1.4281811E1,0E0,5.0647003E1,4.1187374E1,9.9223175E0,1.061709E2,1.4672852E-1,9.3341034E1,1.588765E1,1.53823395E1,1.3468803E1,4.4330723E1,1.3661411E0,6.2460938E0,5.7468567E0,1.1338427E1,7.44872E1,6.662937E1,3.0269775E0,3.918196E1,1.2849163E1,1.4880394E1,3.1459297E1,1.361499E1,0E0,2.3159513E0,1.6656876E-1,0E0,5.5023074E0,6.6567726E0,1.3484268E0,5.067868E0,0E0,0E0,1.4643429E1,4.731776E0,1.4424744E0,7.2545643E0,0E0,1.4322233E1,3.1421322E1,7.722168E-1,3.2015656E1,9.611206E-1,0E0,0E0,0E0,4.2777634E-1,1.1651392E0,6.9947433E-1,0E0,0E0,2.933354E0,0E0,4.0018897E0,2.5626488E0,2.5855293E0,0E0,2.9316124E1,8.816643E0,3.2793922E1,5.4251003E0,9.059334E-2,6.439448E0,6.475586E1,6.637305E1,2.8873444E0,0E0,5.17395E0,4.5677395E1,5.685388E0,8.245529E0,0E0,3.2128372E0,0E0,8.109505E0,4.5693703E0,1.5188685E1,0E0,0E0,4.063843E0,8.088475E0,3.1376953E0,8.278158E0,2.7107964E0,1.0090907E1,4.032654E0,3.9317924E1,3.423941E1,5.436098E0,0E0,6.0893097E0,1.2722443E1,2.820348E1,7.194448E0,1.9576492E0,7.609997E0,6.731696E-1,6.3130302E0,0E0,0E0,5.073883E0,0E0,0E0,0E0,2.507248E-1,0E0,0E0,3.6054482E0,3.5931664E0,2.0055976E0,0E0,0E0,0E0,0E0,0E0,2.844226E0,0E0,0E0,0E0,0E0,2.1206343E0,0E0,9.194382E0,6.092552E0,1.8671833E1,0E0,0E0,8.264389E0,2.716631E0,6.0498047E-1,0E0,0E0,0E0,0E0,0E0,0E0,0E0,0E0,0E0,0E0,0E0,0E0,0E0,1.5440203E0,0E0,4.891619E1,7.3469315E0,0E0,0E0,1.745559E1,3.5885086E0,7.940426E-1,4.070363E0,0E0,1.136264E0,0E0,0E0,9.919841E1,5.5060913E1,2.4274414E1,1.1574149E2,6.6829395E0,5.362549E-1,2.768921E0,0E0,9.612705E0,2.628618E1,1.2007992E0,2.0849254E0,6.4105988E0,4.4566426E0,0E0,5.5666056E0,0E0,6.8469086E0,1.4351208E0,1.9958496E-2,6.0063653E0,1.24758E1,1.2000763E1,3.312439E0,1.2693205E0,0E0,3.21167E-1,0E0,0E0,1.4419808E0,0E0,2.832981E0,6.6715555E0,0E0,4.269681E0,0E0,5.5071945E0,3.426266E1,2.0005829E1,1.1386757E1,2.7927608E0,6.6907096E-1,1.1709366E0,3.5406237E0,9.522125E0,0E0,1.7155657E1,3.8768578E-1,3.9309735E0,8.73531E0,0E0,1.2034798E-1,0E0,6.359894E0,0E0,0E0,0E0,0E0,2.6195679E0,0E0,0E0,5.511315E-1,0E0,0E0,0E0,0E0,0E0,0E0,0E0,0E0,0E0,0E0,5.1273117E0,0E0,6.160881E0,0E0,6.7338057E0,7.8905916E-1,1.5629425E0,0E0,0E0,0E0,0E0,0E0,0E0,0E0,1.4616661E1,3.1353378E0,2.7677307E0,3.1058168E-1,7.905569E0,1.7405087E1,2.789536E0,2.0647507E0,0E0,0E0,1.2855926E0,0E0,0E0,0E0,1.8740705E1,3.250444E1,8.364441E0,3.061522E1,1.8483398E1,1.6143946E1,1.0014938E1,4.0727196E1,8.1500053E-1,6.090191E0,0E0,3.9184093E-1,3.897128E-1,1.0209045E0,6.945915E0,5.9392824E0,7.243857E0,1.2968975E1,0E0,0E0,0E0,0E0,3.783142E0,5.266739E0,2.4713671E-1,2.519826E0,0E0,2.3650265E0,3.9158096E0,0E0,0E0,0E0,0E0,0E0,1.3526245E0,2.5275097E0,8.011019E0,5.5257034E0,7.3086166E-1,1.0694505E1,0E0,2.1146314E0,0E0,0E0,0E0,1.25E-1,0E0,0E0,9.353256E-2,0E0,4.7914047E0,9.647778E-1,0E0,0E0,6.61047E0,2.5177002E-4,2.7042118E1,7.034275E0,1.9997799E1,1.6012478E-1,4.969185E0,0E0,0E0,0E0,0E0,0E0,3.036141E0,0E0,1.4904995E0,0E0,1.3835465E1,1.2901123E1,5.944463E0,5.548421E0,0E0,0E0,0E0,0E0,3.202219E0,8.347211E-1,0E0,0E0,0E0,1.9837494E0,0E0,2.343872E0,0E0,0E0,0E0,2.9242935E0,5.580139E-1,0E0,0E0,0E0,0E0,1.8258667E-1,0E0,7.111144E0,0E0,0E0,0E0,0E0,0E0,0E0,0E0,0E0,0E0,0E0,0E0,0E0,0E0,0E0,0E0,0E0,0E0,0E0,0E0,0E0,0E0,0E0,0E0,0E0,0E0,0E0,0E0,0E0,0E0,0E0,0E0,0E0,0E0,0E0,0E0,0E0,0E0,0E0,0E0,0E0,0E0,0E0,0E0,0E0,0E0,0E0,0E0,0E0,0E0,0E0,0E0,0E0,0E0,0E0,0E0,0E0,0E0,0E0,0E0,0E0,0E0,0E0,0E0,0E0,0E0,0E0,0E0,0E0,0E0,0E0,0E0,0E0,0E0,0E0,0E0,0E0,0E0,0E0,0E0,0E0,0E0,0E0,0E0,0E0,0E0,0E0,0E0,0E0,0E0,0E0,0E0,0E0,0E0,0E0,0E0,0E0,0E0,0E0,0E0,0E0,0E0,0E0,0E0,0E0,0E0,0E0,0E0,0E0,0E0,0E0,0E0,0E0,0E0,0E0,0E0,0E0,0E0,0E0,0E0,0E0,0E0,0E0,0E0,0E0,0E0,0E0,0E0,0E0],"parents":[2147483647,0,0,1,1,2,2,3,3,4,4,5,5,6,6,7,7,8,8,9,9,10,10,11,11,12,12,13,13,14,14,15,15,16,16,17,17,18,18,19,19,20,20,21,21,22,22,23,23,24,24,25,25,26,26,27,27,28,28,29,29,30,30,31,31,32,32,33,33,34,34,35,35,36,36,37,37,38,38,39,39,40,40,42,42,43,43,44,44,45,45,46,46,47,47,48,48,50,50,51,51,52,52,55,55,56,56,57,57,59,59,60,60,61,61,62,62,63,63,64,64,65,65,67,67,68,68,69,69,70,70,71,71,72,72,73,73,74,74,75,75,76,76,77,77,78,78,79,79,80,80,81,81,82,82,83,83,84,84,85,85,86,86,87,87,88,88,90,90,91,91,93,93,94,94,95,95,96,96,99,99,100,100,101,101,102,102,104,104,105,105,106,106,107,107,108,108,112,112,113,113,114,114,117,117,119,119,120,120,121,121,123,123,124,124,125,125,126,126,127,127,128,128,129,129,130,130,131,131,133,133,134,134,135,135,136,136,138,138,140,140,141,141,142,142,145,145,146,146,147,147,148,148,149,149,150,150,151,151,152,152,153,153,154,154,156,156,157,157,158,158,159,159,160,160,161,161,162,162,163,163,166,166,170,170,173,173,174,174,175,175,181,181,186,186,188,188,189,189,190,190,193,193,194,194,195,195,209,209,211,211,212,212,215,215,216,216,217,217,218,218,220,220,223,223,224,224,225,225,226,226,227,227,228,228,229,229,231,231,232,232,233,233,234,234,235,235,236,236,238,238,240,240,241,241,242,242,243,243,244,244,245,245,246,246,247,247,249,249,252,252,254,254,255,255,257,257,259,259,260,260,261,261,262,262,263,263,264,264,265,265,266,266,267,267,269,269,270,270,271,271,272,272,274,274,276,276,281,281,284,284,295,295,297,297,299,299,300,300,301,301,309,309,310,310,311,311,312,312,313,313,314,314,315,315,316,316,319,319,323,323,324,324,325,325,326,326,327,327,328,328,329,329,330,330,331,331,332,332,334,334,335,335,336,336,337,337,338,338,339,339,340,340,345,345,346,346,347,347,348,348,350,350,351,351,357,357,358,358,359,359,360,360,361,361,362,362,364,364,368,368,371,371,373,373,374,374,377,377,378,378,379,379,380,380,381,381,382,382,383,383,389,389,391,391,393,393,394,394,395,395,396,396,401,401,402,402,406,406,408,408,412,412,413,413,418,418,420,420],"right_children":[2,4,6,8,10,12,14,16,18,20,22,24,26,28,30,32,34,36,38,40,42,44,46,48,50,52,54,56,58,60,62,64,66,68,70,72,74,76,78,80,82,-1,84,86,88,90,92,94,96,-1,98,100,102,-1,-1,104,106,108,-1,110,112,114,116,118,120,122,-1,124,126,128,130,132,134,136,138,140,142,144,146,148,150,152,154,156,158,160,162,164,166,-1,168,170,-1,172,174,176,178,-1,-1,180,182,184,186,-1,188,190,192,194,196,-1,-1,-1,198,200,202,-1,-1,204,-1,206,208,210,-1,212,214,216,218,220,222,224,226,228,-1,230,232,234,236,-1,238,-1,240,242,244,-1,-1,246,248,250,252,254,256,258,260,262,264,-1,266,268,270,272,274,276,278,280,-1,-1,282,-1,-1,-1,284,-1,-1,286,288,290,-1,-1,-1,-1,-1,292,-1,-1,-1,-1,294,-1,296,298,300,-1,-1,302,304,306,-1,-1,-1,-1,-1,-1,-1,-1,-1,-1,-1,-1,-1,308,-1,310,312,-1,-1,314,316,318,320,-1,322,-1,-1,324,326,328,330,332,334,336,-1,338,340,342,344,346,348,-1,350,-1,352,354,356,358,360,362,364,366,-1,368,-1,-1,370,-1,372,374,-1,376,-1,378,380,382,384,386,388,390,392,394,-1,396,398,400,402,-1,404,-1,406,-1,-1,-1,-1,408,-1,-1,410,-1,-1,-1,-1,-1,-1,-1,-1,-1,-1,412,-1,414,-1,416,418,420,-1,-1,-1,-1,-1,-1,-1,422,424,426,428,430,432,434,436,-1,-1,438,-1,-1,-1,440,442,444,446,448,450,452,454,456,458,-1,460,462,464,466,468,470,472,-1,-1,-1,-1,474,476,478,480,-1,482,484,-1,-1,-1,-1,-1,486,488,490,492,494,496,-1,498,-1,-1,-1,500,-1,-1,502,-1,504,506,-1,-1,508,510,512,514,516,518,520,-1,-1,-1,-1,-1,522,-1,524,-1,526,528,530,532,-1,-1,-1,-1,534,536,-1,-1,-1,538,-1,540,-1,-1,-1,542,544,-1,-1,-1,-1,546,-1,548,-1,-1,-1,-1,-1,-1,-1,-1,-1,-1,-1,-1,-1,-1,-1,-1,-1,-1,-1,-1,-1,-1,-1,-1,-1,-1,-1,-1,-1,-1,-1,-1,-1,-1,-1,-1,-1,-1,-1,-1,-1,-1,-1,-1,-1,-1,-1,-1,-1,-1,-1,-1,-1,-1,-1,-1,-1,-1,-1,-1,-1,-1,-1,-1,-1,-1,-1,-1,-1,-1,-1,-1,-1,-1,-1,-1,-1,-1,-1,-1,-1,-1,-1,-1,-1,-1,-1,-1,-1,-1,-1,-1,-1,-1,-1,-1,-1,-1,-1,-1,-1,-1,-1,-1,-1,-1,-1,-1,-1,-1,-1,-1,-1,-1,-1,-1,-1,-1,-1,-1,-1,-1,-1,-1,-1,-1,-1,-1],"split_conditions":[7.5792446E0,1.7218245E0,5.9480333E-1,1.375001E0,3.3030454E-2,2.53686E1,7.180834E-2,1.8039343E-1,3.27594E0,2.652719E0,3.238656E0,1.945178E0,6.224905E-2,1.5633608E1,1.4569304E0,1.5771808E-1,-2.8793769E-2,2.5948595E-2,7.2948867E-3,5.260725E0,-4.216568E-1,1.2504294E1,3.7001818E-1,6.3542426E-1,-7.2311774E-2,3.1383625E-1,4.421026E0,9.903779E-1,9.008765E-1,2.996173E0,2.0118843E1,8.162021E-2,9.986518E-1,8.7619716E-1,7.1902585E-1,1.326133E0,9.878398E-1,1.1252911E0,-8.90146E-1,1.6505174E-2,9.715496E-3,-9.721013E-2,6.3531547E0,4.4040468E-1,-3.7080085E-1,-1.5160756E0,6.488893E-1,3.0243982E-2,3.8119197E-2,-1.3233929E-2,1.37241E1,1.4981718E0,3.5366433E0,7.658649E-2,-4.857817E-3,2.002432E0,1.7148085E0,2.440005E-1,-9.956974E-2,4.1681254E-1,-4.3438777E-1,8.5274684E-1,3.9330262E-1,9.9975437E-1,4.3696945E1,2.35001E-2,-9.545953E-2,1.6108402E1,2.7869243E-2,1.4518353E-2,5.3892564E-2,1.5447336E-1,2.3275476E0,-8.9090765E-1,1.7759094E-1,-6.2156282E-2,4.244338E0,1.3198265E0,9.5604026E-1,3.7083936E0,9.441334E0,-4.3294284E-1,4.27465E-1,1.4998779E-2,8.654208E-3,8.2005566E-1,3.2187903E0,2.3219313E-1,-1.3464108E0,-6.172159E-2,6.7914963E0,3.5950713E-2,-1.6222265E-2,1.8284637E-1,4.6554985E-3,8.096597E-1,2.2591076E1,9.487916E-2,1.6452827E-2,7.482189E-2,3.007945E2,4.504946E-2,1.6168013E0,-8.669183E-2,-5.2329265E-2,5.786758E0,1.5542847E1,5.3576193E0,4.2555057E-2,1.0850067E-2,-8.08452E-2,3.7148164E-3,1.7623022E2,4.1614143E1,7.905316E-1,-9.1939E-2,-1.2017471E-2,3.6055523E-1,-8.428723E-2,5.4856677E0,1.0033546E-3,3.5133758E-1,5.5064287E-2,2.2509978E0,4.612095E-2,9.74597E-1,1.2567661E0,6.9673955E-1,1.2665434E0,2.7204247E0,7.2065616E0,1.8132222E0,-9.850018E-2,2.198458E-2,4.0369146E-3,1.588006E0,9.523387E-1,4.6579003E-2,1.0369985E0,-5.7914514E-2,8.2957983E-1,4.9826305E-2,-3.4536324E-2,6.6448757E-3,-5.429932E-2,1.1295651E-2,1.432456E0,1.1892602E0,3.771088E0,1.7438516E-2,2.2196298E0,1.8251619E0,-3.0243859E-2,1.0797901E1,1.2577127E1,-9.1546886E-2,5.4531584E0,3.1183646E0,3.1768885E0,5.3534646E-2,2.8551853E-1,4.298417E0,1.6278251E0,7.340088E1,8.272933E-2,-4.6481077E-2,5.681896E0,-1.1390577E-2,6.2178236E-2,-2.3433695E-2,2.7373905E0,3.2258973E-2,-7.052317E-2,9.459716E-1,9.999647E-1,6.9201756E-1,-8.840441E-2,-4.1766398E-2,5.653425E-2,5.3472918E-2,-8.707052E-2,1.0753689E0,-4.0317547E-2,-1.6420018E-2,-9.6522E-2,-7.763496E-2,3.4222236E-1,-6.0737193E-2,9.894092E-1,1.7022885E0,8.218336E-1,-9.665364E-2,-3.176602E-2,2.7857862E-2,1.5308973E0,1.8249413E1,-2.6077164E-2,9.125825E-2,2.3772256E-2,-7.6329954E-2,-1.2221017E-2,3.6834206E-3,5.527973E-2,-3.780868E-2,4.348792E-2,3.1716477E-2,-5.696982E-2,6.7748264E-3,8.246983E-2,6.4493644E-1,-8.062485E-2,1.8136064E-2,1.2800499E0,-8.373692E-2,4.081319E-2,4.1275406E0,1.9443853E0,2.8099403E0,6.892175E-1,-8.8024996E-2,9.9024737E-1,-4.7935326E-2,5.908231E-2,4.558451E0,1.1629097E0,1.5772698E0,9.998614E-1,1.1922021E1,9.318709E-3,1.4095724E0,4.985277E-4,2.3425283E0,1.549685E0,-9.5414627E-1,6.657593E-1,1.3819227E0,1.0096519E0,-9.5858574E-2,1.7473564E0,-4.2612564E-2,9.983393E-1,3.757313E-1,1.7610204E0,7.247429E-1,1.0373205E1,1.2969828E0,5.570116E0,1.880301E0,-5.397869E-2,1.1081678E-4,1.298351E-3,5.1900573E-2,2.3437166E0,-4.0408676E-3,4.915307E0,1.5907775E-1,-6.637309E-2,1.4651585E1,-8.788662E-2,5.1688814E-1,1.4545457E0,2.9432106E0,6.4876714E0,7.027199E-1,8.874413E-1,6.952542E-1,4.609046E-1,3.6550283E-2,-9.200858E-2,9.177772E-1,1.7833766E-1,3.0145361E0,3.4454072E-1,-9.638217E-3,-9.0449345E-1,-2.3932157E-2,-7.242372E-1,-6.963575E-3,-6.1194908E-2,-8.065763E-2,2.676034E-2,1.1214566E-1,8.631162E-3,-9.019351E-2,1.0776386E0,4.528312E-2,-4.0352967E-2,8.7164626E-2,1.960099E-3,1.510832E-2,-5.5728763E-2,6.96906E-2,-1.5511092E-3,5.1939167E-2,-2.1821888E-2,1.3870827E-3,-4.0863268E-2,3.3259265E-2,2.2553595E-2,-9.50949E-3,1.1203963E0,2.3346882E0,2.5372554E-2,-8.647027E-3,7.318305E-2,-2.5822943E-2,-9.882905E-2,-4.0082924E-2,1.9898733E-2,5.8983507E0,8.2332927E-1,9.581598E-1,3.1563643E-1,2.0199889E-1,8.8609016E-1,8.456394E-3,-3.486605E-2,8.1995726E-2,1.6633458E-2,-9.506127E-1,-4.0077392E-2,2.6747636E-3,-5.7378676E-2,1.0159872E0,9.009033E-1,1.509067E0,4.2978625E0,1.2635581E2,3.272687E-2,2.5816273E-2,1.8778038E-1,1.7280313E-1,5.2971673E-1,-9.460594E-2,1.3603265E0,1.0539508E0,2.154736E-1,3.3153558E-1,4.606642E-2,3.8173935E-1,2.2226074E-1,-5.126512E-2,3.622966E-3,5.8998495E-2,-1.2028358E-2,1.2379203E1,9.33664E-1,1.7139539E0,7.2624874E-1,3.4383114E-2,5.1816046E-1,6.6489897E0,-1.5660513E-2,2.656355E-2,-3.2318152E-2,-8.4911235E-2,-2.5743553E-2,-9.573173E-1,4.414315E0,4.1234004E-1,9.371543E-1,4.319871E0,5.1150837E0,9.6400365E-2,1.4401063E0,7.467154E-2,5.518959E-3,-2.4746748E-2,1.1201782E-2,-7.01207E-2,-2.2900754E-3,8.1979465E-1,2.4237153E-3,2.4026833E0,4.7836497E-2,-5.5283695E-2,3.7882086E-2,8.553687E-1,3.8777992E-2,9.3301606E-1,7.4818497E0,2.2317836E0,3.550878E0,2.5191112E0,-4.0052593E-2,-8.6011E-2,-3.1137792E-3,2.5670398E-2,-1.5573606E-2,2.90622E0,-8.5408084E-2,9.948099E0,-5.600713E-2,7.1472216E0,4.7602475E-2,2.0977983E0,5.5679832E1,-1.8684264E-2,-7.733088E-2,-1.4279767E-2,7.555923E-2,3.0077422E-1,1.6618721E-2,-2.275588E-2,-8.392074E-2,-2.5800515E-2,8.99665E-1,1.080772E-2,8.8936174E-1,-5.0536644E-2,-2.4911528E-3,-1.7374715E-2,1.146565E0,2.5541916E0,4.5529264E-3,-2.4481436E-2,7.7066235E-2,-5.7661603E-3,9.4246864E-4,-9.308469E-2,5.5689546E-3,-5.293007E-2,1.4138008E-2,8.273374E-2,1.924029E-2,9.2610985E-2,3.8269013E-2,-1.9308519E-2,9.135376E-3,1.2817748E-2,-6.969214E-2,-6.1310746E-2,3.6035787E-2,-5.3689875E-2,2.640191E-2,-9.181091E-2,-4.836687E-2,-5.5704517E-3,5.4475375E-2,3.464517E-3,-6.2504165E-2,1.2333653E-2,9.065238E-2,9.206813E-2,-1.0059524E-2,-1.5259407E-2,5.9434157E-2,9.686223E-2,1.0073743E-4,-3.8069483E-2,7.7292375E-2,-6.0523255E-3,9.548089E-2,4.3739736E-2,-6.7615636E-2,-1.8700354E-2,-8.013024E-2,-4.312335E-2,5.6189187E-2,-2.6452167E-2,-6.9727756E-2,4.5365114E-3,-2.9934913E-2,-5.136147E-2,-8.928885E-2,3.2386817E-2,-7.0609055E-2,4.559457E-2,-3.1744387E-2,2.5528697E-2,-7.270255E-2,7.179644E-2,-2.8192157E-2,-3.0569656E-2,5.4595053E-2,1.23337E-2,9.4096385E-2,-4.0132437E-2,-4.4484595E-3,6.510573E-2,-1.1966238E-2,1.2604411E-3,-7.9516076E-2,7.716273E-2,-1.0104441E-2,4.2510834E-2,-1.4294267E-2,7.0450664E-3,-6.769735E-2,3.112041E-2,-2.7357107E-2,-2.497722E-2,6.9238774E-2,8.930156E-2,1.8921295E-2,-5.4781664E-2,5.8756936E-2,5.2134316E-2,-1.9730087E-2,-8.603483E-2,-6.580248E-2,-8.509328E-2,-2.892623E-2,7.964174E-2,-2.186363E-2,3.5225898E-3,-4.924515E-2,-5.5736466E-3,-6.827291E-2,-3.0754095E-2,-8.572314E-2,-5.4645877E-2,6.376189E-3,2.245588E-2,-7.53597E-2,6.4248316E-2,-1.9428957E-2,-1.9112986E-2,-6.9580086E-2,9.014243E-2,2.3777163E-2,8.449001E-3,-6.413336E-2,-9.051412E-3,4.862926E-2,-6.0925245E-2,5.4625895E-2,-7.432332E-2,-1.9556135E-2,5.311616E-2,-2.2723736E-2,-7.920369E-2,2.873905E-2,-1.8559042E-3,-5.00555E-2,8.809037E-3,6.326803E-2,8.068953E-2,6.6949353E-3,9.5964335E-2,4.3443426E-2,8.412517E-2,-1.1384286E-3,-8.9505136E-2,-2.1064838E-2,-1.5289676E-2,-6.3077055E-2,-7.478457E-2,2.3817759E-2],"split_indices":[0,3,3,1,4,0,4,2,2,3,3,2,4,0,3,1,7,4,4,2,9,6,11,1,7,5,5,3,3,2,0,2,8,3,12,2,8,3,7,4,4,0,2,8,7,9,10,7,4,0,10,2,2,0,0,2,3,5,0,5,7,10,4,8,10,4,0,6,4,4,5,5,10,8,5,7,2,0,11,9,6,9,5,4,4,11,0,4,9,0,6,4,0,3,4,1,6,0,0,3,0,3,9,0,7,2,0,2,4,0,0,0,0,6,8,0,0,0,0,5,4,1,0,2,4,0,3,12,2,2,7,1,0,4,4,2,8,0,2,0,12,0,7,0,0,4,3,10,9,4,0,3,7,6,2,0,2,3,3,5,0,2,1,6,0,0,0,0,0,0,1,0,0,12,8,11,0,0,0,0,0,12,0,0,0,0,1,0,11,3,11,0,0,4,9,0,0,0,0,0,0,0,0,0,0,0,0,0,0,11,0,4,12,0,0,2,6,0,0,0,3,0,0,10,3,12,8,10,4,1,0,2,2,8,11,10,2,0,1,0,8,9,10,11,6,3,0,1,0,0,0,0,1,0,2,5,0,6,0,0,10,0,0,7,0,0,5,5,0,11,11,6,4,0,8,0,9,0,0,0,0,10,0,0,12,0,0,0,0,0,0,0,0,0,0,4,0,4,0,7,3,2,0,0,0,0,0,0,0,10,11,11,9,1,12,4,7,0,0,8,0,0,0,3,2,12,2,10,4,4,1,11,2,0,0,12,11,3,5,3,5,0,0,0,0,6,6,9,3,0,0,0,0,0,0,0,0,8,2,8,12,0,2,0,3,0,0,0,4,0,0,8,0,3,9,0,0,10,5,12,2,3,0,3,0,0,0,0,0,3,0,6,0,6,7,0,6,0,0,0,0,0,9,0,0,0,11,0,11,0,0,0,5,10,0,0,0,0,4,0,4,0,0,0,0,0,0,0,0,0,0,0,0,0,0,0,0,0,0,0,0,0,0,0,0,0,0,0,0,0,0,0,0,0,0,0,0,0,0,0,0,0,0,0,0,0,0,0,0,0,0,0,0,0,0,0,0,0,0,0,0,0,0,0,0,0,0,0,0,0,0,0,0,0,0,0,0,0,0,0,0,0,0,0,0,0,0,0,0,0,0,0,0,0,0,0,0,0,0,0,0,0,0,0,0,0,0,0,0,0,0,0,0,0,0,0,0,0,0,0,0,0,0,0,0,0,0,0,0],"split_type":[0,0,0,0,0,0,0,0,0,0,0,0,0,0,0,0,0,0,0,0,0,0,0,0,0,0,0,0,0,0,0,0,0,0,0,0,0,0,0,0,0,0,0,0,0,0,0,0,0,0,0,0,0,0,0,0,0,0,0,0,0,0,0,0,0,0,0,0,0,0,0,0,0,0,0,0,0,0,0,0,0,0,0,0,0,0,0,0,0,0,0,0,0,0,0,0,0,0,0,0,0,0,0,0,0,0,0,0,0,0,0,0,0,0,0,0,0,0,0,0,0,0,0,0,0,0,0,0,0,0,0,0,0,0,0,0,0,0,0,0,0,0,0,0,0,0,0,0,0,0,0,0,0,0,0,0,0,0,0,0,0,0,0,0,0,0,0,0,0,0,0,0,0,0,0,0,0,0,0,0,0,0,0,0,0,0,0,0,0,0,0,0,0,0,0,0,0,0,0,0,0,0,0,0,0,0,0,0,0,0,0,0,0,0,0,0,0,0,0,0,0,0,0,0,0,0,0,0,0,0,0,0,0,0,0,0,0,0,0,0,0,0,0,0,0,0,0,0,0,0,0,0,0,0,0,0,0,0,0,0,0,0,0,0,0,0,0,0,0,0,0,0,0,0,0,0,0,0,0,0,0,0,0,0,0,0,0,0,0,0,0,0,0,0,0,0,0,0,0,0,0,0,0,0,0,0,0,0,0,0,0,0,0,0,0,0,0,0,0,0,0,0,0,0,0,0,0,0,0,0,0,0,0,0,0,0,0,0,0,0,0,0,0,0,0,0,0,0,0,0,0,0,0,0,0,0,0,0,0,0,0,0,0,0,0,0,0,0,0,0,0,0,0,0,0,0,0,0,0,0,0,0,0,0,0,0,0,0,0,0,0,0,0,0,0,0,0,0,0,0,0,0,0,0,0,0,0,0,0,0,0,0,0,0,0,0,0,0,0,0,0,0,0,0,0,0,0,0,0,0,0,0,0,0,0,0,0,0,0,0,0,0,0,0,0,0,0,0,0,0,0,0,0,0,0,0,0,0,0,0,0,0,0,0,0,0,0,0,0,0,0,0,0,0,0,0,0,0,0,0,0,0,0,0,0,0,0,0,0,0,0,0,0,0,0,0,0,0,0,0,0,0,0,0,0,0,0,0,0,0,0,0,0,0,0,0,0,0,0,0,0,0,0,0,0,0,0,0,0,0,0,0,0,0,0,0,0,0,0,0,0,0,0,0,0,0,0,0,0],"sum_hessian":[1.0886021E4,6.145968E3,4.740054E3,4.600138E3,1.5458295E3,2.4508054E2,4.4949736E3,3.883498E3,7.166404E2,1.3048737E3,2.4095576E2,9.121813E1,1.538624E2,4.4367915E3,5.8182194E1,8.7327095E1,3.796171E3,4.1087863E2,3.0576175E2,5.564222E2,7.484515E2,2.1413843E2,2.6817345E1,4.704409E1,4.4174046E1,1.4784598E2,6.01643E0,2.934882E2,4.143303E3,2.150711E1,3.6675083E1,2.4058046E1,6.3269047E1,2.0617778E2,3.5899932E3,3.0672003E2,1.04158585E2,1.1431721E2,1.9144455E2,1.996138E2,3.5680838E2,4.2847385E2,3.1997763E2,5.814536E1,1.5599307E2,6.9109287E0,1.9906416E1,2.0809307E1,2.6234783E1,1.1220447E0,4.3052E1,1.8373081E1,1.2947289E2,4.9764156E0,1.0400139E0,2.8878502E1,2.646097E2,2.0278465E2,3.9405186E3,7.807595E0,1.3699516E1,8.243435E0,2.8431648E1,8.808558E0,1.5249489E1,1.2297001E1,5.0972046E1,1.1370397E2,9.247381E1,1.4731426E1,3.5752617E3,1.6149342E2,1.4522662E2,6.816665E1,3.5991936E1,4.7446262E1,6.687094E1,2.4821467E0,1.889624E2,1.7285776E2,2.6756046E1,2.6766275E2,8.9145615E1,1.6758017E2,1.5239746E2,2.993097E1,2.8214388E1,1.3158432E1,1.4283464E2,2.4605849E0,4.450344E0,1.8851347E1,1.0550699E0,4.795387E0,1.601392E1,2.2967031E1,3.2677507E0,4.16619E1,1.3900993E0,1.1720932E1,6.6521482E0,1.2233928E2,7.133609E0,8.091197E0,2.0787306E1,4.7984627E1,2.1662508E2,2.7875101E1,1.7490956E2,1.0656555E0,6.741939E0,1.1876578E0,1.2511858E1,5.470095E0,2.77334E0,2.716161E1,1.2700399E0,2.4735956E0,6.3349633E0,3.1842716E0,1.2065217E1,1.0064903E1,2.2320979E0,1.048268E2,8.877178E0,8.1102196E1,1.1371608E1,1.1063229E1,3.6681976E0,5.121615E2,3.0631E3,6.465604E1,9.683738E1,8.147964E1,6.3746986E1,7.4699473E0,6.0696697E1,1.657652E0,3.4334286E1,1.514429E0,4.5931835E1,1.889533E1,4.7975613E1,1.2226133E0,1.2595333E0,1.837275E2,5.2349005E0,1.6655127E2,6.306485E0,1.6059109E1,1.0696938E1,7.352234E1,1.9414043E2,7.52577E1,1.3887918E1,1.4403792E2,2.3542253E1,1.1816912E2,3.4228333E1,2.174798E1,8.182989E0,2.5533245E1,2.6811433E0,7.14425E0,6.0141816E0,1.2155229E0,1.4161911E2,1.0507125E0,3.3996315E0,1.0124689E0,1.7838877E1,1.135248E0,3.660139E0,2.9785173E0,1.3035402E1,2.761974E0,2.0205057E1,1.7338198E0,1.5339308E0,1.5215801E0,1.0199352E1,5.4979486E0,1.1541995E0,1.0194141E0,1.2131987E2,4.976474E0,2.1571348E0,1.8810138E0,1.8906292E1,3.361206E1,1.4372565E1,2.1494125E2,1.6838156E0,2.2794619E1,5.080483E0,1.7359673E2,1.3128295E0,1.1406467E1,1.1053907E0,4.1447706E0,1.3253245E0,1.0679176E0,1.7054223E0,1.4341632E0,1.0394324E0,1.8603213E0,1.3239503E0,1.4459879E0,1.0619229E1,2.5136774E0,7.5512257E0,6.0054993E1,4.47718E1,7.806256E0,1.0709224E0,3.930537E1,4.179683E1,6.4423213E0,4.929287E0,8.6597395E0,2.4034889E0,1.6848282E0,1.9833696E0,1.2466954E2,3.8749194E2,2.9662576E3,9.6842545E1,1.732674E1,4.73293E1,7.969097E1,1.7886674E0,3.0005116E1,3.374187E1,3.7457547E0,3.7241926E0,5.4376354E1,6.320344E0,2.8213919E1,6.120365E0,1.008324E0,4.492351E1,2.1515427E0,1.6743788E1,1.0452274E1,3.752334E1,2.367599E1,1.6005151E2,3.9491746E0,1.2857257E0,1.6549045E2,1.0608325E0,1.5180372E0,4.788448E0,1.5615036E0,1.4497604E1,7.4703574E0,3.22658E0,3.378528E0,7.0143814E1,4.185795E1,1.5228247E2,3.382046E1,4.1437237E1,1.187532E1,2.0125973E0,1.9226334E1,4.3159213E0,7.3360054E1,4.480907E1,2.3660734E1,1.0567599E1,4.5722194E0,1.717576E1,1.534641E0,6.6483483E0,1.8046545E0,2.372859E1,1.1041619E0,1.5769814E0,5.960553E0,1.1836969E0,1.396374E2,1.9817107E0,1.5815515E1,2.0233626E0,1.2185953E0,1.759922E0,1.1611735E1,1.423667E0,1.0271616E0,1.7348126E0,3.5319605E0,1.9659883E0,1.1448925E0,1.0122422E0,1.754732E1,1.3589733E0,3.2578274E1,1.0337863E0,7.9594774E0,6.4130874E0,2.1230804E1,1.5638138E0,1.0239233E0,4.0565596E0,1.1196423E0,1.7247708E2,1.3978353E0,1.1158421E0,3.232781E1,2.7727186E1,4.276191E1,2.0098915E0,1.7191454E1,2.2113914E1,2.474581E0,3.9322247E1,5.297411E0,1.14491E0,2.9876802E0,1.9416068E0,1.0572456E0,1.3462433E0,4.7958786E1,7.6710754E1,2.8787616E2,9.961578E1,2.955999E3,1.0258526E1,6.454763E1,3.229491E1,1.2878517E1,4.4482217E0,4.1905148E1,5.424154E0,2.004307E0,7.768666E1,2.1671654E1,8.333462E0,7.1491485E0,2.6592722E1,2.5316904E0,1.2140645E0,2.6989236E0,1.025269E0,3.3046231E0,5.107173E1,2.0503535E0,4.26999E0,1.1636872E0,4.956678E0,4.3055202E1,1.8683089E0,1.0786635E0,1.0728792E0,1.5645231E1,1.098556E0,2.704525E0,7.747749E0,2.150044E1,1.60229E1,1.7347881E1,6.3281074E0,1.5750566E2,2.5458398E0,2.9481273E0,1.0010474E0,1.2409445E0,1.642495E2,3.768122E0,1.0203261E0,1.3479547E1,1.018058E0,4.956798E0,2.5135593E0,2.2776024E0,1.1009257E0,1.6687458E1,2.5170492E1,1.286579E2,2.3624577E1,2.7733286E1,6.0871754E0,4.006892E1,1.3683163E0,1.067839E1,1.1969312E0,1.0048524E0,1.0077449E0,5.260423E0,1.396591E1,2.968673E0,1.3472484E0,8.376327E0,6.498373E1,1.884414E1,4.816595E0,1.0691798E0,9.49842E0,1.3147215E0,3.2574975E0,1.3656936E1,3.5188246E0,1.0173687E0,5.6309795E0,1.1329029E0,2.2595688E1,1.2168534E0,1.3842055E2,1.0216987E0,1.0016639E0,1.1485912E0,1.6398727E1,3.0772232E1,1.8060431E0,1.5776962E0,6.3817816E0,1.0930716E0,5.320016E0,1.3460673E1,7.770132E0,1.2341509E1,1.9986298E1,2.485527E1,2.8719153E0,3.8168823E1,4.593088E0,1.0063163E0,1.0035752E0,3.2563906E0,1.3935063E1,5.198297E0,1.6915619E1,1.1593548E0,1.3152262E0,3.2236607E1,7.0856423E0,1.0313824E0,1.9562976E0,3.306351E1,1.4895273E1,1.7424423E1,5.928633E1,2.860457E2,1.8304721E0,1.5943262E1,8.367252E1,2.9510532E3,4.945899E0,5.4849024E0,4.773624E0,2.4057543E0,6.214188E1,1.28355255E1,1.9459385E1,1.31503E0,1.1563488E1,2.8805213E0,1.5677004E0,3.0295093E0,2.3946445E0,1.0010324E0,1.0032746E0,6.676555E0,7.101011E1,1.2093246E0,2.046233E1,3.1459403E0,5.187522E0,2.1189508E0,5.0301976E0,2.3395445E1,3.1972783E0,1.69445E0,1.6101731E0,2.3903358E0,4.8681396E1,1.047374E0,1.0029796E0,3.2204542E0,1.0495359E0,1.0748026E0,3.8818753E0,4.1954308E1,1.1008937E0,1.6002078E0,1.1043172E0,1.1200155E0,6.627733E0,1.1344033E1,1.0156406E1,1.2271243E0,1.4795774E1,1.6339216E1,1.0086651E0,2.9440598E0,3.3840477E0,1.516305E0,1.0295348E0,1.4482004E2,1.9429453E1,1.2052779E1,1.4267678E0,3.9120104E0,1.0447876E0,1.1785161E0,1.3350432E0,7.468377E0,9.219081E0,1.4634092E0,2.3707083E1,2.0794962E1,1.0786294E2,1.5618756E0,2.20627E1,1.6121332E1,1.1611955E1,1.1397716E0,4.9474034E0,3.6082943E1,3.9859788E0,1.8212436E0,3.4391794E0,1.6940148E0,1.2746581E0,4.3237567E0,4.0525703E0,5.0261917E1,1.4721807E1,1.6386799E1,2.4573412E0,3.8085437E0,1.0080516E0,5.7502413E0,7.9066944E0,1.383767E0,2.1350577E0,2.1453917E1,1.1417717E0,1.3385767E2,4.5628824E0,1.5355467E1,1.0432608E0,2.9747944E1,1.0242891E0,1.0196172E0,4.300399E0,5.8172765E0,1.9528556E0],"tree_param":{"num_deleted":"0","num_feature":"13","num_nodes":"549","size_leaf_vector":"0"}},{"base_weights":[-3.5247925E-1,7.5779563E-1,-1.7925094E0,1.3310595E0,-9.47263E-1,-7.336086E-1,-1.8500932E0,1.5811704E0,-2.4138048E-2,-1.3040483E0,9.8240066E-1,6.041842E-1,-1.5257348E0,-1.864504E0,-7.390107E-1,-1.1257076E0,1.6437387E0,-9.345589E-1,1.1982213E0,-8.520425E-1,-1.6839917E0,1.2533607E0,-1.1476765E0,-4.5034102E-1,1.7129755E0,-1.6452291E0,1.2241409E0,-1.5069635E0,-1.8894684E0,-1.5787125E0,3.270912E-1,2.3594928E-1,-1.6394618E0,1.2286974E-1,1.7311076E0,-1.3728496E0,3.56844E-1,3.671786E-1,1.6904888E0,-1.0481533E0,2.9902378E-1,-1.4159207E0,-1.8447931E0,1.1075929E-1,1.5429522E0,1.172722E-1,-1.5490175E0,7.2955227E-1,-1.3788881E0,-2.5768715E-1,1.7691369E0,-6.0516053E-1,-1.7871681E0,1.4697822E0,-9.46802E-2,1.7214012E-1,-1.6902872E0,-1.7418002E0,-1.8966241E0,-4.3539494E-1,-1.6949115E0,-1.311974E0,1.2472647E0,-1.2136245E0,1.0963697E0,-8.4133524E-1,-1.8277755E0,8.259709E-1,-7.4114096E-1,-1.135348E0,1.743243E0,-1.7732921E0,-9.187783E-1,1.3659934E0,-1.5401855E0,1.183865E0,-2.2092648E-1,-6.027199E-1,1.723686E0,-1.5298873E0,-7.2674006E-1,-1.0002022E0,9.200877E-1,-1.5653698E0,-9.435435E-1,8.023192E-1,-7.2519404E-1,2.1011385E-1,1.701517E0,-1.1679571E0,9.1329455E-1,-1.5989445E0,-3.6107212E-1,-8.589759E-1,1.2279994E0,-1.5908015E0,1.3295363E-1,1.8089671E0,3.1950018E-1,-1.2597722E0,5.6112987E-1,-1.8165808E0,-6.4198834E-1,-1.6595005E0,9.2827666E-1,-1.0343425E0,-1.8391787E0,-9.0338707E-1,-1.8696218E0,6.3572013E-1,-9.404856E-1,-1.7423445E0,-2.2750692E-1,-1.2211839E-1,-1.4963001E0,1.6033403E0,-5.505644E-1,-1.6648822E-2,-1.615467E0,-1.953526E-1,1.4264458E0,-1.3155249E0,9.581525E-1,1.0130144E0,-1.2620994E0,-9.8041654E-1,9.0622956E-1,-1.5568E0,1.9610429E-1,1.3350469E0,1.811085E0,-1.5916551E0,-1.8770881E0,-1.2712297E0,7.2440434E-1,4.6692103E-2,1.5251768E0,9.028381E-1,-1.6805681E0,-1.1239855E0,1.2823554E0,-1.4096246E0,2.75032E-1,1.2924317E-1,-1.0561595E0,1.7536404E0,5.6074214E-1,-1.5499092E0,-1.5687322E-3,-1.5950438E0,-3.8842455E-1,-1.4234186E0,-1.8360572E-1,1.2021116E0,-9.962801E-1,-9.7363627E-1,-1.6162648E0,-2.013251E-1,-1.4406984E0,-1.1406165E0,9.7781247E-1,-1.3564229E-1,-1.5835099E0,-9.090253E-1,1.6148638E0,-8.812809E-1,1.7271225E0,-7.596084E-2,1.1778069E0,-4.7274715E-1,-1.6355184E0,6.281167E-1,-1.3564199E0,-5.0861854E-2,1.5033263E0,-6.260964E-1,-1.6870441E0,-8.090667E-1,1.097001E0,1.0376465E0,-1.6650348E0,9.2115855E-1,-7.849228E-1,-1.845217E0,-1.0572659E0,-1.2743095E0,8.374198E-1,-1.1758082E0,1.186343E0,-1.5165677E0,6.934938E-2,-1.8459591E0,-6.154896E-1,-1.3810561E0,1.1132748E0,-1.8769826E0,-5.067909E-1,-1.7828289E0,-3.131117E-1,-1.6034262E0,-3.829075E-1,1.9629423E-1,1.7038444E0,-9.565805E-1,1.6195925E-1,-7.3405457E-1,8.478018E-1,6.138036E-1,-1.1074612E0,1.3149232E-1,1.5765144E0,-2.9785737E-1,-1.564773E0,2.5062948E-1,1.161824E0,5.62973E-1,1.5917336E0,-1.6030416E0,7.953325E-1,-3.420288E-1,-1.5593104E0,1.4243374E0,1.0355262E-1,-1.658653E0,-6.5439844E-1,-9.515593E-1,1.1288819E0,1.5030468E-1,1.4325052E0,1.836637E0,1.0180935E0,-1.1184946E0,-1.7382332E0,-1.588244E0,-5.7395184E-1,-3.0085376E-1,1.2372793E0,-7.0303506E-1,7.9006827E-1,1.6446112E0,4.145357E-1,-1.828716E0,-8.372934E-1,-8.310493E-1,1.3469218E0,-7.282597E-2,-1.5655426E0,-6.823945E-1,5.48962E-1,1.2600073E0,1.8184168E0,1.1914037E0,-1.0496479E0,-1.5799965E0,-6.74592E-1,5.302136E-1,-5.4328835E-1,-5.3576434E-1,-1.6561564E0,-2.1834995E-1,-1.4082795E0,-5.9263974E-1,-1.6231114E0,4.004013E-1,-1.2588362E0,1.3729805E0,-9.5132494E-1,-1.3435807E0,7.5127864E-1,-1.4974644E0,7.879408E-1,-1.7377428E0,-1.3941633E0,-1.578095E0,2.8589743E-1,-1.7165072E-1,-1.6016204E0,-3.6071426E-1,1.1962898E0,-1.200172E0,3.0514428E-1,-1.3063178E0,9.797952E-1,-2.9834333E-1,1.7434895E0,-1.7074268E0,-6.9110477E-1,8.8104224E-1,-7.815337E-1,1.6659998E0,3.805068E-2,2.9451966E-1,-1.0797648E0,1.3407885E0,-2.9994013E-2,-5.3527856E-1,-1.8520981E0,-1.4327104E0,3.7128076E-1,1.3744586E0,-7.939187E-1,-1.6032838E0,-1.09185606E-1,1.0571847E0,-1.0159601E0,-1.5351882E0,4.9202394E-1,-1.6856754E-1,1.4064865E0,-5.028636E-1,-1.8829656E0,1.6394253E0,4.630303E-1,-8.7895656E-1,3.1564972E-1,-2.346686E-1,1.4698405E0,1.6740963E0,-1.323852E-1,-1.0342536E0,2.1731438E-1,-3.076633E-1,-1.6285846E0,1.5731997E0,3.2380274E-1,7.2594965E-1,-7.753038E-1,1.2056074E0,-9.084308E-1,1.7124475E0,7.979654E-1,1.8420191E0,4.1322356E-1,-8.9302707E-1,1.5861799E0,-1.5430225E0,-2.7111602E-1,-1.8037226E0,-1.0308455E0,-1.6238483E0,9.650795E-3,-9.87124E-1,9.621962E-1,-1.1101394E0,4.868131E-1,1.4906901E0,-1.3849796E-1,-1.0833298E0,-3.9295893E-2,1.137656E0,-2.3448233E-1,2.711094E-1,1.7266989E0,-8.308641E-1,7.9951024E-1,6.692783E-1,-1.2443044E0,1.4238762E0,-3.0302185E-1,-6.325287E-1,5.1952225E-1,4.2036253E-1,-1.0792366E0,5.878574E-2,1.1624628E0,1.6516981E0,1.08300455E-1,1.8318185E0,2.3564899E-1,1.4391948E0,1.076187E-1,-1.7805105E0,-1.4923732E0,1.0705416E0,-1.1807821E0,-1.041824E0,5.5114824E-1,-9.33374E-1,-1.7215185E0,-1.6445115E0,-3.5752926E-2,-1.4690922E0,1.7994967E-1,4.754145E-1,-1.2425398E0,9.808257E-1,-6.859125E-1,5.246275E-1,1.7328973E0,-1.2023126E0,-1.9572489E-1,-1.5250632E0,-1.13387935E-1,-1.5745051E0,-2.528362E-1,1.2813495E0,-6.913273E-2,-3.288697E-1,-1.493432E0,-9.587134E-1,8.723704E-1,-8.039584E-1,6.4076006E-1,-1.6854321E0,-8.313737E-1,2.8324506E-1,-9.8211056E-1,1.1059914E-1,1.4362801E0,7.953413E-1,-1.1360621E0,-1.5550674E0,-1.2591152E-1,1.2890031E0,1.8310286E0,-9.8551655E-1,-4.8576426E-2,-3.382199E-1,1.5071602E0,-1.6813102E0,-1.686157E-1,6.285059E-1,-8.236648E-1,-3.7413436E-1,1.4292359E0,-1.2118475E0,-2.4957526E-1,-1.7786901E0,-9.5889807E-1,5.3870344E-1,-7.440011E-1,1.5777788E0,3.7056062E-1,1.7657217E0,7.34178E-1,-3.765037E-1,1.7813359E-1,2.4655648E-1,-1.3303494E0,-1.175738E0,6.869055E-1,-1.0453826E0,5.1309156E-1,-4.9751684E-1,-1.689386E0,-1.085812E-1,1.0539852E0,-2.2065845E-1,1.5801014E0,-2.6312906E-1,-1.4472538E0,1.7231867E0,-4.1443646E-1,-9.030688E-1,1.1603209E0,1.8451098E0,1.9308708E-3,-7.0145994E-1,1.5328159E0,6.1185867E-1,-1.4125057E0,1.7834783E0,-3.3146793E-1,-6.237333E-1,-1.6575593E0,-1.043339E0,8.63216E-1,-5.092238E-1,-1.3465414E0,-3.303223E-1,-1.6526486E0,-1.2055361E0,1.05965E0,-9.949735E-1,1.4852448E0,-3.1416255E-1,-1.3027323E0,1.0824113E0,-4.6536326E-1,4.328696E-1,1.6702302E0,5.8880836E-1,-7.539332E-1,-5.9225744E-1,1.058717E0,2.3798466E-1,1.793678E0,-3.02978E-1,1.2111512E0,2.4555977E-2,-1.5290464E0,1.4700606E0,-1.9679663E-1,8.2428795E-1,-2.7839145E-1,1.7969376E-1,-1.2852972E0,5.9212345E-1,-5.39879E-1,-4.8582458E-1,1.3214281E0,1.705135E0,3.6894134E-1,-1.0553421E0,1.1305499E0,-1.5422437E0,-9.386659E-1,3.6147751E-3,-1.3934939E0,-1.2711527E0,-2.3074916E-1,-1.2377368E0,5.7404447E-1,-4.567322E-1,-1.7379423E0,-2.8998E-1,-1.7112107E0,-8.928338E-1,2.0393215E-1,-1.5523591E0,-5.978366E-1,1.4581488E0,-2.4111554E-1,-9.8789364E-1,-1.0887039E-1,1.3358281E0,-6.15488E-1,4.2678997E-1,1.763193E0,-1.3651806E0,9.608512E-1,4.0812814E-1,-1.5420469E0,-9.271897E-2,-1.3915423E0,-2.8422582E-1,1.1405497E0,-2.1613267E-1,-9.924438E-1,-1.7140334E0,-4.21506E-1,3.8508826E-1,-1.2197042E0,5.9189624E-1,-8.449477E-1,1.5239601E0,2.968084E-1,5.3593982E-2,1.0990021E0,1.4675694E0,-7.6213115E-1,4.3893436E-1,1.7083948E0,-1.7102872E0,-4.1066134E-1,3.9629713E-1,1.5806495E0,-2.4349885E-1,-1.3726667E0,-1.4336153E0,4.6064726E-1],"categories":[],"categories_nodes":[],"categories_segments":[],"categories_sizes":[],"default_left":[1,1,1,1,1,1,1,1,1,1,1,1,1,1,1,1,1,1,1,1,1,1,1,1,1,1,1,1,1,1,1,1,1,1,1,1,1,1,1,1,1,1,0,1,1,1,1,1,1,0,1,1,1,0,0,1,1,1,0,1,1,1,1,1,1,1,0,1,1,1,1,1,1,1,1,1,1,1,1,1,1,1,1,1,1,1,1,1,1,0,1,1,0,1,1,1,1,0,0,1,1,1,1,0,1,1,1,1,1,0,0,1,0,0,1,1,1,1,0,1,1,1,1,1,1,1,1,1,1,1,1,1,0,1,1,1,1,0,1,0,1,1,1,0,0,1,1,1,1,1,1,1,1,1,1,1,1,1,1,0,1,1,0,1,0,0,1,0,0,0,1,0,0,1,1,1,0,0,0,0,0,1,0,1,1,0,0,0,1,1,1,0,0,1,1,1,0,0,0,0,0,0,0,0,0,0,0,0,0,0,1,1,0,0,0,1,1,0,0,1,1,1,1,0,0,0,0,1,1,1,1,1,1,1,1,1,1,1,1,1,1,0,1,0,1,1,0,1,1,1,1,1,0,1,1,0,0,1,1,1,1,1,0,1,0,1,1,1,0,1,1,0,1,0,1,1,1,1,1,0,1,1,0,0,1,0,1,0,0,0,0,0,0,0,0,0,0,0,0,1,0,1,1,1,1,1,0,0,0,0,0,0,0,0,0,1,1,1,1,1,1,1,1,0,0,1,0,1,1,1,1,1,1,1,1,1,1,0,1,1,0,1,1,1,1,1,1,0,0,0,0,1,1,0,1,0,1,1,0,0,0,1,1,1,1,1,1,0,0,0,0,0,1,0,1,1,0,1,1,1,1,1,0,0,0,1,1,1,1,0,0,0,0,0,0,0,0,1,1,1,1,1,0,1,1,0,0,1,1,1,0,0,0,1,0,0,0,0,1,1,0,0,0,0,1,1,0,0,1,0,0,0,0,0,0,0,0,0,0,0,0,0,0,0,0,0,0,0,0,0,0,0,0,0,0,0,0,0,0,0,0,0,0,0,0,0,0,0,0,0,0,0,0,0,0,0,0,0,0,0,0,0,0,0,0,0,0,0,0,0,0,0,0,0,0,0,0,0,0,0,0,0,0,0,0,0,0,0,0,0,0,0,0,0,0,0,0,0,0,0,0,0,0,0,0,0,0,0,0,0,0,0,0,0,0,0,0,0,0,0,0,0,0,0,0,0,0,0,0,0,0,0,0,0,0,0,0,0,0,0,0],"id":1,"left_children":[1,3,5,7,9,11,13,15,17,19,21,23,25,27,29,31,33,35,37,39,41,43,45,47,49,51,53,55,57,59,61,63,65,67,69,71,73,75,77,79,81,83,-1,85,87,89,91,93,95,-1,97,99,101,-1,-1,103,105,107,-1,109,111,113,115,117,119,121,-1,123,125,127,129,131,133,135,137,139,141,143,145,147,149,151,153,155,157,159,161,163,165,-1,167,169,-1,171,173,175,177,-1,-1,179,181,183,185,-1,187,189,191,193,195,-1,-1,197,-1,-1,199,201,203,205,-1,207,209,211,213,215,217,219,221,223,225,227,229,231,-1,233,235,237,239,-1,241,-1,243,245,247,-1,-1,249,251,253,255,257,259,261,263,265,267,269,271,273,275,-1,277,279,-1,281,-1,-1,283,-1,-1,-1,285,-1,-1,287,289,291,-1,-1,-1,-1,-1,293,-1,295,297,-1,-1,-1,299,301,303,-1,-1,305,307,309,-1,-1,-1,-1,-1,-1,-1,-1,-1,-1,-1,-1,-1,-1,311,313,-1,-1,-1,315,317,-1,-1,319,321,323,325,-1,-1,-1,-1,327,329,331,333,335,337,339,341,343,345,347,349,351,353,-1,355,-1,357,359,-1,361,363,365,367,369,-1,371,373,-1,-1,375,377,379,381,383,-1,385,-1,387,389,391,-1,393,395,-1,397,-1,399,401,403,405,407,-1,409,411,-1,-1,413,-1,415,-1,-1,-1,-1,-1,-1,-1,-1,-1,-1,-1,-1,417,-1,419,421,423,425,427,-1,-1,-1,-1,-1,-1,-1,-1,-1,429,431,433,435,437,439,441,443,-1,-1,445,-1,447,449,451,453,455,457,459,461,463,465,-1,467,469,-1,471,473,475,477,479,481,-1,-1,-1,-1,483,485,-1,487,-1,489,491,-1,-1,-1,493,495,497,499,501,503,-1,-1,-1,-1,-1,505,-1,507,509,-1,511,513,515,517,519,-1,-1,-1,521,523,525,527,-1,-1,-1,-1,-1,-1,-1,-1,529,531,533,535,537,-1,539,541,-1,-1,543,545,547,-1,-1,-1,549,-1,-1,-1,-1,551,553,-1,-1,-1,-1,555,557,-1,-1,559,-1,-1,-1,-1,-1,-1,-1,-1,-1,-1,-1,-1,-1,-1,-1,-1,-1,-1,-1,-1,-1,-1,-1,-1,-1,-1,-1,-1,-1,-1,-1,-1,-1,-1,-1,-1,-1,-1,-1,-1,-1,-1,-1,-1,-1,-1,-1,-1,-1,-1,-1,-1,-1,-1,-1,-1,-1,-1,-1,-1,-1,-1,-1,-1,-1,-1,-1,-1,-1,-1,-1,-1,-1,-1,-1,-1,-1,-1,-1,-1,-1,-1,-1,-1,-1,-1,-1,-1,-1,-1,-1,-1,-1,-1,-1,-1,-1,-1,-1,-1,-1,-1,-1,-1,-1,-1,-1,-1,-1,-1,-1,-1,-1,-1,-1,-1,-1,-1,-1,-1,-1,-1,-1,-1,-1,-1,-1,-1,-1,-1,-1,-1],"loss_changes":[1.7369918E4,5.9975806E3,2.8703613E2,1.5563242E3,1.0644034E3,2.6117664E2,7.043359E1,6.5833203E2,7.983198E2,2.22448E2,1.4083992E2,1.08404655E2,5.279471E1,3.6666992E1,5.340752E1,6.206305E1,5.0325488E2,2.331901E2,1.2465552E2,1.3516489E2,2.7875E1,7.088684E1,1.4284229E1,5.3564613E1,5.4451447E0,2.0845428E1,2.4098177E0,9.074927E1,1.0644531E0,3.6756897E0,4.214771E1,3.254435E1,8.102112E0,1.26310974E2,1.26618164E2,5.422058E1,2.0305563E2,5.558854E1,1.5658142E1,7.79541E1,7.17181E1,1.7547302E1,0E0,2.6307745E1,3.5834442E1,8.862876E0,6.775818E-1,1.8301037E1,8.923252E0,0E0,1.9601593E0,1.5478408E1,3.2187195E0,0E0,0E0,4.2859398E1,2.3982178E1,2.0100342E1,0E0,2.9840994E0,1.6786041E0,2.0422802E0,1.2223431E1,4.685089E0,7.1985455E0,1.3289494E1,0E0,4.6018723E1,3.7689545E1,9.12134E0,9.640039E1,6.918335E-2,8.548384E1,1.4429916E1,1.4179245E1,1.2438629E1,4.0365433E1,1.2919168E0,5.619751E0,6.2231445E0,8.991551E1,9.711292E0,3.3562626E1,4.545868E0,2.453756E1,9.580946E0,1.0245652E1,3.1885073E1,1.1634064E1,0E0,1.4676762E0,5.1143646E-2,0E0,5.135519E0,6.058914E0,1.1651917E0,4.761515E0,0E0,0E0,1.3552656E1,4.4291E0,7.969971E-1,5.5633535E0,0E0,1.3209244E1,2.7416687E1,6.453247E-1,2.931116E1,8.0908203E-1,0E0,0E0,1.1040192E0,0E0,0E0,4.2315483E-1,1.792736E0,1.217517E0,2.7759016E0,0E0,3.766779E0,2.3281803E0,2.4708176E0,2.1585393E-1,2.6630836E1,8.19355E0,2.9771133E1,4.9928656E0,2.1697998E-2,6.0686855E0,5.894159E1,6.0072266E1,2.6011658E0,0E0,2.5744339E1,1.4267148E1,5.2737384E0,7.4872437E0,0E0,2.8742218E0,0E0,7.5148544E0,4.0810165E0,1.3142984E1,0E0,0E0,3.6027222E0,7.577662E0,4.22287E0,1.3343209E0,4.6857605E0,3.839005E1,2.1666222E0,7.4103513E0,2.0680801E1,6.003889E0,1.8350529E1,2.5845337E0,1.9335556E1,7.9206696E0,0E0,7.248125E0,6.629648E0,0E0,9.84106E0,0E0,0E0,5.5503845E0,0E0,0E0,0E0,1.08753204E-1,0E0,0E0,3.396688E0,3.2768574E0,1.8886304E0,0E0,0E0,0E0,0E0,0E0,2.6320438E0,0E0,9.423828E-2,4.251253E0,0E0,0E0,0E0,8.496311E0,4.1886826E0,1.882773E1,0E0,0E0,7.6139946E0,2.5203981E0,4.8516846E-1,0E0,0E0,0E0,0E0,0E0,0E0,0E0,0E0,0E0,0E0,0E0,0E0,0E0,0E0,5.3560257E-2,1.5298586E0,0E0,0E0,0E0,4.4471474E1,6.709503E0,0E0,0E0,1.5820032E1,3.2033844E0,7.083845E-1,3.8049135E0,0E0,0E0,0E0,0E0,4.5853535E1,8.270526E1,2.1917969E1,1.07458E2,6.166811E0,3.7506104E-1,4.699814E0,2.5865181E1,6.669787E0,6.415428E0,1.1549158E0,1.9482963E0,5.7631073E0,4.172145E0,0E0,5.1949625E0,0E0,6.2544556E0,1.3733159E0,0E0,5.3883953E0,1.1481922E1,1.0935753E1,2.9767456E0,1.1731219E0,0E0,7.407837E-1,8.700647E0,0E0,0E0,3.9701881E0,2.2158813E0,5.0044327E1,3.3265038E0,4.220702E0,0E0,5.6449986E0,0E0,1.4111382E1,6.1079836E-1,1.4397755E0,0E0,1.0102539E0,2.169295E0,0E0,6.982788E0,0E0,1.6632273E1,3.4104552E0,8.901901E-1,1.8944432E0,5.1227245E0,0E0,8.135696E0,2.697729E0,0E0,0E0,3.6341858E0,0E0,5.2392685E-1,0E0,0E0,0E0,0E0,0E0,0E0,0E0,0E0,0E0,0E0,0E0,0E0,4.718914E0,0E0,3.4786072E0,2.177045E0,5.412197E0,9.586706E-1,1.4087486E0,0E0,0E0,0E0,0E0,0E0,0E0,0E0,0E0,0E0,1.3524939E1,2.8188782E0,2.4652634E0,2.9521924E-1,7.2205143E0,1.592115E1,2.6395454E0,1.9275284E0,0E0,0E0,1.205694E0,0E0,1.1294098E1,6.7706394E0,8.1953125E0,9.150453E1,1.6766602E1,1.6600601E1,1.8860716E1,2.9214096E1,2.2778702E-1,7.3152943E0,0E0,3.7163353E-1,2.454712E0,0E0,1.5327387E1,1.0513859E1,3.6450815E-1,3.661397E0,2.1494064E0,2.0934186E0,0E0,0E0,0E0,0E0,3.5530677E0,4.754593E0,0E0,3.134618E0,0E0,2.1874676E0,3.582161E0,0E0,0E0,0E0,1.2748368E0,2.4548092E0,7.4728165E0,5.097637E0,6.263504E-1,9.904045E0,0E0,0E0,0E0,0E0,0E0,2.4394531E0,0E0,1.7688684E0,5.5460215E-1,0E0,4.7914615E0,7.230835E-1,1.4747276E0,3.5430378E1,1.2950821E0,0E0,0E0,0E0,3.5894046E0,4.7353005E-1,1.5701176E1,5.9703064E-1,0E0,0E0,0E0,0E0,0E0,0E0,0E0,0E0,1.107773E1,6.5798492E0,2.6475253E0,5.048999E0,1.8580413E-1,0E0,3.9957428E-1,3.0473883E0,0E0,0E0,2.6860483E0,1.1979179E0,1.7941384E0,0E0,0E0,0E0,1.1268192E1,0E0,0E0,0E0,0E0,2.9843903E0,4.671402E-1,0E0,0E0,0E0,0E0,5.4300404E-1,6.6725636E-1,0E0,0E0,6.564769E0,0E0,0E0,0E0,0E0,0E0,0E0,0E0,0E0,0E0,0E0,0E0,0E0,0E0,0E0,0E0,0E0,0E0,0E0,0E0,0E0,0E0,0E0,0E0,0E0,0E0,0E0,0E0,0E0,0E0,0E0,0E0,0E0,0E0,0E0,0E0,0E0,0E0,0E0,0E0,0E0,0E0,0E0,0E0,0E0,0E0,0E0,0E0,0E0,0E0,0E0,0E0,0E0,0E0,0E0,0E0,0E0,0E0,0E0,0E0,0E0,0E0,0E0,0E0,0E0,0E0,0E0,0E0,0E0,0E0,0E0,0E0,0E0,0E0,0E0,0E0,0E0,0E0,0E0,0E0,0E0,0E0,0E0,0E0,0E0,0E0,0E0,0E0,0E0,0E0,0E0,0E0,0E0,0E0,0E0,0E0,0E0,0E0,0E0,0E0,0E0,0E0,0E0,0E0,0E0,0E0,0E0,0E0,0E0,0E0,0E0,0E0,0E0,0E0,0E0,0E0,0E0,0E0,0E0,0E0,0E0,0E0,0E0,0E0,0E0,0E0,0E0,0E0,0E0,0E0,0E0,0E0,0E0],"parents":[2147483647,0,0,1,1,2,2,3,3,4,4,5,5,6,6,7,7,8,8,9,9,10,10,11,11,12,12,13,13,14,14,15,15,16,16,17,17,18,18,19,19,20,20,21,21,22,22,23,23,24,24,25,25,26,26,27,27,28,28,29,29,30,30,31,31,32,32,33,33,34,34,35,35,36,36,37,37,38,38,39,39,40,40,41,41,43,43,44,44,45,45,46,46,47,47,48,48,50,50,51,51,52,52,55,55,56,56,57,57,59,59,60,60,61,61,62,62,63,63,64,64,65,65,67,67,68,68,69,69,70,70,71,71,72,72,73,73,74,74,75,75,76,76,77,77,78,78,79,79,80,80,81,81,82,82,83,83,84,84,85,85,86,86,87,87,88,88,90,90,91,91,93,93,94,94,95,95,96,96,99,99,100,100,101,101,102,102,104,104,105,105,106,106,107,107,108,108,111,111,114,114,115,115,116,116,117,117,119,119,120,120,121,121,122,122,123,123,124,124,125,125,126,126,127,127,128,128,129,129,130,130,131,131,133,133,134,134,135,135,136,136,138,138,140,140,141,141,142,142,145,145,146,146,147,147,148,148,149,149,150,150,151,151,152,152,153,153,154,154,155,155,156,156,157,157,158,158,160,160,161,161,163,163,166,166,170,170,173,173,174,174,175,175,181,181,183,183,184,184,188,188,189,189,190,190,193,193,194,194,195,195,210,210,211,211,215,215,216,216,219,219,220,220,221,221,222,222,227,227,228,228,229,229,230,230,231,231,232,232,233,233,234,234,235,235,236,236,237,237,238,238,239,239,240,240,242,242,244,244,245,245,247,247,248,248,249,249,250,250,251,251,253,253,254,254,257,257,258,258,259,259,260,260,261,261,263,263,265,265,266,266,267,267,269,269,270,270,272,272,274,274,275,275,276,276,277,277,278,278,280,280,281,281,284,284,286,286,299,299,301,301,302,302,303,303,304,304,305,305,315,315,316,316,317,317,318,318,319,319,320,320,321,321,322,322,325,325,327,327,328,328,329,329,330,330,331,331,332,332,333,333,334,334,335,335,336,336,338,338,339,339,341,341,342,342,343,343,344,344,345,345,346,346,351,351,352,352,354,354,356,356,357,357,361,361,362,362,363,363,364,364,365,365,366,366,372,372,374,374,375,375,377,377,378,378,379,379,380,380,381,381,385,385,386,386,387,387,388,388,397,397,398,398,399,399,400,400,401,401,403,403,404,404,407,407,408,408,409,409,413,413,418,418,419,419,424,424,425,425,428,428],"right_children":[2,4,6,8,10,12,14,16,18,20,22,24,26,28,30,32,34,36,38,40,42,44,46,48,50,52,54,56,58,60,62,64,66,68,70,72,74,76,78,80,82,84,-1,86,88,90,92,94,96,-1,98,100,102,-1,-1,104,106,108,-1,110,112,114,116,118,120,122,-1,124,126,128,130,132,134,136,138,140,142,144,146,148,150,152,154,156,158,160,162,164,166,-1,168,170,-1,172,174,176,178,-1,-1,180,182,184,186,-1,188,190,192,194,196,-1,-1,198,-1,-1,200,202,204,206,-1,208,210,212,214,216,218,220,222,224,226,228,230,232,-1,234,236,238,240,-1,242,-1,244,246,248,-1,-1,250,252,254,256,258,260,262,264,266,268,270,272,274,276,-1,278,280,-1,282,-1,-1,284,-1,-1,-1,286,-1,-1,288,290,292,-1,-1,-1,-1,-1,294,-1,296,298,-1,-1,-1,300,302,304,-1,-1,306,308,310,-1,-1,-1,-1,-1,-1,-1,-1,-1,-1,-1,-1,-1,-1,312,314,-1,-1,-1,316,318,-1,-1,320,322,324,326,-1,-1,-1,-1,328,330,332,334,336,338,340,342,344,346,348,350,352,354,-1,356,-1,358,360,-1,362,364,366,368,370,-1,372,374,-1,-1,376,378,380,382,384,-1,386,-1,388,390,392,-1,394,396,-1,398,-1,400,402,404,406,408,-1,410,412,-1,-1,414,-1,416,-1,-1,-1,-1,-1,-1,-1,-1,-1,-1,-1,-1,418,-1,420,422,424,426,428,-1,-1,-1,-1,-1,-1,-1,-1,-1,430,432,434,436,438,440,442,444,-1,-1,446,-1,448,450,452,454,456,458,460,462,464,466,-1,468,470,-1,472,474,476,478,480,482,-1,-1,-1,-1,484,486,-1,488,-1,490,492,-1,-1,-1,494,496,498,500,502,504,-1,-1,-1,-1,-1,506,-1,508,510,-1,512,514,516,518,520,-1,-1,-1,522,524,526,528,-1,-1,-1,-1,-1,-1,-1,-1,530,532,534,536,538,-1,540,542,-1,-1,544,546,548,-1,-1,-1,550,-1,-1,-1,-1,552,554,-1,-1,-1,-1,556,558,-1,-1,560,-1,-1,-1,-1,-1,-1,-1,-1,-1,-1,-1,-1,-1,-1,-1,-1,-1,-1,-1,-1,-1,-1,-1,-1,-1,-1,-1,-1,-1,-1,-1,-1,-1,-1,-1,-1,-1,-1,-1,-1,-1,-1,-1,-1,-1,-1,-1,-1,-1,-1,-1,-1,-1,-1,-1,-1,-1,-1,-1,-1,-1,-1,-1,-1,-1,-1,-1,-1,-1,-1,-1,-1,-1,-1,-1,-1,-1,-1,-1,-1,-1,-1,-1,-1,-1,-1,-1,-1,-1,-1,-1,-1,-1,-1,-1,-1,-1,-1,-1,-1,-1,-1,-1,-1,-1,-1,-1,-1,-1,-1,-1,-1,-1,-1,-1,-1,-1,-1,-1,-1,-1,-1,-1,-1,-1,-1,-1,-1,-1,-1,-1,-1],"split_conditions":[7.5792446E0,1.7218245E0,5.9480333E-1,1.375001E0,3.3030454E-2,2.53686E1,7.180834E-2,1.8039343E-1,3.27594E0,2.7245588E0,3.238656E0,1.945178E0,6.224905E-2,1.5633608E1,1.0708444E0,1.5771808E-1,-2.8793769E-2,2.5948595E-2,7.2948867E-3,1.5865507E-2,3.1204774E0,7.233407E0,3.469952E-1,6.3542426E-1,-7.2311774E-2,3.1383625E-1,4.421026E0,9.903779E-1,9.008765E-1,1.0597782E1,3.2314382E0,8.162021E-2,9.9895656E-1,8.7619716E-1,7.1902585E-1,1.326133E0,9.878398E-1,1.1252911E0,-8.90146E-1,5.655977E0,4.941901E0,8.861017E-3,-9.2239656E-2,4.651261E-1,-2.1993306E-1,-1.5160756E0,6.488893E-1,3.0243982E-2,3.8119197E-2,-1.2884358E-2,1.37241E1,1.4981718E0,3.4106325E-2,7.3489115E-2,-4.73401E-3,2.002432E0,1.7664423E0,2.440005E-1,-9.4831206E-2,2.145361E0,2.3721623E0,4.1681254E-1,1.587453E0,9.9975437E-1,4.3696945E1,2.35001E-2,-9.138878E-2,1.6108402E1,2.7869243E-2,1.4518353E-2,5.3892564E-2,1.5447336E-1,3.9372783E0,-8.9090765E-1,1.7759094E-1,-6.2156282E-2,4.251815E0,1.3198265E0,9.5604026E-1,1.0859424E0,-4.343732E-1,9.505983E0,4.498589E-1,3.5454486E-2,7.779341E-1,-5.363332E-1,5.447792E-1,2.3219313E-1,-1.3464108E0,-5.8397856E-2,7.3517656E0,3.5280615E-2,-1.8053606E-2,1.8284637E-1,4.6554985E-3,8.096597E-1,2.2591076E1,9.044836E-2,1.597501E-2,7.482189E-2,3.007945E2,3.8539262E0,1.4756572E0,-8.297502E-2,-5.2329265E-2,5.786758E0,1.5542847E1,5.3576193E0,4.2555057E-2,3.1786006E-2,-4.702428E-2,4.2951965E-1,-1.1375346E-2,-6.10592E-3,2.8536081E0,-1.276193E-1,1.0999999E0,3.6055523E-1,-8.0773346E-2,5.4856677E0,1.0033546E-3,3.5133758E-1,6.3290143E-1,2.2509978E0,4.612095E-2,9.74597E-1,1.2567661E0,7.068269E-1,1.2173935E1,1.3683493E0,7.2065616E0,1.8132222E0,-9.3854405E-2,2.3275476E0,3.2749027E-3,1.588006E0,9.523387E-1,4.5141906E-2,1.0369985E0,-5.619928E-2,8.2957983E-1,4.9826305E-2,-3.4536324E-2,6.462158E-3,-5.2807976E-2,1.1295651E-2,1.432456E0,3.7030296E0,1.013315E-1,1.9041841E0,1.3119497E0,7.295986E-1,2.2358446E0,4.2226615E0,1.3118777E2,8.070541E0,2.5037963E-2,-5.6629753E-1,3.708414E-2,-5.7030827E-2,4.209749E0,-3.3875078E-1,-7.9175495E-2,7.492606E1,8.0743186E-2,-4.4064045E-2,8.120126E-1,-3.798042E-3,5.8890343E-2,-2.3637358E-2,2.7373905E0,3.1405836E-2,-6.7820996E-2,9.459716E-1,9.999647E-1,6.9201756E-1,-8.435221E-2,-4.0453337E-2,5.485005E-2,5.1882327E-2,-8.325174E-2,1.0753689E0,-3.924614E-2,5.7876237E-2,9.538508E-1,-6.371548E-2,4.1870993E-2,-5.879041E-2,9.894092E-1,3.1804226E-2,8.218336E-1,-9.229796E-2,-3.077448E-2,2.7857862E-2,1.5308973E0,1.8249413E1,-2.5339544E-2,-8.914145E-2,-1.5655585E-2,-8.017131E-2,-1.9145375E-2,9.814712E-3,8.5192226E-2,-4.782903E-2,8.0979625E-3,-3.670273E-2,4.239009E-2,3.0690182E-2,-5.537306E-2,6.574616E-3,1.6890599E2,6.510671E-2,-7.823865E-2,1.2531474E-2,5.80912E-2,1.8136064E-2,1.2800499E0,-8.015209E-2,3.9766625E-2,4.1275406E0,1.9443853E0,2.8099403E0,6.892175E-1,-8.293265E-2,-3.271992E-2,-4.7577966E-2,5.6444097E-2,2.4504872E-1,1.0154274E0,1.5666265E0,8.324097E-2,8.2825165E0,9.318709E-3,2.198458E-2,1.2059401E-2,1.0699654E0,1.3267064E-1,1.1002338E0,6.657593E-1,1.3819227E0,2.3198762E0,-9.1435805E-2,1.7473564E0,-4.1552465E-2,9.983393E-1,3.9391117E0,-7.827713E-2,7.247429E-1,1.0373205E1,1.2969828E0,6.5318346E0,1.880301E0,-5.2482396E-2,-2.4100694E-1,1.1687671E-2,2.651068E-2,-2.7164418E-2,1.5304827E1,2.6523322E-2,8.5770863E-1,2.9060159E0,2.5614327E-1,-8.115557E-2,1.5652391E-1,-6.294181E-2,8.612402E0,3.7363295E-2,5.956906E-1,3.756393E-2,7.972019E-3,3.4542316E-1,-8.688714E-2,1.439413E-1,-7.890475E-2,-2.014042E-2,4.363041E0,5.950986E-1,2.6187582E0,-3.0627303E-2,-6.0008597E-2,1.2164032E0,-3.686043E-1,4.898976E-2,-1.4917167E-2,5.3811474E0,-8.537134E-2,1.0776386E0,4.4052113E-2,-3.9076686E-2,8.329999E-2,1.902534E-3,1.4725983E-2,-5.3988244E-2,6.703942E-2,-1.4997007E-3,-2.6763929E-2,-9.2604905E-2,-7.163552E-2,1.8564038E-2,1.3870827E-3,-3.9695937E-2,1.7102416E0,1.3018131E0,-9.50949E-3,6.7739356E-1,2.3346882E0,2.4601197E-2,-8.428377E-3,7.0324324E-2,-2.514318E-2,-9.414828E-2,8.1971265E-2,2.3151515E-2,-4.3947827E-2,1.5782487E-2,2.8257257E-1,8.2332927E-1,9.581598E-1,3.1563643E-1,2.0199889E-1,8.8609016E-1,8.456394E-3,3.7307966E-1,7.865999E-2,1.6190138E-2,-9.506127E-1,-3.876519E-2,5.1462424E-1,5.7583374E-1,1.6355877E0,3.5925155E0,1.2635581E2,3.272687E-2,1.2437487E-1,9.9998677E-1,4.2702794E-1,5.301361E-1,-9.0186134E-2,1.3603265E0,1.4095724E0,4.8253973E-4,2.9279857E0,1.5316803E0,1.7100097E0,1.2596309E0,1.5816395E0,1.913371E0,-5.4166492E-2,-1.9647947E-3,5.68828E-2,-1.1724117E-2,1.2379203E1,9.33664E-1,-4.1543204E-2,3.933842E-2,3.3463918E-2,5.1816046E-1,6.6489897E0,-1.5151093E-2,-3.1626437E-2,2.5976112E-2,-9.573173E-1,4.4445696E0,4.1234004E-1,9.371543E-1,4.319871E0,5.1150837E0,9.1590926E-2,1.178245E-2,7.195974E-2,5.380935E-3,-8.902553E-2,1.1195307E-2,5.3527083E-2,2.21044E-3,6.869325E-3,2.7557412E-2,6.0612075E-3,2.289219E-2,3.4625474E-2,-2.9920053E-2,5.249628E-2,8.997484E-3,2.3770725E-2,-6.212699E-2,2.2364182E0,8.5540945E-3,2.2742987E0,-1.1343641E0,-6.011563E-2,-9.7862445E-3,-7.625316E-2,-5.669397E-3,-7.8725256E-2,-1.264181E-2,6.4067475E-2,-3.4566366E-3,2.9786844E0,2.6775599E-2,2.2298223E-1,5.7938623E0,3.9538926E-1,3.2038003E-2,1.4625462E1,6.3320243E-1,1.4162253E-2,-4.910553E-2,1.2081693E0,1.3487251E0,6.731036E0,-5.6803107E-2,-7.775337E-2,-6.295576E-3,3.3249197E0,9.155143E-2,-4.9275827E-2,-2.4288213E-3,-1.6910996E-2,2.74983E0,2.5541916E0,-8.4307855E-3,3.1425294E-2,-4.118324E-2,-1.8706718E-2,2.5375983E-1,3.7441337E-1,-1.2478763E-2,-8.89345E-2,5.5689546E-3,2.6935173E-2,-3.7200056E-2,7.8888945E-2,1.8528031E-2,8.828609E-2,3.6708903E-2,-1.8825186E-2,8.90668E-3,1.2327824E-2,-6.651747E-2,-5.87869E-2,3.4345277E-2,-5.226913E-2,2.5654579E-2,-2.4875842E-2,-8.44693E-2,-5.42906E-3,5.2699264E-2,-1.1032923E-2,7.900507E-2,-1.3156453E-2,-7.236269E-2,8.615934E-2,-2.0721823E-2,-4.515344E-2,5.8016043E-2,9.2255495E-2,9.654354E-5,-3.5072997E-2,7.66408E-2,3.0592933E-2,-7.062529E-2,8.917391E-2,-1.6573397E-2,-3.1186664E-2,-8.2877964E-2,-5.216695E-2,4.31608E-2,-2.5461191E-2,-6.7327075E-2,-1.6516116E-2,-8.263243E-2,-6.0276806E-2,5.2982498E-2,-4.9748674E-2,7.426224E-2,-1.5708128E-2,-6.513662E-2,5.4120567E-2,-2.3268163E-2,2.164348E-2,8.351151E-2,2.9440418E-2,-3.769666E-2,-2.9612873E-2,5.293585E-2,1.1899233E-2,8.9683905E-2,-1.51489E-2,6.0557563E-2,1.2277989E-3,-7.645232E-2,7.350303E-2,-9.839832E-3,4.12144E-2,-1.3919572E-2,8.984688E-3,-6.426486E-2,2.9606173E-2,-2.699395E-2,-2.429123E-2,6.6071406E-2,8.525675E-2,1.8447068E-2,-5.2767105E-2,5.6527495E-2,-7.711219E-2,-4.6933297E-2,1.8073876E-4,-6.967469E-2,-6.355764E-2,-1.1537458E-2,-6.1886843E-2,2.8702224E-2,-2.283661E-2,-8.689712E-2,-1.4499E-2,-8.556054E-2,-4.4641692E-2,1.0196608E-2,-7.761796E-2,-2.9891832E-2,7.290744E-2,-1.2055777E-2,-4.9394682E-2,-5.4435194E-3,6.679141E-2,-3.07744E-2,2.1339498E-2,8.815965E-2,-6.825903E-2,4.804256E-2,2.0406408E-2,-7.710235E-2,-4.635948E-3,-6.957712E-2,-1.4211291E-2,5.7027485E-2,-1.0806634E-2,-4.962219E-2,-8.570167E-2,-2.1075299E-2,1.9254414E-2,-6.0985208E-2,2.9594813E-2,-4.2247385E-2,7.6198004E-2,1.4840419E-2,2.679699E-3,5.4950107E-2,7.3378466E-2,-3.8106557E-2,2.1946719E-2,8.541974E-2,-8.551436E-2,-2.0533068E-2,1.9814856E-2,7.903247E-2,-1.21749425E-2,-6.863334E-2,-7.168077E-2,2.3032364E-2],"split_indices":[0,3,3,1,4,0,4,2,2,3,3,2,4,0,10,1,7,4,4,4,3,6,11,1,7,5,5,3,3,0,2,2,8,3,12,2,8,3,7,2,2,4,0,0,7,9,10,7,4,0,10,2,4,0,0,2,3,5,0,3,9,5,1,8,10,4,0,6,4,4,5,5,10,8,5,7,2,0,11,10,9,6,5,5,0,9,9,4,9,0,6,4,0,3,4,1,6,0,0,3,0,2,2,0,7,2,0,2,4,0,0,4,0,0,2,8,12,0,0,5,4,1,9,2,4,0,3,12,6,2,7,1,0,10,4,2,8,0,2,0,12,0,7,0,0,4,3,9,9,3,12,1,0,0,6,6,7,9,5,0,2,9,0,6,0,0,12,0,0,0,1,0,0,12,8,11,0,0,0,0,0,12,0,3,11,0,0,0,11,4,11,0,0,4,9,0,0,0,0,0,0,0,0,0,0,0,0,0,0,0,10,2,0,0,0,4,12,0,0,2,6,0,0,0,0,0,0,3,3,12,4,10,4,4,4,12,5,12,11,10,6,0,1,0,8,2,0,11,6,3,0,1,0,9,0,0,0,6,0,12,1,0,0,5,0,6,7,7,0,4,1,0,1,0,7,6,10,3,7,0,12,7,0,0,2,0,12,0,0,0,0,0,0,0,0,0,0,0,0,4,0,3,1,7,8,2,0,0,0,0,0,0,0,0,0,1,11,11,9,1,12,4,11,0,0,8,0,2,1,12,2,10,4,1,8,9,2,0,0,1,0,2,2,1,12,2,1,0,0,0,0,6,6,0,4,0,0,0,0,0,0,8,2,8,12,0,2,0,0,0,0,0,4,0,4,7,0,4,5,5,7,7,0,0,0,3,7,3,9,0,0,0,0,0,0,0,0,3,7,9,6,11,0,2,11,0,0,9,12,2,0,0,0,0,0,0,0,0,2,10,0,0,0,0,1,1,0,0,4,0,0,0,0,0,0,0,0,0,0,0,0,0,0,0,0,0,0,0,0,0,0,0,0,0,0,0,0,0,0,0,0,0,0,0,0,0,0,0,0,0,0,0,0,0,0,0,0,0,0,0,0,0,0,0,0,0,0,0,0,0,0,0,0,0,0,0,0,0,0,0,0,0,0,0,0,0,0,0,0,0,0,0,0,0,0,0,0,0,0,0,0,0,0,0,0,0,0,0,0,0,0,0,0,0,0,0,0,0,0,0,0,0,0,0,0,0,0,0,0,0,0,0,0,0,0,0,0,0,0,0,0],"split_type":[0,0,0,0,0,0,0,0,0,0,0,0,0,0,0,0,0,0,0,0,0,0,0,0,0,0,0,0,0,0,0,0,0,0,0,0,0,0,0,0,0,0,0,0,0,0,0,0,0,0,0,0,0,0,0,0,0,0,0,0,0,0,0,0,0,0,0,0,0,0,0,0,0,0,0,0,0,0,0,0,0,0,0,0,0,0,0,0,0,0,0,0,0,0,0,0,0,0,0,0,0,0,0,0,0,0,0,0,0,0,0,0,0,0,0,0,0,0,0,0,0,0,0,0,0,0,0,0,0,0,0,0,0,0,0,0,0,0,0,0,0,0,0,0,0,0,0,0,0,0,0,0,0,0,0,0,0,0,0,0,0,0,0,0,0,0,0,0,0,0,0,0,0,0,0,0,0,0,0,0,0,0,0,0,0,0,0,0,0,0,0,0,0,0,0,0,0,0,0,0,0,0,0,0,0,0,0,0,0,0,0,0,0,0,0,0,0,0,0,0,0,0,0,0,0,0,0,0,0,0,0,0,0,0,0,0,0,0,0,0,0,0,0,0,0,0,0,0,0,0,0,0,0,0,0,0,0,0,0,0,0,0,0,0,0,0,0,0,0,0,0,0,0,0,0,0,0,0,0,0,0,0,0,0,0,0,0,0,0,0,0,0,0,0,0,0,0,0,0,0,0,0,0,0,0,0,0,0,0,0,0,0,0,0,0,0,0,0,0,0,0,0,0,0,0,0,0,0,0,0,0,0,0,0,0,0,0,0,0,0,0,0,0,0,0,0,0,0,0,0,0,0,0,0,0,0,0,0,0,0,0,0,0,0,0,0,0,0,0,0,0,0,0,0,0,0,0,0,0,0,0,0,0,0,0,0,0,0,0,0,0,0,0,0,0,0,0,0,0,0,0,0,0,0,0,0,0,0,0,0,0,0,0,0,0,0,0,0,0,0,0,0,0,0,0,0,0,0,0,0,0,0,0,0,0,0,0,0,0,0,0,0,0,0,0,0,0,0,0,0,0,0,0,0,0,0,0,0,0,0,0,0,0,0,0,0,0,0,0,0,0,0,0,0,0,0,0,0,0,0,0,0,0,0,0,0,0,0,0,0,0,0,0,0,0,0,0,0,0,0,0,0,0,0,0,0,0,0,0,0,0,0,0,0,0,0,0,0,0,0,0,0,0,0,0,0,0,0,0,0,0,0,0,0,0,0,0,0,0,0,0,0,0,0,0,0,0,0,0,0,0,0,0,0,0,0,0,0,0,0,0],"sum_hessian":[1.0862298E4,6.133666E3,4.7286323E3,4.5904976E3,1.5431681E3,2.4459271E2,4.4840396E3,3.8751462E3,7.1535156E2,1.3026405E3,2.4052763E2,9.1053345E1,1.5353937E2,4.425957E3,5.808253E1,8.716469E1,3.7879814E3,4.1012405E2,3.052275E2,5.963845E2,7.06256E2,2.1374893E2,2.6778702E1,4.6973064E1,4.408028E1,1.4753024E2,6.0091333E0,2.9286807E2,4.133089E3,3.222225E1,2.5860281E1,2.4026213E1,6.313848E1,2.0591609E2,3.5820654E3,3.061548E2,1.03969284E2,1.1419319E2,1.9103432E2,5.0964423E2,8.6740265E1,2.6847992E2,4.3777606E2,4.3499878E1,1.7024905E2,6.620375E0,2.0158327E1,2.0781094E1,2.619197E1,1.1219954E0,4.2958286E1,1.8347933E1,1.2918231E2,4.9691257E0,1.0400077E0,2.8833796E1,2.6403427E2,2.0232056E2,3.9307683E3,3.410663E0,2.881159E1,9.144963E0,1.6715317E1,8.796317E0,1.5229896E1,1.3097084E1,5.0041397E1,1.13553955E2,9.236214E1,1.4710866E1,3.5673545E3,1.6114061E2,1.4501416E2,6.804944E1,3.591985E1,4.7382004E1,6.681119E1,2.4812052E0,1.885531E2,2.0245091E2,3.0719333E2,2.7856266E1,5.8883995E1,2.02196E2,6.628393E1,2.3827946E1,1.9671932E1,1.8347952E1,1.5190111E2,2.353407E0,4.2669683E0,1.9013262E1,1.1450651E0,4.7905445E0,1.599055E1,2.29262E1,3.26577E0,4.156828E1,1.3900052E0,1.170054E1,6.647393E0,1.25375885E2,3.806423E0,8.076014E0,2.0757782E1,5.0315445E1,2.1371883E2,2.7831884E1,1.7448868E2,1.0100614E0,2.4006016E0,2.7727934E1,1.083655E0,1.4496628E0,7.6953006E0,1.4042298E1,2.6730185E0,2.4725919E0,6.323725E0,3.1827302E0,1.2047165E1,1.057846E1,2.5186245E0,1.0469089E2,8.863064E0,8.100174E1,1.1360396E1,1.1045366E1,3.6655004E0,5.1134442E2,3.05601E3,6.453774E1,9.660287E1,1.1958941E2,2.5424751E1,7.4658966E0,6.058354E1,1.6567532E0,3.4263096E1,1.5131599E0,4.5868847E1,1.9126694E1,4.7684494E1,1.2225999E0,1.2586055E0,1.8332326E2,5.2298512E0,1.9981903E2,2.6318848E0,8.509025E1,2.2210307E2,1.7857943E1,9.998324E0,5.1654877E1,7.22912E0,1.7607811E1,1.8458818E2,2.7152317E1,3.913161E1,1.5183519E0,2.2309593E1,1.234829E1,7.3236427E0,1.0408544E1,7.939409E0,1.1630989E0,1.50738E2,1.0506071E0,3.216361E0,1.0360672E0,1.7977196E1,1.1349527E0,3.655592E0,2.9771767E0,1.3013373E1,2.7605693E0,2.0165632E1,1.733064E0,1.5327059E0,1.5204929E0,1.0180046E1,5.4936624E0,1.1537306E0,1.1944126E2,5.9346232E0,2.7637784E0,1.0426446E0,1.87928E0,1.8878504E1,3.4755836E1,1.5559608E1,2.1203545E2,1.6833909E0,2.2756847E1,5.075037E0,1.7317607E2,1.3126063E0,2.672356E1,1.0043736E0,6.6183805E0,1.0769203E0,1.1330354E0,1.2909263E1,1.4845533E0,1.188465E0,1.4336507E0,1.038941E0,1.8598535E0,1.3228767E0,1.4459713E0,1.0601193E1,2.5130057E0,8.065454E0,1.0615441E0,1.4570805E0,6.0002605E1,4.4688282E1,7.7925873E0,1.0704764E0,3.9277958E1,4.172378E1,6.4333477E0,4.9270487E0,9.17208E0,1.8732861E0,1.6344202E0,2.0310802E0,3.905984E1,4.7228458E2,2.9593374E3,9.6672745E1,1.7305508E1,4.7232235E1,8.1333664E1,3.825575E1,8.61547E0,1.680928E1,3.7440882E0,3.7218084E0,5.426707E1,6.316469E0,2.8149204E1,6.113891E0,1.0078664E0,4.4860977E1,2.1510723E0,1.697562E1,1.0276267E1,3.7408226E1,2.363824E1,1.5968501E2,3.9450614E0,1.2847897E0,1.924006E2,7.4184165E0,1.3388422E0,1.2930425E0,5.174045E0,7.991621E1,1.9139883E2,3.0704243E1,4.229551E0,1.3628391E1,6.8858933E0,3.1124313E0,4.81933E1,3.4615755E0,6.2234674E0,1.0056523E0,1.3687564E1,3.920248E0,1.1491281E2,6.967538E1,6.512016E0,2.06403E1,4.6362596E0,3.449535E1,3.0391085E0,1.9270485E1,3.1113565E0,9.236934E0,8.854493E0,1.5540497E0,1.0701898E0,1.4966782E2,1.5954486E1,2.022709E0,1.2179708E0,1.7592058E0,1.1589707E1,1.4236656E0,1.0271031E0,1.7334663E0,3.5276754E0,1.9659871E0,1.0358645E0,1.18405396E2,4.6972084E0,1.2374148E0,1.7520096E1,1.3584062E0,3.260752E1,2.1483142E0,8.159158E0,7.4004507E0,2.1193287E1,1.5635622E0,1.0239041E0,4.0511327E0,1.1194557E0,1.7205661E2,9.587187E0,1.014007E0,1.0683832E0,1.4446224E0,3.231817E1,2.7684437E1,4.2678505E1,2.0097766E0,1.7174414E1,2.2103544E1,2.4735167E0,3.9250267E1,5.288517E0,1.1448308E0,2.9862213E0,1.9408275E0,1.9492157E1,1.9567682E1,3.265296E2,1.4575496E2,2.947897E3,1.1440307E1,2.2020561E1,7.465218E1,1.0982469E1,6.323038E0,4.181152E1,5.420716E0,7.954499E1,1.7886673E0,3.0428822E1,7.826927E0,4.047489E0,4.567981E0,1.4124161E1,2.6851203E0,1.9783913E0,1.7656969E0,2.6965764E0,1.025232E0,3.303028E0,5.0964043E1,1.2179966E0,5.0984726E0,1.1633434E0,4.9505477E0,4.2992783E1,1.8681943E0,1.0711361E0,1.0799361E0,2.703746E0,7.572521E0,2.1403238E1,1.6004988E1,1.731526E1,6.322981E0,1.5818826E2,1.4967564E0,2.9440217E0,1.0010397E0,5.263418E1,1.3976643E2,1.4172894E0,6.0011272E0,3.558645E0,1.6154E0,7.8947806E0,7.202142E1,2.0815395E1,1.7058344E2,2.964419E1,1.0600525E0,1.7015998E0,2.527951E0,4.551242E0,2.3346515E0,1.5087789E1,3.310551E1,2.15466E0,1.3069156E0,5.2145095E0,1.0089577E0,1.2640119E1,1.0474449E0,2.17379E0,1.746458E0,6.3068585E0,6.3368523E1,6.4075375E0,1.4232763E1,2.6129656E0,2.0232942E0,3.0038633E1,4.4567175E0,1.7596966E0,1.2794118E0,3.7530282E0,1.5517457E1,7.2269692E0,2.0099645E0,7.0511823E0,1.8033113E0,2.671153E1,1.2295628E2,1.0210466E0,1.0016624E0,1.1485046E0,1.6371592E1,3.076254E1,1.8449792E0,1.1161904E0,1.0321238E0,1.6821512E0,6.4770064E0,5.431031E0,1.9694195E0,1.3431557E1,7.7617292E0,1.2809904E1,1.9508265E1,2.4812786E1,2.8716495E0,3.8087097E1,4.5914073E0,1.0062224E0,1.0035543E0,3.2562568E0,1.3918157E1,5.193415E0,1.6910128E1,1.1585197E0,1.314997E0,2.4707296E0,3.6779537E1,1.0313743E0,1.954847E0,4.1391025E0,1.5353055E1,9.581313E0,9.98637E0,3.25078E2,1.4516113E0,2.5334234E1,1.2042072E2,2.9429512E3,4.945899E0,5.9198656E0,5.520441E0,5.6051326E0,1.6415428E1,6.775149E1,6.9006906E0,1.9308541E0,9.051615E0,3.8097079E0,2.5133302E0,3.0289795E0,2.3917363E0,2.004077E0,7.754092E1,2.7866215E1,2.5626082E0,1.4603305E0,6.3665967E0,1.3011461E0,2.746343E0,2.7260354E0,1.8419454E0,2.5443373E0,1.15798235E1,1.2505344E0,1.4345859E0,1.6940542E0,1.608974E0,2.390245E0,4.85738E1,1.45787E0,3.6406026E0,1.0748022E0,3.8757458E0,4.189192E1,1.1008657E0,1.5994852E0,1.1042609E0,1.0831225E0,6.4893985E0,1.1324981E1,1.0078258E1,1.226933E0,1.4778055E1,1.6306684E1,1.0085748E0,2.9418523E0,3.3811288E0,1.2658046E2,1.3185971E1,1.0633446E0,4.937783E0,2.3320277E0,1.2266176E0,6.7173777E0,1.1774029E0,1.2925496E0,7.0728874E1,1.2278454E0,1.958755E1,3.6683445E1,1.339E2,2.6344654E1,3.2995372E0,3.133793E0,1.4174489E0,1.0652058E0,1.2694457E0,8.715199E0,6.3725886E0,1.092518E0,3.2012993E1,3.4645388E0,2.8423197E0,1.3953328E0,6.1973186E1,2.5399263E0,3.8676112E0,2.6677077E0,1.1565055E1,1.155624E0,1.4573417E0,2.9025692E1,1.0129409E0,1.0804645E0,3.3762531E0,2.7489727E0,1.0040554E0,1.4095416E1,1.422041E0,2.4409626E0,4.786007E0,2.4834055E1,1.8774768E0,3.0995057E0,1.3272086E1,2.9738365E1,1.0241756E0,1.2905089E0,5.1864977E0,1.1315694E0,4.299462E0,5.80915E0,1.9525787E0],"tree_param":{"num_deleted":"0","num_feature":"13","num_nodes":"561","size_leaf_vector":"0"}},{"base_weights":[-3.3720973E-1,7.237148E-1,-1.7149161E0,1.2720555E0,-9.0522844E-1,-7.0129436E-1,-1.7701061E0,1.530708E0,7.214585E-2,-1.2457664E0,9.3700874E-1,5.773788E-1,-1.4589922E0,-1.783907E0,-7.083834E-1,-1.0130816E0,1.5860578E0,-8.6477715E-1,1.1297345E0,-6.376968E-1,-1.5049857E0,1.196558E0,-1.1012031E0,-4.308225E-1,1.639181E0,-1.5738411E0,1.1763041E0,-1.4414681E0,-1.8078402E0,4.8122832E-1,-1.4004762E0,2.2544889E-1,-1.5404909E0,1.5507399E-1,1.6657281E0,-1.3182372E0,4.0223998E-1,2.896099E-1,1.6077853E0,-1.3416404E0,-1.9244994E-1,-1.7590528E0,-1.2238425E0,2.8345615E-1,1.5343003E0,8.219414E-2,-1.4975256E0,6.981813E-1,-1.3199555E0,-2.5089177E-1,1.6934487E0,-5.773656E-1,-1.7101508E0,1.4136026E0,-9.226757E-2,1.611698E-1,-1.6167543E0,-1.666575E0,-1.8146863E0,-1.2966996E0,1.4667301E0,-5.2003074E-1,-1.6301423E0,-1.1648403E0,1.0505077E0,-7.331317E-1,-1.7296457E0,8.2674515E-1,-6.9064593E-1,-1.0745767E0,1.6773927E0,-1.6514165E0,-7.8795236E-1,1.3275591E0,-1.3769747E0,1.0801053E0,-3.1179947E-1,-4.5008457E-1,1.6395812E0,-1.444806E0,-5.6394196E-1,-5.4358584E-1,1.0539808E0,-4.9111468E-1,-1.7606941E0,-1.5664735E0,-9.127995E-1,-3.5515052E-1,9.5113516E-1,1.0249546E-1,1.66483E0,-9.6803224E-1,9.8952925E-1,-1.5456293E0,-3.0689606E-1,-8.243408E-1,1.1765982E0,-1.5239062E0,1.2986527E-1,1.7315527E0,3.1024536E-1,-9.894331E-1,1.0947777E0,-1.7383233E0,-6.158589E-1,-1.5933505E0,8.8481426E-1,-9.694884E-1,-1.7553986E0,-8.6375594E-1,-1.7892429E0,2.0038164E-1,-1.5340841E0,8.605123E-3,1.6015403E0,-1.2036629E0,7.881085E-1,-1.6859024E0,-2.248883E-1,-1.4189561E-2,-1.5526024E0,-1.917033E-1,1.3690113E0,-1.1952981E0,1.015821E0,1.0130655E0,-1.2993039E0,-1.3337078E0,-4.6156954E-2,-1.531294E0,1.289137E-1,1.3843554E0,1.76053E0,-1.4410622E0,-1.7934599E0,-1.5169028E0,2.8545943E-1,6.379807E-2,1.4798043E0,-1.7100639E0,4.426854E-2,-1.2884384E0,1.1945763E0,-1.4512125E0,2.3465808E-1,-1.1450104E0,5.64707E-1,1.7465202E0,1.0972594E0,-1.4899336E0,-3.0715615E-1,-1.3031079E0,1.7950514E-1,-1.379097E0,-2.2760445E-1,1.3028871E0,-9.5474195E-1,-1.2923806E0,-1.6455818E0,-1.1639768E0,-1.14167616E-1,3.0448532E-2,-1.2729276E0,1.1704731E0,-8.84012E-1,-1.1327529E0,1.5234191E0,-8.835117E-1,1.6929287E0,-1.6508606E-1,-1.177549E0,7.616605E-2,1.2202957E0,-4.4267902E-1,-1.5815997E0,6.1167157E-1,-1.3068746E0,-4.7113623E-2,1.4407711E0,-6.059064E-1,-1.6153139E0,-7.84052E-1,1.0653235E0,-1.2831911E0,1.1303177E0,1.3133305E0,2.0476711E-1,-1.765625E0,-1.0147046E0,-1.2312056E0,8.1587505E-1,-1.1394479E0,1.133925E0,-1.4397106E0,1.49024E-1,-1.7617201E0,-5.9646124E-1,-1.3228418E0,1.0706005E0,-1.7962294E0,-4.9254876E-1,1.6840295E0,3.8027585E-1,-1.4210147E0,-2.063264E-1,7.5109325E-2,1.0421125E0,-7.127049E-1,8.352721E-1,5.9413016E-1,-1.0773946E0,1.2760822E-1,1.5133499E0,-2.9107213E-1,-1.4483914E0,5.853975E-1,1.5590241E0,-1.6062789E0,5.676256E-1,5.2358694E-2,-1.4914486E0,-5.480158E-1,1.1195662E0,-8.6667025E-1,1.1141418E0,1.4357462E0,-7.7878374E-1,1.7649999E0,2.267619E-1,1.5047142E-1,-1.4637146E0,-1.5505104E0,6.301609E-2,-5.6365985E-1,1.0714104E0,-5.8803946E-1,7.3543626E-1,1.5853804E0,5.004007E-1,-1.8336383E-1,-1.7621531E0,1.2063998E0,-8.014784E-1,-8.716449E-1,1.2552334E0,5.759781E-2,-1.5369699E0,4.5707145E-1,-1.2979048E0,1.7511927E0,4.75994E-1,-3.5603002E-1,1.4467505E0,-1.5029083E0,2.7107295E-2,1.0657816E0,-9.128693E-1,-5.576115E-1,-1.536018E0,9.145325E-1,-1.1188726E0,-5.340157E-1,-1.4676043E0,-3.4011449E-3,-1.2242076E0,-3.551343E-1,1.474298E0,-1.2670139E0,-5.7673864E-3,-1.4076284E0,-5.2316725E-1,-9.5499295E-1,-1.6838257E0,4.7117257E-1,-1.2501551E0,9.5343727E-1,-2.5377032E-1,-1.9176202E-1,-1.4655278E0,-4.7683576E-1,1.3106353E0,-1.2949502E-1,-1.1573395E0,-1.4857314E0,5.062363E-1,1.7139738E0,1.3896284E-1,-1.6510738E0,-6.740909E-1,8.5756487E-1,-7.5719684E-1,1.5973556E0,3.6933165E-2,2.8708288E-1,-1.0470414E0,-2.6473096E-2,-1.4733257E0,-5.065307E-1,-1.7721754E0,2.6739907E-1,-1.4297593E0,1.3158956E0,-7.716017E-1,-1.5118479E0,4.5129102E-1,1.0375551E0,-9.430411E-1,-1.471805E0,4.7715712E-1,-1.6430818E-1,1.3543059E0,-4.8971125E-1,-1.8018855E0,1.5725399E0,4.5162722E-1,-8.566874E-1,3.063237E-1,-2.2910292E-1,1.3729533E0,-4.4446063E-1,1.6170863E0,-7.1038324E-1,1.0361348E0,-7.080274E-2,-1.5917981E0,-1.1349921E0,5.3185314E-1,1.3207463E0,-5.296178E-1,1.6006083E0,7.044394E-1,-1.3814522E0,1.1355618E0,8.66509E-1,1.7720195E0,-8.673646E-1,1.2829885E0,-1.5063182E0,-5.711117E-1,-6.859153E-1,-1.6083072E0,6.5783155E-1,-8.4089273E-1,1.309252E0,-3.4858766E-1,4.679066E-2,-9.5162785E-1,1.1020405E0,-2.8448403E-1,1.6453778E0,-1.4913598E-1,9.193633E-1,-9.496193E-1,4.8711142E-1,-1.3212794E0,1.3458432E0,2.1622066E-1,-5.771936E-1,7.170116E-1,-3.2281026E-1,-1.5967063E0,1.4529287E0,1.7985659E0,-9.145638E-1,9.842167E-1,1.5300432E0,-5.875568E-1,-1.3717432E0,-1.698461E0,-1.1505276E0,-3.091378E-1,-1.0160308E0,3.7425354E-1,1.2838757E0,-5.897681E-1,3.6747557E-1,-1.1293671E0,-9.5554575E-2,-1.5137544E0,1.8941104E-1,-1.1494606E0,-1.4993553E0,1.1808683E-1,-9.6042454E-1,2.8754383E-1,1.5747557E0,-3.762152E-1,-1.5855635E0,-6.717557E-1,5.753664E-1,-1.2579476E0,-7.2867674E-1,-1.5219668E0,-8.067686E-1,1.0082349E0,-1.483357E0,4.0175283E-1,-2.9153726E-1,1.4078078E0,-5.9266853E-1,9.02492E-1,-4.2100862E-1,-1.5624758E0,-4.9254948E-1,1.4185243E0,1.7414292E0,7.454289E-1,-9.6154106E-1,-4.7361266E-2,-1.6668501E0,-4.1479257E-1,-5.337769E-1,-1.7792019E0,-3.2921943E-1,1.4441198E0,-1.6061301E0,8.7195374E-2,-4.633314E-1,1.422744E0,-9.7795516E-2,-1.0740019E0,-1.7058076E0,-9.1908026E-1,9.8699075E-1,-6.115049E-1,1.4983002E0,3.255302E-1,1.6568744E0,2.8585172E-1,-1.0094357E0,3.7030093E-2,5.643968E-1,-8.4720457E-1,-3.7765232E-1,-1.6317358E0,8.3893645E-1,-1.2778723E0,-2.1243787E-1,1.1867032E0,-1.1660029E-1,1.4912356E0,9.8495656E-1,1.7015885E0,-1.5359488E0,9.6850365E-1,-1.0724004E-1,-1.5950767E0,1.2664014E-1,1.3644404E0,1.4782842E0,-3.844303E-1,1.7795852E0,1.1405164E0,-1.2681028E0,2.6973784E-2,-1.5253695E0,-2.5948942E-1,7.077897E-2,-1.1917355E0,-1.2411681E0,-2.2922074E-2,-8.878166E-1,-1.6516118E0,9.608293E-1,-2.8439066E-1,-1.2005662E0,-7.908595E-2,1.54124E0,5.575895E-1,-8.8640183E-1,6.778621E-1,1.9727087E-1,1.7028486E0,-4.185277E-1,1.2390323E0,1.3836427E0,-2.3489363E-1,9.8610425E-1,-9.6449107E-1,4.8236895E-1,-1.000385E0,-1.8445936E-1,9.742016E-1,5.929596E-1,1.5922569E0,-1.2658E0,1.7143396E-1,1.5823574E0,-6.155906E-2,-1.4129614E0,-5.734856E-1,2.9955858E-1,1.4848903E0,-6.053191E-1,1.0980632E0,-6.590886E-1,-1.575482E0,-9.936851E-1,4.7237256E-1,-1.2914263E0,2.1345252E-2,7.5369306E-2,-1.6185157E0,-1.0723968E0,8.815934E-1,6.861051E-1,-2.5070688E-1,2.893E-1,1.6034683E0,-3.0267343E-2,-5.3993404E-1,-1.6157674E0,-3.1077212E-1,2.3998342E-1,-1.3167012E0,-5.696392E-1,1.1736512E0,-1.4581918E0,-5.066615E-1,-5.679628E-2,-1.5707264E0,2.207963E-1,-1.1559558E0,1.2330642E0,-7.7023506E-1,-1.6661963E0,-7.49571E-1,1.0246804E0,-4.335051E-1,-5.0787043E-2,-9.3719953E-1,1.5792099E-1,1.1814345E0,1.4808375E0,1.05455734E-1,2.3863424E-1,1.752745E0,1.2460259E0,-3.8686228E-1,-9.0267324E-1,2.8368187E-1,4.226479E-1,1.6370682E0,-1.6334617E0,-4.0033886E-1,-2.78813E-1,-1.1744933E0,-1.3772136E0,4.4553834E-1],"categories":[],"categories_nodes":[],"categories_segments":[],"categories_sizes":[],"default_left":[1,1,1,1,1,1,1,1,1,1,1,1,1,1,1,1,1,1,1,1,1,1,1,1,1,1,1,1,1,1,1,1,1,1,1,1,1,1,1,1,1,1,1,1,1,1,1,1,1,0,1,1,1,0,0,1,1,1,0,1,1,1,1,1,1,1,0,1,1,1,1,1,1,1,1,1,1,1,1,1,1,1,1,0,0,1,1,1,1,1,1,1,1,1,0,1,1,1,1,0,0,1,1,1,1,0,1,1,1,1,1,0,0,0,1,1,1,0,0,1,0,1,1,1,0,1,1,1,1,0,1,1,1,1,0,1,1,1,1,1,1,0,1,1,1,0,0,1,1,1,1,1,1,1,1,1,1,1,0,1,1,1,1,1,1,1,0,0,1,0,0,0,0,0,1,0,0,1,1,1,0,0,0,1,0,0,0,1,1,0,0,0,1,1,1,0,0,1,1,1,0,0,0,0,0,0,0,0,0,0,0,0,1,1,0,1,1,0,0,1,1,1,1,0,0,1,1,1,1,0,1,1,0,1,1,1,1,1,1,0,0,0,1,0,1,0,0,1,1,1,0,1,1,1,0,0,1,1,0,1,0,1,1,1,1,1,1,0,0,1,1,1,0,1,1,1,1,0,1,0,1,0,0,0,0,1,0,0,1,0,0,0,0,0,0,0,1,0,1,0,0,1,0,1,0,1,1,1,0,0,0,0,0,0,0,0,0,1,1,0,1,1,0,1,1,1,1,1,0,1,1,1,1,1,1,1,0,1,1,1,1,1,1,1,1,0,0,0,0,1,0,1,0,0,0,1,1,1,1,0,0,1,0,1,0,1,0,1,0,0,0,0,0,1,0,1,0,0,1,1,1,1,1,0,1,1,1,1,1,1,0,1,1,1,1,1,1,0,0,1,1,0,0,0,1,1,1,0,0,0,1,0,0,0,1,1,0,0,0,0,1,0,1,0,0,0,0,0,0,0,0,0,0,0,0,0,0,0,0,0,0,0,0,0,0,0,0,0,0,0,0,0,0,0,0,0,0,0,0,0,0,0,0,0,0,0,0,0,0,0,0,0,0,0,0,0,0,0,0,0,0,0,0,0,0,0,0,0,0,0,0,0,0,0,0,0,0,0,0,0,0,0,0,0,0,0,0,0,0,0,0,0,0,0,0,0,0,0,0,0,0,0,0,0,0,0,0,0,0,0,0,0,0,0,0,0,0,0,0,0,0,0,0,0,0,0,0,0,0],"id":2,"left_children":[1,3,5,7,9,11,13,15,17,19,21,23,25,27,29,31,33,35,37,39,41,43,45,47,49,51,53,55,57,59,61,63,65,67,69,71,73,75,77,79,81,83,85,87,89,91,93,95,97,-1,99,101,103,-1,-1,105,107,109,-1,111,113,115,117,119,121,123,-1,125,127,129,131,133,135,137,139,141,143,145,147,149,151,153,155,-1,-1,157,159,161,163,165,167,169,171,173,-1,175,177,179,181,-1,-1,183,185,187,189,-1,191,193,195,197,199,-1,-1,-1,201,203,205,-1,-1,207,-1,209,211,213,-1,215,217,219,221,-1,223,225,227,229,-1,231,233,235,237,239,241,-1,243,245,247,-1,-1,249,251,253,255,257,259,261,263,265,267,269,-1,271,273,275,277,279,281,283,-1,-1,285,-1,-1,-1,-1,-1,287,-1,-1,289,291,293,-1,-1,-1,295,-1,-1,-1,297,299,-1,-1,-1,301,303,305,-1,-1,307,309,311,-1,-1,-1,-1,-1,-1,-1,-1,-1,-1,-1,-1,313,315,-1,317,319,-1,-1,321,323,325,327,-1,-1,329,331,333,335,-1,337,339,-1,341,343,345,347,349,351,-1,-1,-1,353,-1,355,-1,-1,357,359,361,-1,363,365,367,-1,-1,369,371,-1,373,-1,375,377,379,381,383,385,-1,-1,387,389,391,-1,393,395,397,399,-1,401,-1,403,-1,-1,-1,-1,405,-1,-1,407,-1,-1,-1,-1,-1,-1,-1,409,-1,411,-1,-1,413,-1,415,-1,417,419,421,-1,-1,-1,-1,-1,-1,-1,-1,-1,423,425,-1,427,429,-1,431,433,435,437,439,-1,441,443,445,447,449,451,453,-1,455,457,459,461,463,465,467,469,-1,-1,-1,-1,471,-1,473,-1,-1,-1,475,477,479,481,-1,-1,483,-1,485,-1,487,-1,489,-1,-1,-1,-1,-1,491,-1,493,-1,-1,495,497,499,501,503,-1,505,507,509,511,513,515,-1,517,519,521,523,525,527,-1,-1,529,531,-1,-1,-1,533,535,537,-1,-1,-1,539,-1,-1,-1,541,543,-1,-1,-1,-1,545,-1,547,-1,-1,-1,-1,-1,-1,-1,-1,-1,-1,-1,-1,-1,-1,-1,-1,-1,-1,-1,-1,-1,-1,-1,-1,-1,-1,-1,-1,-1,-1,-1,-1,-1,-1,-1,-1,-1,-1,-1,-1,-1,-1,-1,-1,-1,-1,-1,-1,-1,-1,-1,-1,-1,-1,-1,-1,-1,-1,-1,-1,-1,-1,-1,-1,-1,-1,-1,-1,-1,-1,-1,-1,-1,-1,-1,-1,-1,-1,-1,-1,-1,-1,-1,-1,-1,-1,-1,-1,-1,-1,-1,-1,-1,-1,-1,-1,-1,-1,-1,-1,-1,-1,-1,-1,-1,-1,-1,-1,-1,-1,-1,-1,-1,-1,-1,-1,-1,-1,-1,-1,-1,-1,-1,-1,-1,-1],"loss_changes":[1.5783327E4,5.450446E3,2.6155762E2,1.4165952E3,9.6543005E2,2.3746631E2,6.4009766E1,5.3033203E2,8.041136E2,2.0358325E2,1.2847523E2,9.8755325E1,4.835254E1,3.3427734E1,4.9100517E1,5.298233E1,4.187871E2,2.4778378E2,1.5262482E2,1.2185022E2,6.2782227E1,6.546692E1,1.3101398E1,4.8877956E1,5.02182E0,1.9068176E1,2.2341747E0,8.2330444E1,9.453125E-1,4.1111153E1,6.7231064E0,2.9828957E1,7.3819275E0,1.1131184E2,1.1309375E2,5.473407E1,1.8982669E2,6.663714E1,1.661969E1,1.1282257E1,1.0553093E2,1.2438965E-1,4.49115E1,2.5463135E1,2.8941284E1,8.476655E0,7.15889E-1,1.677733E1,8.202774E0,0E0,1.7658081E0,1.4365732E1,2.9179382E0,0E0,0E0,3.9133854E1,2.193866E1,1.834967E1,0E0,3.332139E0,2.9085445E0,9.18893E0,1.9109497E0,4.333434E0,6.6624546E0,1.1307624E1,0E0,4.453804E1,3.5928738E1,8.644024E0,8.203418E1,3.20813E0,9.768706E1,1.445726E1,1.8803452E1,1.7937294E1,5.0138103E1,3.8043714E0,1.1958618E1,6.343689E0,1.0839279E1,4.9256657E1,2.7767895E1,0E0,0E0,2.3294678E0,4.6068665E1,1.0955364E1,1.2739681E1,2.6438179E1,1.1712921E1,5.058944E-1,9.035182E-1,8.249283E-2,0E0,4.802251E0,5.539175E0,1.019352E0,4.4773417E0,0E0,0E0,1.1407912E1,5.64754E-1,6.893921E-1,5.2297072E0,0E0,1.2223988E1,2.5831806E1,5.297241E-1,2.6911919E1,6.94458E-1,0E0,0E0,0E0,7.299843E-1,1.1044369E0,6.0394144E-1,0E0,0E0,2.6540866E0,0E0,3.548229E0,2.1358395E0,1.9439535E0,0E0,2.2642029E1,6.2013636E0,9.574036E0,2.6593166E1,0E0,6.01691E0,8.68241E1,1.8091797E1,3.220932E0,0E0,4.0365295E0,3.4713326E1,4.450051E0,6.1816406E0,2.227562E0,9.3074255E0,0E0,8.389847E0,3.460884E0,1.9311615E1,0E0,0E0,3.4277344E-1,2.1895882E1,2.5437317E0,6.2238827E0,8.448334E-1,1.1044361E1,3.0552826E0,3.07049E1,1.4058388E1,1.8969297E0,3.757164E0,0E0,1.7415253E1,3.796849E1,6.196271E0,1.6241646E0,6.721657E0,6.0787153E-1,5.441374E0,0E0,0E0,4.3885193E0,0E0,0E0,0E0,0E0,0E0,6.698227E-2,0E0,0E0,3.201792E0,3.007801E0,1.7803953E0,0E0,0E0,0E0,3.428814E0,0E0,0E0,0E0,8.9263916E-2,4.0631843E0,0E0,0E0,0E0,7.882597E0,5.3727493E0,1.5845968E1,0E0,0E0,7.0438004E0,2.3455033E0,3.9605713E-1,0E0,0E0,0E0,0E0,0E0,0E0,0E0,0E0,0E0,0E0,0E0,0E0,1.5750885E-2,1.4491092E0,0E0,3.7628677E1,5.80352E0,0E0,0E0,4.7908993E0,5.4512024E0,2.0706059E1,5.242613E0,0E0,0E0,8.971033E1,2.295834E1,1.5426758E1,1.1496898E1,0E0,2.2640076E0,2.5285034E0,0E0,9.094699E0,9.5371475E0,1.2477114E0,2.1696093E0,6.534088E0,5.748299E0,0E0,0E0,0E0,4.3358374E0,0E0,5.071594E0,0E0,0E0,1.3505305E1,1.58817E0,1.7102051E-1,0E0,7.6097674E0,6.682457E0,9.046631E-1,0E0,0E0,3.5025024E-1,2.047315E0,0E0,4.78814E0,0E0,3.8702714E0,2.7610245E0,2.523175E1,9.498066E0,2.3254697E0,8.652199E0,0E0,0E0,4.6296997E0,7.3397818E0,1.5213409E1,0E0,2.6774118E1,8.065392E0,3.5522451E0,7.6445775E0,0E0,1.1334801E-1,0E0,5.484741E0,0E0,0E0,0E0,0E0,2.4113464E0,0E0,0E0,4.9867094E-1,0E0,0E0,0E0,0E0,0E0,0E0,0E0,1.8871822E0,0E0,8.267212E-2,0E0,0E0,4.366886E0,0E0,5.168091E0,0E0,5.8186455E0,7.138386E-1,1.2890358E0,0E0,0E0,0E0,0E0,0E0,0E0,0E0,0E0,0E0,1.430024E1,3.4138756E0,0E0,1.7878494E0,8.5033095E-1,0E0,2.2641659E0,1.149147E0,6.956814E0,6.027334E0,3.234703E0,0E0,3.649829E1,8.454363E1,3.7899818E0,9.790311E-1,1.8020641E1,1.071582E1,1.8298452E0,0E0,1.452301E0,2.2169862E0,2.289824E0,6.358948E-1,1.7654698E0,5.6580963E0,3.1931648E0,3.1662445E0,0E0,0E0,0E0,0E0,4.5320587E0,0E0,3.3986688E0,0E0,0E0,0E0,3.444069E0,6.187361E0,5.116446E0,9.305399E0,0E0,0E0,2.9153366E0,0E0,2.8279734E0,0E0,2.8506927E0,0E0,1.8441315E0,0E0,0E0,0E0,0E0,0E0,7.7000046E-1,0E0,3.0207624E0,0E0,0E0,1.3002014E0,3.319508E1,2.7606888E0,4.0658035E0,5.6903186E0,0E0,8.8524544E-1,1.061058E0,1.55815E-1,8.181E-1,6.3161154E0,3.3890104E0,0E0,1.4296879E1,2.4377823E0,4.47057E0,1.1776604E1,1.0592651E0,2.1016498E0,0E0,0E0,2.6846433E0,7.49892E-1,0E0,0E0,0E0,1.7642136E0,1.8757935E0,3.652684E0,0E0,0E0,0E0,1.3727412E0,0E0,0E0,0E0,2.7176971E0,3.8568115E-1,0E0,0E0,0E0,0E0,1.7636824E-1,0E0,6.076383E0,0E0,0E0,0E0,0E0,0E0,0E0,0E0,0E0,0E0,0E0,0E0,0E0,0E0,0E0,0E0,0E0,0E0,0E0,0E0,0E0,0E0,0E0,0E0,0E0,0E0,0E0,0E0,0E0,0E0,0E0,0E0,0E0,0E0,0E0,0E0,0E0,0E0,0E0,0E0,0E0,0E0,0E0,0E0,0E0,0E0,0E0,0E0,0E0,0E0,0E0,0E0,0E0,0E0,0E0,0E0,0E0,0E0,0E0,0E0,0E0,0E0,0E0,0E0,0E0,0E0,0E0,0E0,0E0,0E0,0E0,0E0,0E0,0E0,0E0,0E0,0E0,0E0,0E0,0E0,0E0,0E0,0E0,0E0,0E0,0E0,0E0,0E0,0E0,0E0,0E0,0E0,0E0,0E0,0E0,0E0,0E0,0E0,0E0,0E0,0E0,0E0,0E0,0E0,0E0,0E0,0E0,0E0,0E0,0E0,0E0,0E0,0E0,0E0,0E0,0E0,0E0,0E0,0E0,0E0,0E0,0E0,0E0,0E0,0E0,0E0,0E0],"parents":[2147483647,0,0,1,1,2,2,3,3,4,4,5,5,6,6,7,7,8,8,9,9,10,10,11,11,12,12,13,13,14,14,15,15,16,16,17,17,18,18,19,19,20,20,21,21,22,22,23,23,24,24,25,25,26,26,27,27,28,28,29,29,30,30,31,31,32,32,33,33,34,34,35,35,36,36,37,37,38,38,39,39,40,40,41,41,42,42,43,43,44,44,45,45,46,46,47,47,48,48,50,50,51,51,52,52,55,55,56,56,57,57,59,59,60,60,61,61,62,62,63,63,64,64,65,65,67,67,68,68,69,69,70,70,71,71,72,72,73,73,74,74,75,75,76,76,77,77,78,78,79,79,80,80,81,81,82,82,85,85,86,86,87,87,88,88,89,89,90,90,91,91,92,92,93,93,95,95,96,96,97,97,98,98,101,101,102,102,103,103,104,104,106,106,107,107,108,108,109,109,110,110,114,114,115,115,116,116,119,119,121,121,122,122,123,123,125,125,126,126,127,127,128,128,130,130,131,131,132,132,133,133,135,135,136,136,137,137,138,138,139,139,140,140,142,142,143,143,144,144,147,147,148,148,149,149,150,150,151,151,152,152,153,153,154,154,155,155,156,156,157,157,159,159,160,160,161,161,162,162,163,163,164,164,165,165,168,168,174,174,177,177,178,178,179,179,183,183,187,187,188,188,192,192,193,193,194,194,197,197,198,198,199,199,212,212,213,213,215,215,216,216,219,219,220,220,221,221,222,222,225,225,226,226,227,227,228,228,230,230,231,231,233,233,234,234,235,235,236,236,237,237,238,238,242,242,244,244,247,247,248,248,249,249,251,251,252,252,253,253,256,256,257,257,259,259,261,261,262,262,263,263,264,264,265,265,266,266,269,269,270,270,271,271,273,273,274,274,275,275,276,276,278,278,280,280,285,285,288,288,296,296,298,298,301,301,303,303,305,305,306,306,307,307,317,317,318,318,320,320,321,321,323,323,324,324,325,325,326,326,327,327,329,329,330,330,331,331,332,332,333,333,334,334,335,335,337,337,338,338,339,339,340,340,341,341,342,342,343,343,344,344,349,349,351,351,355,355,356,356,357,357,358,358,361,361,363,363,365,365,367,367,373,373,375,375,378,378,379,379,380,380,381,381,382,382,384,384,385,385,386,386,387,387,388,388,389,389,391,391,392,392,393,393,394,394,395,395,396,396,399,399,400,400,404,404,405,405,406,406,410,410,414,414,415,415,420,420,422,422],"right_children":[2,4,6,8,10,12,14,16,18,20,22,24,26,28,30,32,34,36,38,40,42,44,46,48,50,52,54,56,58,60,62,64,66,68,70,72,74,76,78,80,82,84,86,88,90,92,94,96,98,-1,100,102,104,-1,-1,106,108,110,-1,112,114,116,118,120,122,124,-1,126,128,130,132,134,136,138,140,142,144,146,148,150,152,154,156,-1,-1,158,160,162,164,166,168,170,172,174,-1,176,178,180,182,-1,-1,184,186,188,190,-1,192,194,196,198,200,-1,-1,-1,202,204,206,-1,-1,208,-1,210,212,214,-1,216,218,220,222,-1,224,226,228,230,-1,232,234,236,238,240,242,-1,244,246,248,-1,-1,250,252,254,256,258,260,262,264,266,268,270,-1,272,274,276,278,280,282,284,-1,-1,286,-1,-1,-1,-1,-1,288,-1,-1,290,292,294,-1,-1,-1,296,-1,-1,-1,298,300,-1,-1,-1,302,304,306,-1,-1,308,310,312,-1,-1,-1,-1,-1,-1,-1,-1,-1,-1,-1,-1,314,316,-1,318,320,-1,-1,322,324,326,328,-1,-1,330,332,334,336,-1,338,340,-1,342,344,346,348,350,352,-1,-1,-1,354,-1,356,-1,-1,358,360,362,-1,364,366,368,-1,-1,370,372,-1,374,-1,376,378,380,382,384,386,-1,-1,388,390,392,-1,394,396,398,400,-1,402,-1,404,-1,-1,-1,-1,406,-1,-1,408,-1,-1,-1,-1,-1,-1,-1,410,-1,412,-1,-1,414,-1,416,-1,418,420,422,-1,-1,-1,-1,-1,-1,-1,-1,-1,424,426,-1,428,430,-1,432,434,436,438,440,-1,442,444,446,448,450,452,454,-1,456,458,460,462,464,466,468,470,-1,-1,-1,-1,472,-1,474,-1,-1,-1,476,478,480,482,-1,-1,484,-1,486,-1,488,-1,490,-1,-1,-1,-1,-1,492,-1,494,-1,-1,496,498,500,502,504,-1,506,508,510,512,514,516,-1,518,520,522,524,526,528,-1,-1,530,532,-1,-1,-1,534,536,538,-1,-1,-1,540,-1,-1,-1,542,544,-1,-1,-1,-1,546,-1,548,-1,-1,-1,-1,-1,-1,-1,-1,-1,-1,-1,-1,-1,-1,-1,-1,-1,-1,-1,-1,-1,-1,-1,-1,-1,-1,-1,-1,-1,-1,-1,-1,-1,-1,-1,-1,-1,-1,-1,-1,-1,-1,-1,-1,-1,-1,-1,-1,-1,-1,-1,-1,-1,-1,-1,-1,-1,-1,-1,-1,-1,-1,-1,-1,-1,-1,-1,-1,-1,-1,-1,-1,-1,-1,-1,-1,-1,-1,-1,-1,-1,-1,-1,-1,-1,-1,-1,-1,-1,-1,-1,-1,-1,-1,-1,-1,-1,-1,-1,-1,-1,-1,-1,-1,-1,-1,-1,-1,-1,-1,-1,-1,-1,-1,-1,-1,-1,-1,-1,-1,-1,-1,-1,-1,-1,-1],"split_conditions":[7.5792446E0,1.7218245E0,5.9480333E-1,1.2481604E0,3.3030454E-2,2.53686E1,7.180834E-2,1.8039343E-1,3.11526E0,2.3660655E0,3.238656E0,1.945178E0,6.224905E-2,1.5633608E1,1.4569304E0,1.5771808E-1,-2.8793769E-2,2.5948595E-2,7.290247E-3,5.260725E0,-4.3255538E-1,1.2504294E1,3.7001818E-1,6.3542426E-1,-7.2311774E-2,3.1383625E-1,4.421026E0,9.903779E-1,9.008765E-1,2.8536081E0,2.0118843E1,8.162021E-2,9.986518E-1,8.6768305E-1,7.1902585E-1,1.5516967E0,9.878398E-1,1.1252911E0,-7.8515667E-1,1.6505174E-2,1.193374E-2,8.199551E-3,6.0415993E0,4.4040468E-1,-3.7080085E-1,-8.178473E-1,6.488893E-1,3.0243982E-2,3.8119197E-2,-1.2544589E-2,1.37241E1,2.8309329E0,3.4106325E-2,7.0680134E-2,-4.6133786E-3,2.002432E0,1.7148085E0,2.440005E-1,-9.073432E-2,4.1681254E-1,-4.3438777E-1,8.5274684E-1,3.9330262E-1,9.9975437E-1,4.3696945E1,2.35001E-2,-8.648229E-2,1.6108402E1,4.0790377E0,9.364203E-3,6.101336E-3,1.5613773E-1,2.3275476E0,-8.9090765E-1,1.2767587E0,-6.2156282E-2,4.244338E0,1.7642722E-1,1.4400902E0,3.7083936E0,6.304518E0,-2.4674347E-1,4.498589E-1,-2.4555733E-2,-8.803471E-2,1.0099624E-1,8.681305E-3,8.2005566E-1,3.2187903E0,2.3219313E-1,-1.3464108E0,2.6418158E-1,-1.6591965E-1,3.5950713E-2,-1.5344803E-2,1.8284637E-1,4.6554985E-3,8.096597E-1,2.2591076E1,8.657764E-2,1.5512268E-2,9.974668E-1,5.6518326E1,3.8539262E0,1.4756572E0,-7.966753E-2,-5.2329265E-2,5.786758E0,1.5542847E1,5.3576193E0,4.2555057E-2,1.0019082E-2,-7.6704204E-2,4.3025613E-4,1.7623022E2,4.1614143E1,7.905316E-1,-8.429512E-2,-1.1244415E-2,6.5960824E-2,-7.7630125E-2,5.4856677E0,1.0033546E-3,3.5133758E-1,5.079105E-2,2.2509978E0,3.2880943E-2,2.3324886E-1,8.939991E-3,-7.65647E-2,1.2173935E1,2.7537699E0,1.598777E0,-1.2911412E-1,-8.9673E-2,2.2950126E-2,4.307336E-3,1.5783353E0,9.5098275E-1,9.202125E-1,1.8051889E0,-6.442192E-2,8.4717834E-1,5.903063E-3,2.0165393E0,-5.725052E-2,2.823535E-2,1.7378242E0,4.106615E0,1.1892602E0,1.1687671E-2,3.979107E-2,1.5652391E-1,1.8341029E0,1.4558094E0,2.592494E0,4.6478903E-1,5.5372577E0,-8.227909E-2,3.1183646E0,2.5326604E-1,5.3534646E-2,2.8551853E-1,4.298417E0,1.6278251E0,7.340088E1,7.617096E-2,-4.4175588E-2,5.681896E0,-8.254304E-3,-5.887745E-2,3.8083026E-3,6.1014783E-2,-2.2133952E-2,2.7373905E0,3.058358E-2,-6.534373E-2,9.459716E-1,9.999647E-1,6.9201756E-1,-8.0765694E-2,-3.92026E-2,5.3266175E-2,2.0552173E-1,5.6515884E-2,6.566653E-2,1.0238356E-2,2.6344284E1,3.3422583E-1,-6.156028E-2,4.0793754E-2,-5.6972396E-2,9.894092E-1,1.7022885E0,8.218336E-1,-8.8086E-2,-2.9823063E-2,2.7857862E-2,1.5308973E0,1.8249413E1,-2.4627438E-2,8.420148E-2,1.9013792E-2,-7.105073E-2,-1.031632E-2,3.7554663E-3,5.2105624E-2,-3.5635244E-2,4.1763604E-2,2.9706508E-2,-5.386973E-2,6.3804113E-3,1.6890599E2,6.510671E-2,-7.241958E-2,1.2647644E-2,1.3880306E-1,-8.031394E-2,2.8381279E-2,1.662402E0,1.9043177E0,-3.9579526E-2,9.5077133E-1,-4.333351E-2,5.5707093E-2,1.015528E0,3.8636208E1,2.6612848E-1,3.272687E-2,7.523571E-3,9.818715E-1,1.4095724E0,3.1508044E-3,4.6499747E-1,1.9118595E-1,3.6523297E-1,1.4724519E0,1.4090185E0,2.2586524E0,-9.168192E-3,-8.810766E-2,6.031999E-2,5.2451456E-1,-4.3582246E-2,2.7254896E0,2.8798904E-3,-7.68485E-2,-3.4536324E-2,1.2052082E0,5.6867833E0,2.37997E-2,2.7193595E-2,4.776449E0,1.4584342E0,1.3553648E-3,5.3289082E-2,1.3298597E0,2.817089E0,-7.6800905E-2,2.7044497E0,-5.5943634E-2,1.0273368E0,8.466493E-3,1.3106084E0,4.645949E-2,1.6804118E-2,4.6848955E0,-6.33507E-2,-2.8836934E-4,1.1964721E-2,5.6700435E0,1.0502822E0,-8.4191285E-2,5.9947042E0,1.19051346E2,3.0145361E0,3.4454072E-1,-9.588101E-3,-9.0449345E-1,-2.3841789E-2,-7.242372E-1,-6.4747515E-3,-5.7866972E-2,-7.428657E-2,2.5311816E-2,8.8936174E-1,6.948142E-3,-8.255369E-2,1.0776386E0,4.2878244E-2,-3.7859842E-2,7.986778E-2,1.8466583E-3,1.4354144E-2,-5.235207E-2,-1.3236548E-3,1.4981718E0,-2.5326535E-2,3.290628E-2,1.3369954E-2,-7.148796E-2,1.3870827E-3,-3.8580086E-2,3.3259265E-2,2.256455E-2,-9.50949E-3,1.1203963E0,2.3346882E0,2.3857856E-2,-8.215409E-3,6.7715295E-2,-2.4485564E-2,-9.0094276E-2,7.8627E-2,2.2581361E-2,-4.283437E-2,1.5316186E-2,2.318716E-1,7.357122E-1,-2.2223031E-2,9.884379E-1,3.153733E0,5.1806744E-2,3.3211628E-1,-2.885764E-1,3.3092883E-1,2.3580296E-3,-9.965141E-1,-2.6480889E-2,1.428469E0,3.0265007E0,1.0885921E-1,9.847661E-1,9.998524E-1,1.6873669E1,1.1937042E-1,6.414943E-2,4.97905E0,8.023108E-1,4.3590227E-3,1.8591796E-1,2.2756646E0,2.3395624E0,1.0415285E0,1.576529E-2,2.339533E-3,-4.7581393E-2,5.5102028E-2,-1.4224201E-2,9.341073E-1,-7.456799E-3,3.1744655E-2,-4.7480967E-2,2.4355572E-2,-6.606397E-2,6.6489897E0,6.1756885E-1,4.377685E-2,5.9787693E0,-1.6140513E-2,-7.983532E-2,-3.8176432E-2,8.992829E-2,1.0469412E1,4.9210835E-2,2.0005574E0,-2.9377839E-2,1.235965E0,-8.492305E-2,-5.752638E-2,-1.545689E-2,-5.080154E-2,1.8712677E-2,8.216358E0,-2.9488405E-2,2.9550118E-3,-5.6468356E-2,-4.777729E-3,2.29309E-1,9.3288124E-1,5.1357865E-2,7.4635205E0,8.065573E0,-4.8021227E-2,2.0040154E0,-8.75168E-2,1.0767865E0,7.7211075E-2,2.2133756E-1,1.0442446E1,-6.289738E-2,-3.9718844E-2,7.3963423E0,3.092411E-2,3.1376424E0,4.7232407E1,2.9188128E0,-1.4576863E-2,7.0390396E-2,3.0077422E-1,1.6618721E-2,-2.105043E-2,-7.812379E-2,-2.4627475E-2,8.99665E-1,1.1214566E-1,8.5059726E-1,-4.8077054E-2,-2.3680634E-3,-8.334251E-2,4.374089E-3,-2.6688844E-2,-8.8960096E-2,-1.6460972E-2,2.74983E0,2.5541916E0,4.3597687E-3,-2.316657E-2,7.1137205E-2,-4.889776E-3,9.4246864E-4,-8.529038E-2,5.5689546E-3,4.934954E-2,-3.0575246E-2,7.4915014E-2,1.627651E-2,8.284372E-2,1.4292586E-2,-5.0471783E-2,1.8515047E-3,2.821984E-2,-4.2360228E-2,-1.8882615E-2,-8.158679E-2,4.1946825E-2,-6.3893616E-2,-1.0621893E-2,5.933516E-2,-5.8300146E-3,7.456178E-2,4.9247827E-2,8.5079424E-2,-7.679744E-2,4.8425183E-2,-5.362002E-3,-7.975384E-2,6.3320072E-3,6.822202E-2,7.3914215E-2,-1.9221514E-2,8.897927E-2,5.702582E-2,-6.340514E-2,1.3486892E-3,-7.626848E-2,-1.2974471E-2,3.5389487E-3,-5.9586775E-2,-6.2058408E-2,-1.1461037E-3,-4.439083E-2,-8.258059E-2,4.8041467E-2,-1.4219533E-2,-6.002831E-2,-3.954298E-3,7.7062E-2,2.7879475E-2,-4.432009E-2,3.3893105E-2,9.863543E-3,8.5142426E-2,-2.0926384E-2,6.1951615E-2,6.9182135E-2,-1.1744682E-2,4.930521E-2,-4.8224553E-2,2.4118448E-2,-5.0019253E-2,-9.2229685E-3,4.871008E-2,2.964798E-2,7.961284E-2,-6.329E-2,8.571698E-3,7.911787E-2,-3.077953E-3,-7.064807E-2,-2.867428E-2,1.4977929E-2,7.424452E-2,-3.0265955E-2,5.490316E-2,-3.2954432E-2,-7.87741E-2,-4.9684256E-2,2.361863E-2,-6.457131E-2,1.0672626E-3,3.7684652E-3,-8.0925785E-2,-5.361984E-2,4.4079673E-2,3.4305256E-2,-1.2535344E-2,1.4465E-2,8.017342E-2,-1.5133672E-3,-2.6996702E-2,-8.078837E-2,-1.5538606E-2,1.1999171E-2,-6.583506E-2,-2.848196E-2,5.868256E-2,-7.2909586E-2,-2.5333075E-2,-2.839814E-3,-7.8536324E-2,1.1039815E-2,-5.779779E-2,6.1653208E-2,-3.8511753E-2,-8.330982E-2,-3.747855E-2,5.1234018E-2,-2.1675255E-2,-2.5393523E-3,-4.6859976E-2,7.89605E-3,5.9071727E-2,7.404187E-2,5.2727866E-3,1.1931713E-2,8.763725E-2,6.2301297E-2,-1.9343114E-2,-4.513366E-2,1.4184094E-2,2.1132395E-2,8.185341E-2,-8.1673086E-2,-2.0016944E-2,-1.394065E-2,-5.8724668E-2,-6.886068E-2,2.2276917E-2],"split_indices":[0,3,3,1,4,0,4,2,2,3,3,2,4,0,3,1,7,4,4,2,9,6,11,1,7,5,5,3,3,2,0,2,8,3,12,2,8,3,7,4,4,1,2,8,7,9,10,7,4,0,10,2,4,0,0,2,3,5,0,5,7,10,4,8,10,4,0,6,2,4,4,5,10,8,2,7,2,4,3,9,6,9,5,0,0,9,4,11,0,4,9,0,8,4,0,3,4,1,6,0,0,11,0,2,2,0,7,2,0,2,4,0,0,0,0,6,8,0,0,2,0,5,4,1,0,2,4,11,4,0,6,5,12,7,0,4,4,2,8,5,1,0,12,0,10,0,0,12,2,10,0,5,5,3,10,6,7,2,0,3,5,5,0,2,1,6,0,0,0,0,0,0,0,0,1,0,0,12,8,11,0,0,0,1,0,0,0,0,1,0,0,0,11,3,11,0,0,4,9,0,0,0,0,0,0,0,0,0,0,0,0,0,10,2,0,4,3,0,0,10,6,7,11,0,0,3,6,2,4,0,8,1,0,3,5,9,0,3,1,0,0,0,0,0,1,0,0,7,3,6,0,4,0,0,0,0,1,6,0,0,0,1,0,12,7,4,0,0,0,4,2,10,0,6,6,6,4,0,8,0,9,0,0,0,0,11,0,0,12,0,0,0,0,0,0,0,2,0,1,0,0,4,0,4,0,7,3,2,0,0,0,0,0,0,0,0,0,9,1,0,11,2,0,9,9,6,4,8,0,2,2,1,11,8,7,5,0,9,11,4,11,1,2,0,4,0,0,0,0,6,0,4,0,0,0,0,8,5,6,0,0,7,0,6,0,10,0,0,0,0,0,0,0,6,0,7,0,0,1,12,7,2,6,0,3,7,12,9,5,6,0,7,2,5,0,6,3,0,0,0,9,0,0,0,11,10,0,0,0,0,4,0,0,0,2,10,0,0,0,0,4,0,4,0,0,0,0,0,0,0,0,0,0,0,0,0,0,0,0,0,0,0,0,0,0,0,0,0,0,0,0,0,0,0,0,0,0,0,0,0,0,0,0,0,0,0,0,0,0,0,0,0,0,0,0,0,0,0,0,0,0,0,0,0,0,0,0,0,0,0,0,0,0,0,0,0,0,0,0,0,0,0,0,0,0,0,0,0,0,0,0,0,0,0,0,0,0,0,0,0,0,0,0,0,0,0,0,0,0,0,0,0,0,0,0,0,0,0,0,0,0,0,0,0,0,0,0,0,0],"split_type":[0,0,0,0,0,0,0,0,0,0,0,0,0,0,0,0,0,0,0,0,0,0,0,0,0,0,0,0,0,0,0,0,0,0,0,0,0,0,0,0,0,0,0,0,0,0,0,0,0,0,0,0,0,0,0,0,0,0,0,0,0,0,0,0,0,0,0,0,0,0,0,0,0,0,0,0,0,0,0,0,0,0,0,0,0,0,0,0,0,0,0,0,0,0,0,0,0,0,0,0,0,0,0,0,0,0,0,0,0,0,0,0,0,0,0,0,0,0,0,0,0,0,0,0,0,0,0,0,0,0,0,0,0,0,0,0,0,0,0,0,0,0,0,0,0,0,0,0,0,0,0,0,0,0,0,0,0,0,0,0,0,0,0,0,0,0,0,0,0,0,0,0,0,0,0,0,0,0,0,0,0,0,0,0,0,0,0,0,0,0,0,0,0,0,0,0,0,0,0,0,0,0,0,0,0,0,0,0,0,0,0,0,0,0,0,0,0,0,0,0,0,0,0,0,0,0,0,0,0,0,0,0,0,0,0,0,0,0,0,0,0,0,0,0,0,0,0,0,0,0,0,0,0,0,0,0,0,0,0,0,0,0,0,0,0,0,0,0,0,0,0,0,0,0,0,0,0,0,0,0,0,0,0,0,0,0,0,0,0,0,0,0,0,0,0,0,0,0,0,0,0,0,0,0,0,0,0,0,0,0,0,0,0,0,0,0,0,0,0,0,0,0,0,0,0,0,0,0,0,0,0,0,0,0,0,0,0,0,0,0,0,0,0,0,0,0,0,0,0,0,0,0,0,0,0,0,0,0,0,0,0,0,0,0,0,0,0,0,0,0,0,0,0,0,0,0,0,0,0,0,0,0,0,0,0,0,0,0,0,0,0,0,0,0,0,0,0,0,0,0,0,0,0,0,0,0,0,0,0,0,0,0,0,0,0,0,0,0,0,0,0,0,0,0,0,0,0,0,0,0,0,0,0,0,0,0,0,0,0,0,0,0,0,0,0,0,0,0,0,0,0,0,0,0,0,0,0,0,0,0,0,0,0,0,0,0,0,0,0,0,0,0,0,0,0,0,0,0,0,0,0,0,0,0,0,0,0,0,0,0,0,0,0,0,0,0,0,0,0,0,0,0,0,0,0,0,0,0,0,0,0,0,0,0,0,0,0,0,0,0,0,0,0,0,0,0,0,0,0,0,0,0,0,0,0,0,0,0,0,0,0,0,0,0,0,0,0,0,0],"sum_hessian":[1.07965E4,6.099759E3,4.696741E3,4.563722E3,1.5360371E3,2.4323225E2,4.4535093E3,3.7541926E3,8.0952936E2,1.2966709E3,2.3936612E2,9.0590996E1,1.5264127E2,4.3956904E3,5.7818527E1,7.957871E1,3.6746138E3,4.2934915E2,3.801802E2,3.885892E2,9.080818E2,2.1269423E2,2.6671892E1,4.6773205E1,4.381779E1,1.4665277E2,5.98849E0,2.9114655E2,4.104544E3,2.1377771E1,3.6440754E1,2.3937689E1,5.564102E1,1.9395059E2,3.4806633E3,3.1615735E2,1.13191795E2,1.3845891E2,2.417213E2,1.497765E2,2.3881268E2,4.7424936E2,4.338324E2,5.7926517E1,1.5476772E2,6.8903356E0,1.9781557E1,2.0701546E1,2.6071661E1,1.1218534E0,4.269594E1,1.8276966E1,1.2837581E2,4.9485E0,1.0399901E0,2.8712181E1,2.6243436E2,2.010223E2,3.9035217E3,7.511186E0,1.3866586E1,8.214403E0,2.822635E1,8.761702E0,1.5175988E1,1.14871025E1,4.415392E1,1.0811113E2,8.583947E1,1.4367132E1,3.4662961E3,1.9286533E2,1.2329202E2,7.4631775E1,3.856002E1,5.948093E1,7.897798E1,3.477814E0,2.3824348E2,1.3147755E2,1.8298948E1,1.8676299E2,5.204969E1,1.0012609E0,4.7324808E2,2.0451344E2,2.2931897E2,2.9847107E1,2.807941E1,1.3079656E1,1.4168805E2,3.162683E0,3.7276528E0,1.8726797E1,1.0547601E0,4.77678E0,1.5924766E1,2.2811584E1,3.2600758E0,4.1306206E1,1.3897338E0,1.4991006E1,3.2859607E0,1.2457996E2,3.7958417E0,8.033245E0,2.0678936E1,4.7706696E1,2.1472766E2,2.77102E1,1.733121E2,1.0493386E0,6.4618473E0,1.2635624E0,1.2603024E1,5.4474416E0,2.766961E0,2.6956993E1,1.2693585E0,2.4696927E0,6.292009E0,3.178293E0,1.1997695E1,9.336473E0,2.1506295E0,9.988134E1,8.229789E0,4.2432014E1,4.3407455E1,1.0217338E1,4.1497946E0,7.6997644E2,2.6963196E3,8.223194E1,1.1063339E2,7.3181526E1,5.0110497E1,8.17678E0,6.6454994E1,3.1074123E1,7.485895E0,2.269366E0,5.7211567E1,2.5063227E1,5.3914753E1,1.9880698E0,1.4897441E0,1.97148E2,4.1095493E1,1.26163315E2,5.3142414E0,8.798412E0,9.500537E0,5.0326427E1,1.3643657E2,4.6623795E1,5.4258947E0,4.9688995E1,1.5482445E2,1.7410411E2,