{"learner":{"attributes":{"best_iteration":"99","best_ntree_limit":"100","scikit_learn":"{\"n_estimators\": 100, \"objective\": \"binary:logistic\", \"max_depth\": 10, \"max_leaves\": null, \"max_bin\": null, \"grow_policy\": null, \"learning_rate\": 0.05, \"verbosity\": null, \"booster\": null, \"tree_method\": null, \"gamma\": null, \"min_child_weight\": null, \"max_delta_step\": null, \"subsample\": null, \"sampling_method\": null, \"colsample_bytree\": null, \"colsample_bylevel\": null, \"colsample_bynode\": null, \"reg_alpha\": null, \"reg_lambda\": null, \"scale_pos_weight\": null, \"base_score\": null, \"missing\": NaN, \"num_parallel_tree\": null, \"random_state\": null, \"n_jobs\": null, \"monotone_constraints\": null, \"interaction_constraints\": null, \"importance_type\": null, \"gpu_id\": null, \"validate_parameters\": null, \"predictor\": null, \"enable_categorical\": false, \"feature_types\": null, \"max_cat_to_onehot\": null, \"max_cat_threshold\": null, \"eval_metric\": null, \"early_stopping_rounds\": null, \"callbacks\": null, \"_estimator_type\": \"regressor\"}"},"feature_names":[],"feature_types":[],"gradient_booster":{"model":{"gbtree_model_param":{"num_parallel_tree":"1","num_trees":"100","size_leaf_vector":"0"},"tree_info":[0,0,0,0,0,0,0,0,0,0,0,0,0,0,0,0,0,0,0,0,0,0,0,0,0,0,0,0,0,0,0,0,0,0,0,0,0,0,0,0,0,0,0,0,0,0,0,0,0,0,0,0,0,0,0,0,0,0,0,0,0,0,0,0,0,0,0,0,0,0,0,0,0,0,0,0,0,0,0,0,0,0,0,0,0,0,0,0,0,0,0,0,0,0,0,0,0,0,0,0],"trees":[{"base_weights":[-3.6993855E-1,7.963846E-1,-1.8820455E0,1.3982079E0,-9.9429023E-1,-7.7042323E-1,-1.9424698E0,1.660722E0,-2.4696635E-2,-1.3691038E0,1.0327475E0,6.34368E-1,-1.6019795E0,-1.9576007E0,-7.750619E-1,-1.1808741E0,1.7263838E0,-9.8056996E-1,1.2588027E0,-8.637351E-1,-1.7431569E0,1.3165156E0,-1.1990321E0,-4.7204745E-1,1.7970346E0,-1.7269024E0,1.2764404E0,-1.5815657E0,-1.9838488E0,5.21509E-1,-1.5290616E0,2.4865915E-1,-1.7198652E0,1.2917484E-1,1.818052E0,-1.4404522E0,3.7448412E-1,3.8744754E-1,1.7743976E0,-1.5331634E0,-4.8599014E-1,-1.4650183E0,-1.9339983E0,3.2274723E-1,1.6825207E0,9.255487E-2,-1.6304125E0,7.6423776E-1,-1.4447181E0,-2.6467857E-1,1.8555566E0,-6.3584596E-1,-1.8756706E0,1.5317298E0,-9.7156346E-2,1.8524131E-1,-1.7743598E0,-1.8281635E0,-1.9913948E0,-1.3703766E0,1.619603E0,-5.710991E-1,-1.7779706E0,-1.2674351E0,1.1485053E0,-1.0126995E0,-1.9068846E0,8.6698294E-1,-7.7758926E-1,1.3639568E0,1.8942356E0,-1.8600682E0,-9.643059E-1,-1.6284852E0,1.2527808E0,1.2455541E0,-2.3077732E-1,-6.198598E-1,1.8089453E0,-1.6278796E0,-8.846452E-1,-8.538703E-1,6.158014E-1,-1.643158E0,-9.9251395E-1,6.7057574E-1,-1.0901939E0,1.0918339E-1,1.8256954E0,-8.758268E-1,9.643014E-1,-1.683479E0,-3.2444528E-1,-8.964609E-1,1.2849969E0,-1.6659563E0,1.362407E-1,1.8975831E0,3.2905653E-1,-1.3211251E0,5.86456E-1,-1.9198616E0,-9.7494316E-1,-1.7338365E0,9.775133E-1,-1.0646592E0,-1.9259511E0,-9.475014E-1,-1.9623293E0,2.1700135E-1,-1.6169039E0,7.4296325E-2,1.749933E0,-1.3017364E0,8.3306587E-1,-1.83878E0,-2.4034941E-1,1.13181256E-1,-1.537995E0,-1.9920178E-1,1.492217E0,8.892451E-1,-1.3103997E0,1.0630969E0,-1.3220128E0,-1.0275211E0,9.438965E-1,8.942437E-2,1.4732301E0,1.9231838E0,1.0124722E0,-1.6679175E0,-1.9700035E0,-1.6667093E0,-5.4637536E-2,8.7089324E-1,-1.7762887E0,1.5240785E0,1.5479143E-2,-1.1582903E0,1.3478034E0,-1.4869483E0,2.8422824E-1,1.3289751E-1,-1.0859864E0,1.8404518E0,5.8533716E-1,-1.6406399E0,2.44138E-1,-1.3908823E0,-7.070589E-2,-1.5312716E0,-6.317351E-1,9.878879E-1,-1.3314328E0,-1.05039E0,-1.7198418E0,-4.3863347E-1,-1.686029E0,9.611489E-1,-6.024705E-1,-1.4275812E0,7.8931767E-1,-1.2351911E0,1.6545866E0,1.8672271E0,5.931733E-1,-1.2978663E0,-1.833008E-2,1.3491383E0,-8.03854E-2,-4.6867388E-1,-1.723889E0,6.4517945E-1,-1.4104635E0,-5.4825075E-2,1.5732329E0,-6.474298E-1,-1.7680882E0,-8.353279E-1,1.130685E0,1.0694584E0,-1.7414104E0,9.579468E-1,-8.063509E-1,-3.2840034E-1,-1.9304401E0,6.521725E-1,-1.4482719E0,-1.2147439E0,1.2456903E0,-1.5810069E0,1.6717911E-1,-1.9330728E0,-6.3532037E-1,-1.4461366E0,1.1596235E0,-1.9701757E0,-5.2154326E-1,1.8251649E0,4.7544512E-1,-1.526599E0,-2.4442033E-1,2.220201E-1,1.0329183E0,-3.120143E-1,-1.7145468E0,6.3432956E-1,-1.1393964E0,1.3549653E-1,1.6493965E0,-1.5122272E0,2.262541E-2,5.909877E-1,1.6696173E0,-1.6747383E0,8.1626374E-1,-3.5762876E-1,-1.6344059E0,1.4835105E0,1.0739159E-1,1.225621E0,-9.7166383E-1,1.7824411E0,7.8424495E-1,1.9277277E0,-2.3890568E-1,-9.758719E-1,1.6378386E0,-1.1710445E0,-1.821823E0,-1.7039996E0,9.970554E-3,-9.361478E-1,7.3363227E-1,-5.120691E-1,-1.8710071E0,1.6249565E0,-9.7820944E-1,-1.1177843E0,9.740001E-1,5.99517E-1,1.547296E0,-7.472496E-2,-1.6539776E0,-7.3519784E-1,5.799066E-1,1.3194661E0,1.9088485E0,1.2359896E0,-1.0795738E0,-9.1671085E-1,-1.6699779E0,-8.081735E-2,-1.5176666E0,5.6474364E-1,-1.3274617E0,-1.1240896E0,-1.7562557E0,-5.043175E-1,-1.7769859E0,2.2990003E-1,1.5865508E0,-1.5709289E0,1.3408715E-1,6.3143384E-1,-1.2998098E0,-1.7247703E0,-3.9896888E-1,-1.5457863E0,-3.3043217E-2,-6.421116E-1,-1.7829622E0,-4.748707E-1,1.2216719E0,-1.1235163E0,3.2107568E-1,-1.2565035E-1,-1.5654953E0,-1.6131526E0,5.352068E-1,1.8854933E0,3.0992055E-1,1.3400959E0,-6.223636E-1,-1.8038702E0,-7.088552E-1,6.607573E-1,-1.0230235E0,1.6743206E0,1.7203473E-1,3.021664E-1,-1.1145753E0,1.8776534E-1,1.3903042E0,-3.7367392E-1,-1.6109494E0,1.4409082E0,-8.1726533E-1,-1.6570026E0,4.510719E-1,1.1290399E0,-1.0178803E0,-1.6063871E0,5.0745106E-1,1.4159626E0,-6.5638065E-2,-5.1645887E-1,-1.9765811E0,-1.6645384E0,-1.8606257E-1,-2.4571827E-1,1.5411186E0,-4.2983565E-1,1.7269857E0,-1.0843544E0,2.29802E-1,-3.1548604E-1,-1.707524E0,1.6399145E0,3.3266917E-1,7.509615E-1,-8.015478E-1,-2.3688133E-1,1.6124479E0,-3.809558E-1,-1.4683561E0,1.8718851E0,1.4592364E0,-9.709027E-1,1.1642276E0,1.5808389E0,1.948763E0,8.2964736E-1,-1.2016315E0,1.1256753E0,-1.3116235E0,7.454197E-1,1.9257803E0,-1.5131403E0,-8.466645E-2,-1.8921187E0,-1.0687484E0,-3.3878124E-1,-1.734469E0,-1.2737331E0,-1.582845E-2,-8.805533E-1,1.1837729E0,-1.0801458E0,2.2713932E-1,-1.9118454E0,-3.8868198E-1,1.8006016E0,1.0274858E0,3.4381897E-4,-1.463682E0,1.4891654E0,-4.3882373E-1,7.93898E-1,-6.609722E-1,1.5760902E0,2.6905063E-1,-6.453994E-1,5.2947664E-1,-1.6982247E0,-5.1487106E-1,4.3437326E-1,-1.1464474E0,7.0171386E-2,1.2195956E0,1.7292738E0,1.1334731E-1,1.9280072E0,5.1408386E-1,1.4934307E0,1.10379174E-1,-1.3978618E0,1.117779E0,-1.6311299E0,4.8474304E-2,1.1633584E0,-6.1086506E-1,-1.2326487E0,5.1709366E-1,-6.939299E-1,2.4043033E-1,5.9511435E-1,-1.2832144E0,1.6856049E0,-8.0105186E-1,-1.72022E0,-6.2275585E-2,5.1340795E-1,-3.1147212E-1,-8.0531967E-1,1.3266466E0,-1.6836474E0,-6.70588E-2,-1.8856632E0,-1.6220529E0,-4.5938513E-1,-1.6653614E0,-6.82336E-1,6.466325E-1,-1.0762644E0,4.128791E-1,1.3965167E-1,-7.6363677E-1,6.961965E-2,1.4347314E0,-1.376855E0,-2.2979097E-1,9.219577E-1,-3.860515E-1,2.66531E-1,1.8974582E0,-8.027342E-1,-1.2993842E-1,-1.0042349E0,-6.259246E-2,5.4394525E-1,1.740777E0,-4.2132637E-1,6.7514735E-1,-3.474943E-1,1.5789434E0,-1.7592344E0,9.105852E-2,-4.896287E-1,1.5413246E0,-1.1532321E-1,-1.1557338E0,-1.8616939E0,-1.0022578E0,-1.0586014E0,2.8276014E-1,1.6546749E0,3.848058E-1,1.8333836E0,6.8746054E-1,2.5635496E-1,-1.3938428E0,5.88294E-1,-1.5083256E0,-1.0737975E0,5.280382E-1,-1.8362182E0,-9.673374E-1,1.04864106E-1,1.012035E0,4.906501E-1,-7.162136E-1,1.6953923E0,3.749142E-1,-6.0606045E-1,7.7643E-1,5.0888803E-2,-1.6237962E0,1.0061543E0,1.8936411E0,2.9587796E-1,1.7153748E0,3.571851E-1,-1.291919E0,1.3701048E0,-3.0947068E-1,1.7046989E0,4.3324226E-1,1.949932E0,-6.363507E-1,1.314543E0,-2.6453876E-1,-3.791826E-1,-1.3568014E0,5.6934816E-1,-1.5779537E0,1.4477738E0,-1.14016E0,2.5658986E-1,1.9522258E0,-3.7400708E-1,-1.6026049E0,-8.62467E-1,1.1237837E0,-5.290433E-1,-1.3945551E0,-1.0272294E0,-1.7857771E0,6.477363E-1,-1.4121811E0,9.118914E-1,-6.348877E-1,5.105739E-1,-1.454051E0,1.4359288E0,-5.6384313E-1,5.050237E-1,1.8277496E0,-1.9514215E-1,1.3855995E0,1.0566502E0,-1.882019E-1,8.499848E-1,1.654542E0,8.0794847E-1,-2.478082E-1,1.4090133E-1,-1.353947E0,5.949436E-1,-4.6530163E-1,-4.1020128E-1,1.3482995E0,1.7860311E0,3.784259E-1,-1.0956333E0,1.1751387E0,1.0426863E0,-3.9460173E-1,-3.5716766E-1,-1.5093223E0,1.5928347E0,-4.372726E-1,-9.437321E-1,8.676941E-2,-9.2445874E-1,-1.7481775E0,-5.991702E-1,-1.7240849E0,6.801597E-1,-1.4158239E0,1.2849662E0,-3.8857913E-1,-3.822597E-1,-1.3916017E0,1.8028486E0,4.7554326E-1,-1.7659131E0,-1.8159796E-1,-9.4866335E-1,1.0007042E0,-7.763779E-1,-1.7086766E0,-5.575029E-2,-1.1547805E0,-6.1552006E-1,1.1049186E0,3.9321598E-1,-1.8228483E-1,-1.0179441E-1,-9.1654885E-1,-8.930604E-1,8.0985475E-1,1.725311E-1,1.5171664E0,1.6825033E0,-2.2768572E-2,-1.7901027E0,-4.2129675E-1,-3.0579352E-1,-1.261541E0,-1.4956914E0,4.7635517E-1],"categories":[],"categories_nodes":[],"categories_segments":[],"categories_sizes":[],"default_left":[1,1,1,1,1,1,1,1,1,1,1,1,1,1,1,1,1,1,1,1,1,1,1,1,1,1,1,1,1,1,1,1,1,1,1,1,1,1,1,1,1,1,0,1,1,1,1,1,1,0,1,1,1,0,0,1,1,1,0,1,1,1,1,1,1,1,0,1,1,1,1,1,1,1,1,1,1,1,1,1,1,1,1,1,1,1,1,1,1,1,1,1,0,1,1,1,1,0,0,1,1,1,1,0,1,1,1,1,1,0,0,0,1,1,1,0,0,0,1,1,1,0,1,1,1,1,1,1,1,1,1,1,0,1,1,0,1,1,1,0,1,1,1,0,0,1,1,1,0,1,1,1,1,1,1,1,1,1,1,1,1,1,0,1,0,1,1,0,0,0,0,0,1,0,0,1,1,1,0,0,0,0,0,1,0,0,0,0,1,0,1,1,1,0,0,1,1,1,0,0,0,0,0,0,0,0,0,0,0,0,0,1,0,1,1,0,0,1,1,1,1,1,1,1,1,1,1,1,1,1,1,1,0,1,1,1,1,1,0,1,1,1,1,1,1,1,1,1,1,1,0,1,0,0,1,1,0,1,0,1,0,1,1,1,1,1,1,1,0,1,1,1,0,1,1,1,1,0,0,0,0,1,0,0,1,0,1,0,0,1,0,0,0,1,0,0,0,1,0,1,0,1,1,1,0,0,0,0,0,0,0,1,1,0,1,1,1,1,1,0,0,1,0,1,1,1,1,1,1,1,1,1,1,1,1,0,1,1,1,1,1,0,1,0,1,1,1,1,1,0,0,0,0,1,1,0,0,0,0,1,0,1,0,0,0,0,0,1,1,1,1,1,1,0,1,0,0,1,0,0,0,1,1,1,0,1,1,1,1,1,0,0,0,0,0,0,0,1,1,0,1,0,0,1,1,0,0,1,1,1,1,0,0,0,0,0,0,0,0,0,0,0,0,0,0,0,1,1,0,0,0,0,1,0,1,0,0,0,0,0,0,0,0,0,0,0,0,0,0,0,0,0,0,0,0,0,0,0,0,0,0,0,0,0,0,0,0,0,0,0,0,0,0,0,0,0,0,0,0,0,0,0,0,0,0,0,0,0,0,0,0,0,0,0,0,0,0,0,0,0,0,0,0,0,0,0,0,0,0,0,0,0,0,0,0,0,0,0,0,0,0,0,0,0,0,0,0,0,0,0,0,0,0,0,0,0,0,0,0,0,0,0,0,0,0,0,0,0,0,0,0,0,0,0,0,0,0,0,0,0,0,0,0],"id":0,"left_children":[1,3,5,7,9,11,13,15,17,19,21,23,25,27,29,31,33,35,37,39,41,43,45,47,49,51,53,55,57,59,61,63,65,67,69,71,73,75,77,79,81,83,-1,85,87,89,91,93,95,-1,97,99,101,-1,-1,103,105,107,-1,109,111,113,115,117,119,121,-1,123,125,127,129,131,133,135,137,139,141,143,145,147,149,151,153,155,157,159,161,163,165,167,169,171,-1,173,175,177,179,-1,-1,181,183,185,187,-1,189,191,193,195,197,-1,-1,-1,199,201,203,-1,-1,-1,205,207,209,-1,211,213,215,217,219,221,223,225,227,229,-1,231,233,-1,235,237,239,-1,241,243,245,-1,-1,247,249,251,-1,253,255,257,259,261,263,265,267,269,271,273,275,277,-1,279,-1,281,283,-1,-1,-1,-1,-1,285,-1,-1,287,289,291,-1,-1,-1,-1,-1,293,-1,-1,-1,-1,295,-1,297,299,301,-1,-1,303,305,307,-1,-1,-1,-1,-1,-1,-1,-1,-1,-1,-1,-1,-1,309,-1,311,313,-1,-1,315,317,319,321,323,325,327,329,331,333,335,337,339,341,343,-1,345,347,349,351,353,-1,355,357,359,361,363,365,367,369,371,373,375,-1,377,-1,-1,379,381,-1,383,-1,385,-1,387,389,391,393,395,397,399,-1,401,403,405,-1,407,409,411,413,-1,-1,-1,-1,415,-1,-1,417,-1,419,-1,-1,421,-1,-1,-1,423,-1,-1,-1,425,-1,427,-1,429,431,433,-1,-1,-1,-1,-1,-1,-1,435,437,-1,439,441,443,445,447,-1,-1,449,-1,451,453,455,457,459,461,463,465,467,469,471,473,-1,475,477,479,481,483,-1,485,-1,487,489,491,493,495,-1,-1,-1,-1,497,499,-1,-1,-1,-1,501,-1,503,-1,-1,-1,-1,-1,505,507,509,511,513,515,-1,517,-1,-1,519,-1,-1,-1,521,523,525,-1,527,529,531,533,535,-1,-1,-1,-1,-1,-1,-1,537,539,-1,541,-1,-1,543,545,-1,-1,547,549,551,553,-1,-1,-1,-1,-1,-1,-1,-1,-1,-1,-1,-1,-1,-1,-1,555,557,-1,-1,-1,-1,559,-1,561,-1,-1,-1,-1,-1,-1,-1,-1,-1,-1,-1,-1,-1,-1,-1,-1,-1,-1,-1,-1,-1,-1,-1,-1,-1,-1,-1,-1,-1,-1,-1,-1,-1,-1,-1,-1,-1,-1,-1,-1,-1,-1,-1,-1,-1,-1,-1,-1,-1,-1,-1,-1,-1,-1,-1,-1,-1,-1,-1,-1,-1,-1,-1,-1,-1,-1,-1,-1,-1,-1,-1,-1,-1,-1,-1,-1,-1,-1,-1,-1,-1,-1,-1,-1,-1,-1,-1,-1,-1,-1,-1,-1,-1,-1,-1,-1,-1,-1,-1,-1,-1,-1,-1,-1,-1,-1,-1,-1,-1,-1,-1,-1,-1,-1,-1,-1,-1,-1,-1,-1,-1,-1,-1,-1,-1,-1,-1,-1],"loss_changes":[1.9201908E4,6.625792E3,3.1695898E2,1.7187148E3,1.1766348E3,2.8847842E2,7.789844E1,7.268252E2,8.816806E2,2.453501E2,1.54811E2,1.1947699E2,5.788971E1,4.0664062E1,5.8654766E1,6.84842E1,5.557207E2,2.572079E2,1.3713025E2,1.40212E2,3.6947998E1,7.770804E1,1.5649761E1,5.8877052E1,5.941635E0,2.2967285E1,2.6092339E0,1.0064014E2,1.2285156E0,4.8977276E1,7.9680634E0,3.564114E1,6.5687103E0,1.392798E2,1.2164551E2,5.9688354E1,1.8703526E2,6.1463554E1,1.703955E1,1.0882629E1,1.455553E2,2.4386353E1,0E0,2.9798708E1,3.5165253E1,7.522835E0,9.026871E-1,2.0013159E1,9.752838E0,0E0,2.2016754E0,1.7002026E1,3.3215637E0,0E0,0E0,4.712307E1,2.6525024E1,2.2218811E1,0E0,3.7975655E0,2.8304672E0,1.0567596E1,2.3099518E0,3.8379545E0,7.824383E0,9.983667E0,0E0,5.0647003E1,4.1187374E1,7.221735E1,7.648047E1,1.4672852E-1,9.3341034E1,1.3549431E1,2.470517E1,1.3468803E1,4.4330723E1,1.3661411E0,6.2460938E0,4.553589E0,1.1338427E1,3.9459564E1,6.662937E1,8.327637E0,3.2738075E1,1.8364756E1,8.777274E0,3.1459297E1,6.255127E0,1.5221579E0,1.973546E0,1.6656876E-1,0E0,5.5023074E0,6.6567726E0,1.3484268E0,5.067868E0,0E0,0E0,1.4643429E1,4.731776E0,1.4424744E0,7.208707E0,0E0,1.4322233E1,3.1421322E1,7.722168E-1,3.2015656E1,9.611206E-1,0E0,0E0,0E0,4.2777634E-1,1.1651392E0,2.3146796E-1,0E0,0E0,0E0,1.2550449E0,4.0018897E0,2.5626488E0,0E0,3.7660465E0,2.9316124E1,8.816643E0,3.2793922E1,5.4251003E0,5.1929703E1,1.0052014E2,2.9674805E1,1.256637E2,2.8873444E0,0E0,5.17395E0,4.5677395E1,0E0,2.7546234E0,1.6838577E1,1.6576931E1,0E0,6.0782547E0,4.5693703E0,1.5188685E1,0E0,0E0,4.063843E0,8.088475E0,2.1393433E0,0E0,2.7107964E0,1.0090907E1,4.039261E0,2.8875526E1,3.423941E1,5.436098E0,1.2610918E1,5.8673096E-1,2.2314396E1,2.735466E0,1.5369328E1,4.9561505E0,1.7038021E0,0E0,6.3130302E0,0E0,3.3605347E0,6.4215937E0,0E0,0E0,0E0,0E0,0E0,2.507248E-1,0E0,0E0,3.4323893E0,1.6999893E0,2.0055976E0,0E0,0E0,0E0,0E0,0E0,1.9027257E0,0E0,0E0,0E0,0E0,5.5375576E-1,0E0,9.194382E0,6.092552E0,1.8671833E1,0E0,0E0,8.264389E0,2.0027132E0,6.0498047E-1,0E0,0E0,0E0,0E0,0E0,0E0,0E0,0E0,0E0,0E0,0E0,0E0,0E0,2.1266193E0,0E0,4.891619E1,6.2551804E0,0E0,0E0,1.745559E1,3.5885086E0,7.940426E-1,4.070363E0,1.2129898E1,5.9893036E0,6.791504E0,1.0115435E2,1.8574219E1,8.327795E0,1.8763138E1,1.8164795E1,6.6829395E0,5.362549E-1,2.768921E0,0E0,9.612705E0,2.628618E1,1.730998E0,9.802017E-1,4.283249E0,0E0,2.7075176E0,6.6647573E0,3.345107E0,9.164505E-1,1.4283834E0,1.9958496E-2,6.0063653E0,1.24758E1,1.2000763E1,3.312439E0,1.2693205E0,0E0,1.0321204E1,0E0,0E0,2.832981E0,6.6715555E0,0E0,5.2946205E0,0E0,2.6289978E1,0E0,2.0005829E1,1.1386757E1,2.7927608E0,6.6907096E-1,5.366432E0,1.1623577E1,1.6082764E-1,0E0,9.6687317E-1,1.6978897E1,2.6525202E0,0E0,1.3116435E0,8.181908E0,1.1162581E0,2.1499355E0,0E0,0E0,0E0,0E0,2.145752E0,0E0,0E0,1.6439164E-1,0E0,5.142808E-1,0E0,0E0,2.791214E-2,0E0,0E0,0E0,1.321211E0,0E0,0E0,0E0,5.1273117E0,0E0,6.160881E0,0E0,6.7338057E0,7.8905916E-1,1.5629425E0,0E0,0E0,0E0,0E0,0E0,0E0,0E0,1.4616661E1,3.1353378E0,0E0,3.6895142E0,7.905569E0,1.5289731E1,2.789536E0,2.0647507E0,0E0,0E0,5.665114E-1,0E0,2.1702156E0,1.0632057E0,3.478531E0,2.8632069E0,2.8876953E0,2.212088E1,1.2073339E1,3.7967224E1,2.4131134E1,9.682617E0,2.453575E0,1.6057968E-2,0E0,1.1712254E1,2.8453636E1,2.0168762E0,8.1500053E-1,6.090191E0,0E0,3.9184093E-1,0E0,1.0209045E0,6.945915E0,5.9392824E0,7.243857E0,1.2968975E1,0E0,0E0,0E0,0E0,6.1883545E-1,7.103813E0,0E0,0E0,0E0,0E0,2.8896275E0,0E0,6.109314E-1,0E0,0E0,0E0,0E0,0E0,1.1442999E0,2.5275097E0,6.5994825E0,4.1238194E0,7.3086166E-1,1.0694505E1,0E0,2.1146314E0,0E0,0E0,3.5182953E-1,0E0,0E0,0E0,4.7914047E0,8.9780414E-1,2.326294E0,0E0,1.3385735E1,2.8844866E1,1.9997799E1,1.6012478E-1,4.969185E0,0E0,0E0,0E0,0E0,0E0,0E0,0E0,2.011383E0,7.4735804E0,0E0,7.9075317E0,0E0,0E0,5.753153E0,1.1567347E1,0E0,0E0,3.1789553E-1,3.8987803E-1,5.2248306E0,2.695694E0,0E0,0E0,0E0,0E0,0E0,0E0,0E0,0E0,0E0,0E0,0E0,0E0,0E0,0E0,0E0,2.9242935E0,5.580139E-1,0E0,0E0,0E0,0E0,1.8258667E-1,0E0,7.111144E0,0E0,0E0,0E0,0E0,0E0,0E0,0E0,0E0,0E0,0E0,0E0,0E0,0E0,0E0,0E0,0E0,0E0,0E0,0E0,0E0,0E0,0E0,0E0,0E0,0E0,0E0,0E0,0E0,0E0,0E0,0E0,0E0,0E0,0E0,0E0,0E0,0E0,0E0,0E0,0E0,0E0,0E0,0E0,0E0,0E0,0E0,0E0,0E0,0E0,0E0,0E0,0E0,0E0,0E0,0E0,0E0,0E0,0E0,0E0,0E0,0E0,0E0,0E0,0E0,0E0,0E0,0E0,0E0,0E0,0E0,0E0,0E0,0E0,0E0,0E0,0E0,0E0,0E0,0E0,0E0,0E0,0E0,0E0,0E0,0E0,0E0,0E0,0E0,0E0,0E0,0E0,0E0,0E0,0E0,0E0,0E0,0E0,0E0,0E0,0E0,0E0,0E0,0E0,0E0,0E0,0E0,0E0,0E0,0E0,0E0,0E0,0E0,0E0,0E0,0E0,0E0,0E0,0E0,0E0,0E0,0E0,0E0,0E0,0E0,0E0,0E0,0E0,0E0],"parents":[2147483647,0,0,1,1,2,2,3,3,4,4,5,5,6,6,7,7,8,8,9,9,10,10,11,11,12,12,13,13,14,14,15,15,16,16,17,17,18,18,19,19,20,20,21,21,22,22,23,23,24,24,25,25,26,26,27,27,28,28,29,29,30,30,31,31,32,32,33,33,34,34,35,35,36,36,37,37,38,38,39,39,40,40,41,41,43,43,44,44,45,45,46,46,47,47,48,48,50,50,51,51,52,52,55,55,56,56,57,57,59,59,60,60,61,61,62,62,63,63,64,64,65,65,67,67,68,68,69,69,70,70,71,71,72,72,73,73,74,74,75,75,76,76,77,77,78,78,79,79,80,80,81,81,82,82,83,83,84,84,85,85,86,86,87,87,88,88,89,89,90,90,91,91,93,93,94,94,95,95,96,96,99,99,100,100,101,101,102,102,104,104,105,105,106,106,107,107,108,108,112,112,113,113,114,114,118,118,119,119,120,120,122,122,123,123,124,124,125,125,126,126,127,127,128,128,129,129,130,130,131,131,133,133,134,134,136,136,137,137,138,138,140,140,141,141,142,142,145,145,146,146,147,147,149,149,150,150,151,151,152,152,153,153,154,154,155,155,156,156,157,157,158,158,159,159,160,160,161,161,163,163,165,165,166,166,172,172,175,175,176,176,177,177,183,183,188,188,190,190,191,191,192,192,195,195,196,196,197,197,211,211,213,213,214,214,217,217,218,218,219,219,220,220,221,221,222,222,223,223,224,224,225,225,226,226,227,227,228,228,229,229,230,230,231,231,233,233,234,234,235,235,236,236,237,237,239,239,240,240,241,241,242,242,243,243,244,244,245,245,246,246,247,247,248,248,249,249,251,251,254,254,255,255,257,257,259,259,261,261,262,262,263,263,264,264,265,265,266,266,267,267,269,269,270,270,271,271,273,273,274,274,275,275,276,276,281,281,284,284,286,286,289,289,293,293,297,297,299,299,301,301,302,302,303,303,311,311,312,312,314,314,315,315,316,316,317,317,318,318,321,321,323,323,324,324,325,325,326,326,327,327,328,328,329,329,330,330,331,331,332,332,333,333,334,334,336,336,337,337,338,338,339,339,340,340,342,342,344,344,345,345,346,346,347,347,348,348,353,353,354,354,359,359,361,361,367,367,368,368,369,369,370,370,371,371,372,372,374,374,377,377,381,381,382,382,383,383,385,385,386,386,387,387,388,388,389,389,397,397,398,398,400,400,403,403,404,404,407,407,408,408,409,409,410,410,426,426,427,427,432,432,434,434],"right_children":[2,4,6,8,10,12,14,16,18,20,22,24,26,28,30,32,34,36,38,40,42,44,46,48,50,52,54,56,58,60,62,64,66,68,70,72,74,76,78,80,82,84,-1,86,88,90,92,94,96,-1,98,100,102,-1,-1,104,106,108,-1,110,112,114,116,118,120,122,-1,124,126,128,130,132,134,136,138,140,142,144,146,148,150,152,154,156,158,160,162,164,166,168,170,172,-1,174,176,178,180,-1,-1,182,184,186,188,-1,190,192,194,196,198,-1,-1,-1,200,202,204,-1,-1,-1,206,208,210,-1,212,214,216,218,220,222,224,226,228,230,-1,232,234,-1,236,238,240,-1,242,244,246,-1,-1,248,250,252,-1,254,256,258,260,262,264,266,268,270,272,274,276,278,-1,280,-1,282,284,-1,-1,-1,-1,-1,286,-1,-1,288,290,292,-1,-1,-1,-1,-1,294,-1,-1,-1,-1,296,-1,298,300,302,-1,-1,304,306,308,-1,-1,-1,-1,-1,-1,-1,-1,-1,-1,-1,-1,-1,310,-1,312,314,-1,-1,316,318,320,322,324,326,328,330,332,334,336,338,340,342,344,-1,346,348,350,352,354,-1,356,358,360,362,364,366,368,370,372,374,376,-1,378,-1,-1,380,382,-1,384,-1,386,-1,388,390,392,394,396,398,400,-1,402,404,406,-1,408,410,412,414,-1,-1,-1,-1,416,-1,-1,418,-1,420,-1,-1,422,-1,-1,-1,424,-1,-1,-1,426,-1,428,-1,430,432,434,-1,-1,-1,-1,-1,-1,-1,436,438,-1,440,442,444,446,448,-1,-1,450,-1,452,454,456,458,460,462,464,466,468,470,472,474,-1,476,478,480,482,484,-1,486,-1,488,490,492,494,496,-1,-1,-1,-1,498,500,-1,-1,-1,-1,502,-1,504,-1,-1,-1,-1,-1,506,508,510,512,514,516,-1,518,-1,-1,520,-1,-1,-1,522,524,526,-1,528,530,532,534,536,-1,-1,-1,-1,-1,-1,-1,538,540,-1,542,-1,-1,544,546,-1,-1,548,550,552,554,-1,-1,-1,-1,-1,-1,-1,-1,-1,-1,-1,-1,-1,-1,-1,556,558,-1,-1,-1,-1,560,-1,562,-1,-1,-1,-1,-1,-1,-1,-1,-1,-1,-1,-1,-1,-1,-1,-1,-1,-1,-1,-1,-1,-1,-1,-1,-1,-1,-1,-1,-1,-1,-1,-1,-1,-1,-1,-1,-1,-1,-1,-1,-1,-1,-1,-1,-1,-1,-1,-1,-1,-1,-1,-1,-1,-1,-1,-1,-1,-1,-1,-1,-1,-1,-1,-1,-1,-1,-1,-1,-1,-1,-1,-1,-1,-1,-1,-1,-1,-1,-1,-1,-1,-1,-1,-1,-1,-1,-1,-1,-1,-1,-1,-1,-1,-1,-1,-1,-1,-1,-1,-1,-1,-1,-1,-1,-1,-1,-1,-1,-1,-1,-1,-1,-1,-1,-1,-1,-1,-1,-1,-1,-1,-1,-1,-1,-1,-1,-1,-1],"split_conditions":[7.5792446E0,1.7218245E0,5.9480333E-1,1.375001E0,3.3030454E-2,2.53686E1,7.180834E-2,1.8039343E-1,3.27594E0,2.652719E0,3.238656E0,1.945178E0,6.224905E-2,1.5633608E1,1.4569304E0,1.5771808E-1,-2.8793769E-2,2.5948595E-2,7.2948867E-3,5.260725E0,3.1181943E0,1.2504294E1,3.7001818E-1,6.3542426E-1,-7.2311774E-2,3.1383625E-1,4.421026E0,9.903779E-1,9.008765E-1,2.996173E0,2.0118843E1,8.162021E-2,3.7025362E-1,8.7619716E-1,5.3892564E-2,1.326133E0,5.652174E-1,1.1252911E0,-8.90146E-1,1.6505174E-2,9.715496E-3,7.882958E-3,-9.6699916E-2,2.558067E0,-3.7080085E-1,1.7292183E1,6.488893E-1,3.0243982E-2,3.8119197E-2,-1.3233929E-2,1.37241E1,1.4981718E0,3.5366433E0,7.658649E-2,-4.857817E-3,2.002432E0,1.7148085E0,2.440005E-1,-9.956974E-2,4.1681254E-1,-4.3438777E-1,8.5274684E-1,3.9330262E-1,7.591406E-1,4.3696945E1,1.993803E-1,-9.534423E-2,1.6108402E1,2.7869243E-2,1.3683493E0,7.2065616E0,1.5447336E-1,2.3275476E0,9.685287E-2,6.455593E-1,-6.2156282E-2,4.244338E0,1.3198265E0,9.5604026E-1,1.2160709E0,9.441334E0,-3.0243859E-2,4.27465E-1,2.2290882E-1,1.3959594E0,8.254862E-1,2.1096195E-1,2.3219313E-1,8.8936174E-1,-8.8205456E-4,3.5731773E0,3.5950713E-2,-1.6222265E-2,1.8284637E-1,4.6554985E-3,8.096597E-1,2.2591076E1,9.487916E-2,1.6452827E-2,7.482189E-2,3.007945E2,4.504946E-2,1.0305466E2,-8.669183E-2,-5.2329265E-2,5.786758E0,1.5542847E1,5.3576193E0,4.2555057E-2,1.0850067E-2,-8.08452E-2,3.7148164E-3,1.7623022E2,4.1614143E1,6.549082E0,-9.1939E-2,-1.2017471E-2,5.659063E-3,1.7745832E-2,5.4856677E0,1.0033546E-3,4.4462256E-2,1.3023756E2,2.2509978E0,4.612095E-2,9.74597E-1,1.2567661E0,2.4504872E-1,1.0154274E0,1.2436755E2,8.324097E-2,1.8132222E0,-9.850018E-2,2.198458E-2,4.0369146E-3,4.354466E-2,2.8606522E-1,1.0187626E1,2.2011044E0,-5.7914514E-2,5.453642E0,4.9826305E-2,-3.4536324E-2,6.6448757E-3,-5.429932E-2,1.1295651E-2,1.432456E0,5.3757755E-3,1.22069E-2,1.7438516E-2,2.2196298E0,5.1688814E-1,1.7312414E1,1.0797901E1,1.2577127E1,3.5566952E-2,3.1144953E0,-3.1658582E-2,3.7307445E-2,4.332305E0,7.810999E0,2.965201E-1,3.9465886E-2,7.340088E1,8.272933E-2,5.681896E0,8.5059726E-1,-6.489332E-2,-9.16504E-4,6.7456916E-2,-4.01927E-3,-2.3433695E-2,2.7373905E0,3.2258973E-2,-7.052317E-2,1.9337225E0,7.055323E0,6.9201756E-1,-8.840441E-2,-4.1766398E-2,5.653425E-2,5.3472918E-2,-8.707052E-2,2.8309329E0,-4.0317547E-2,-1.6420018E-2,-9.6522E-2,3.2608625E-2,3.3422583E-1,-6.0737193E-2,9.894092E-1,1.7022885E0,8.218336E-1,-9.665364E-2,-3.176602E-2,2.7857862E-2,3.3286107E0,1.8249413E1,-2.6077164E-2,9.125825E-2,2.3772256E-2,-7.6329954E-2,-1.2221017E-2,1.1101006E-2,5.1645916E-2,-1.5600716E-2,-8.572734E-2,3.1716477E-2,-5.696982E-2,6.7748264E-3,8.246983E-2,3.5018735E-2,1.1312705E-3,1.8136064E-2,1.3880306E-1,-8.373692E-2,4.081319E-2,4.1275406E0,1.9443853E0,2.8099403E0,6.892175E-1,5.1462424E-1,5.7583374E-1,7.785051E-1,3.5925155E0,2.8219712E0,1.2621203E-1,5.06289E-2,1.7104894E-1,1.1922021E1,9.318709E-3,1.4095724E0,4.985277E-4,2.3425283E0,1.549685E0,5.7943508E-2,4.5276254E-1,1.213692E0,-4.8910473E-2,1.9503293E0,1.0249075E0,2.7482495E0,2.6940298E-1,3.9391117E0,1.7610204E0,7.247429E-1,1.0373205E1,1.2969828E0,5.570116E0,1.880301E0,-5.397869E-2,5.3306688E-3,-8.3498895E-2,-4.0408676E-3,4.915307E0,1.5907775E-1,-6.637309E-2,4.304296E-1,-8.781279E-2,1.6257727E1,-8.88493E-2,2.9432106E0,6.4876714E0,7.027199E-1,8.874413E-1,7.553956E0,4.688641E-2,5.9310336E0,-1.9948443E-2,2.7183425E0,7.192394E0,3.016827E0,-8.914811E-2,2.039908E0,-6.720175E-2,5.4231532E-2,1.3349742E1,-6.282517E-3,-7.8274764E-2,-8.065763E-2,2.676034E-2,1.1214566E-1,1.5496028E-2,6.700479E-2,6.441346E-1,-9.019351E-2,3.476621E-1,3.3037867E-2,-5.1151175E-2,3.2557726E0,8.601736E-3,1.510832E-2,-5.5728763E-2,4.374089E-3,6.951521E-2,-1.8683696E-2,-8.0547474E-2,1.3870827E-3,-4.0863268E-2,3.3259265E-2,2.2553595E-2,-9.50949E-3,1.1203963E0,2.3346882E0,2.5372554E-2,7.079813E-2,-3.2819032E-3,-2.5822943E-2,-9.882905E-2,-8.322692E-2,-9.303129E-3,5.8983507E0,8.2332927E-1,-2.1491783E-2,9.581598E-1,2.0199889E-1,1.7641323E1,8.456394E-3,-3.486605E-2,8.1995726E-2,1.6633458E-2,-5.035981E-1,-4.0077392E-2,8.535777E-2,9.690267E-1,4.7737703E-2,2.4340266E-1,1.5712976E0,3.1259844E0,3.0863443E-2,2.416654E0,9.633887E-1,1.9883728E1,7.3156273E-1,4.898753E0,5.628377E-2,1.5058155E1,3.4647432E-1,6.623535E-1,1.7280313E-1,5.2971673E-1,-9.460594E-2,1.3603265E0,-1.6939063E-2,2.154736E-1,3.3153558E-1,4.606642E-2,3.8173935E-1,2.2226074E-1,-5.400729E-2,1.1356967E-2,-9.5592275E-2,-1.94341E-2,6.464151E-1,4.6855737E-2,1.7190949E-5,-7.31841E-2,7.445827E-2,-2.1941187E-2,9.4569665E-1,-3.304861E-2,3.7795365E0,1.3452532E-2,-3.226997E-2,2.6473833E-2,-8.4911235E-2,-2.5743553E-2,4.578967E-2,4.414315E0,1.2877473E-2,2.9374322E-1,4.319871E0,5.1150837E0,9.6400365E-2,1.4401063E0,7.467154E-2,5.518959E-3,1.37617E-3,5.588895E-2,-8.155649E-2,2.4237153E-3,2.4026833E0,1.6608477E-1,1.1699102E0,2.5854683E-2,1.2944761E-1,2.3594284E-1,2.2317836E0,3.550878E0,2.5191112E0,-4.0052593E-2,-8.6011E-2,-3.1137792E-3,2.5670398E-2,-1.5573606E-2,-4.0265985E-2,6.633233E-2,6.0596736E-3,2.9835997E0,-9.4283156E-2,3.0915403E-1,-2.2969257E-2,-8.326807E-2,4.0048212E-1,6.29891E0,-5.381322E-2,2.0643955E-2,1.9949703E0,2.1831265E-1,1.1371746E0,3.0268022E-1,-6.8842754E-2,-1.1489549E-2,4.6097886E-2,-1.9302575E-2,1.332655E-2,9.4872914E-2,-4.013671E-2,-6.496921E-3,-5.0211746E-2,-3.1296231E-3,2.7197262E-2,8.703885E-2,-2.106632E-2,3.375737E-2,-1.7374715E-2,1.146565E0,2.5541916E0,4.5529264E-3,-2.4481436E-2,7.7066235E-2,-5.7661603E-3,9.4246864E-4,-9.308469E-2,5.5689546E-3,-5.293007E-2,1.4138008E-2,8.273374E-2,1.924029E-2,9.166918E-2,3.4373026E-2,1.2817748E-2,-6.969214E-2,2.9414702E-2,-7.541628E-2,-5.3689875E-2,2.640191E-2,-9.181091E-2,-4.836687E-2,5.2432055E-3,5.060175E-2,2.4532504E-2,-3.581068E-2,8.4769614E-2,1.8745711E-2,-3.0303022E-2,3.88215E-2,2.54444E-3,-8.118981E-2,5.0307717E-2,9.468206E-2,1.4793898E-2,8.5768744E-2,1.7859256E-2,-6.459595E-2,6.850524E-2,-1.5473534E-2,8.523495E-2,2.1662114E-2,9.74966E-2,-3.1817537E-2,6.572715E-2,-1.3226938E-2,-1.8959131E-2,-6.784007E-2,2.8467407E-2,-7.8897685E-2,7.238869E-2,-5.7008E-2,1.2829493E-2,9.761129E-2,-1.8700354E-2,-8.013024E-2,-4.312335E-2,5.6189187E-2,-2.6452167E-2,-6.9727756E-2,-5.136147E-2,-8.928885E-2,3.2386817E-2,-7.0609055E-2,4.559457E-2,-3.1744387E-2,2.5528697E-2,-7.270255E-2,7.179644E-2,-2.8192157E-2,2.5251186E-2,9.138748E-2,-9.757108E-3,6.9279976E-2,5.283251E-2,-9.410095E-3,4.249924E-2,8.27271E-2,4.0397424E-2,-1.23904105E-2,7.0450664E-3,-6.769735E-2,2.9747179E-2,-2.3265082E-2,-2.0510064E-2,6.741498E-2,8.930156E-2,1.8921295E-2,-5.4781664E-2,5.8756936E-2,5.2134316E-2,-1.9730087E-2,-1.7858384E-2,-7.546612E-2,7.964174E-2,-2.186363E-2,-4.7186606E-2,4.3384708E-3,-4.6222936E-2,-8.740888E-2,-2.995851E-2,-8.6204246E-2,3.4007985E-2,-7.07912E-2,6.4248316E-2,-1.9428957E-2,-1.9112986E-2,-6.9580086E-2,9.014243E-2,2.3777163E-2,-8.829566E-2,-9.079899E-3,-4.7433168E-2,5.003521E-2,-3.8818896E-2,-8.543383E-2,-2.7875146E-3,-5.7739027E-2,-3.0776003E-2,5.5245932E-2,1.9660799E-2,-9.114242E-3,-5.0897202E-3,-4.5827445E-2,-4.465302E-2,4.049274E-2,8.626555E-3,7.585832E-2,8.412517E-2,-1.1384286E-3,-8.9505136E-2,-2.1064838E-2,-1.5289676E-2,-6.3077055E-2,-7.478457E-2,2.3817759E-2],"split_indices":[0,3,3,1,4,0,4,2,2,3,3,2,4,0,3,1,7,4,4,2,3,6,9,1,7,5,5,3,3,2,0,2,1,3,5,2,2,3,7,4,4,4,0,0,7,6,8,7,4,0,8,2,2,0,0,2,3,5,0,5,7,8,4,5,8,5,0,6,4,2,7,5,8,5,9,7,2,0,9,8,6,7,5,1,0,9,4,4,9,7,3,4,0,3,4,1,6,0,0,3,0,3,0,0,7,2,0,2,4,0,0,0,0,6,2,0,0,0,3,5,4,0,8,2,4,0,3,3,3,8,4,1,0,4,4,0,7,5,2,0,6,0,7,0,0,4,3,0,0,4,0,0,2,6,2,5,3,7,5,2,2,9,0,6,0,0,0,0,0,0,0,0,1,0,0,5,5,9,0,0,0,0,0,2,0,0,0,0,1,0,9,3,9,0,0,4,8,0,0,0,0,0,0,0,0,0,0,0,0,0,0,4,0,4,3,0,0,2,6,0,0,2,1,3,2,6,1,1,3,8,4,1,0,2,2,4,4,0,0,1,3,1,5,2,8,9,6,3,0,1,0,0,0,0,2,5,0,0,0,6,0,0,0,7,0,6,7,2,0,3,2,3,0,3,7,4,2,0,0,0,0,8,0,0,8,0,5,0,0,6,0,0,0,4,0,0,0,4,0,4,0,7,3,2,0,0,0,0,0,0,0,8,9,0,9,1,2,4,7,0,0,7,0,3,1,5,9,2,2,5,8,9,2,9,6,0,8,1,2,9,2,0,0,0,9,3,5,3,5,0,0,0,0,6,4,0,0,0,0,9,0,2,0,0,0,0,0,5,2,7,9,0,2,0,3,0,0,4,0,0,0,3,7,8,0,5,5,3,0,3,0,0,0,0,0,0,0,4,3,0,8,0,0,0,6,0,0,1,8,1,8,0,0,0,0,0,0,0,0,0,0,0,0,0,0,0,5,8,0,0,0,0,4,0,4,0,0,0,0,0,0,0,0,0,0,0,0,0,0,0,0,0,0,0,0,0,0,0,0,0,0,0,0,0,0,0,0,0,0,0,0,0,0,0,0,0,0,0,0,0,0,0,0,0,0,0,0,0,0,0,0,0,0,0,0,0,0,0,0,0,0,0,0,0,0,0,0,0,0,0,0,0,0,0,0,0,0,0,0,0,0,0,0,0,0,0,0,0,0,0,0,0,0,0,0,0,0,0,0,0,0,0,0,0,0,0,0,0,0,0,0,0,0,0,0,0,0,0,0,0,0,0,0],"split_type":[0,0,0,0,0,0,0,0,0,0,0,0,0,0,0,0,0,0,0,0,0,0,0,0,0,0,0,0,0,0,0,0,0,0,0,0,0,0,0,0,0,0,0,0,0,0,0,0,0,0,0,0,0,0,0,0,0,0,0,0,0,0,0,0,0,0,0,0,0,0,0,0,0,0,0,0,0,0,0,0,0,0,0,0,0,0,0,0,0,0,0,0,0,0,0,0,0,0,0,0,0,0,0,0,0,0,0,0,0,0,0,0,0,0,0,0,0,0,0,0,0,0,0,0,0,0,0,0,0,0,0,0,0,0,0,0,0,0,0,0,0,0,0,0,0,0,0,0,0,0,0,0,0,0,0,0,0,0,0,0,0,0,0,0,0,0,0,0,0,0,0,0,0,0,0,0,0,0,0,0,0,0,0,0,0,0,0,0,0,0,0,0,0,0,0,0,0,0,0,0,0,0,0,0,0,0,0,0,0,0,0,0,0,0,0,0,0,0,0,0,0,0,0,0,0,0,0,0,0,0,0,0,0,0,0,0,0,0,0,0,0,0,0,0,0,0,0,0,0,0,0,0,0,0,0,0,0,0,0,0,0,0,0,0,0,0,0,0,0,0,0,0,0,0,0,0,0,0,0,0,0,0,0,0,0,0,0,0,0,0,0,0,0,0,0,0,0,0,0,0,0,0,0,0,0,0,0,0,0,0,0,0,0,0,0,0,0,0,0,0,0,0,0,0,0,0,0,0,0,0,0,0,0,0,0,0,0,0,0,0,0,0,0,0,0,0,0,0,0,0,0,0,0,0,0,0,0,0,0,0,0,0,0,0,0,0,0,0,0,0,0,0,0,0,0,0,0,0,0,0,0,0,0,0,0,0,0,0,0,0,0,0,0,0,0,0,0,0,0,0,0,0,0,0,0,0,0,0,0,0,0,0,0,0,0,0,0,0,0,0,0,0,0,0,0,0,0,0,0,0,0,0,0,0,0,0,0,0,0,0,0,0,0,0,0,0,0,0,0,0,0,0,0,0,0,0,0,0,0,0,0,0,0,0,0,0,0,0,0,0,0,0,0,0,0,0,0,0,0,0,0,0,0,0,0,0,0,0,0,0,0,0,0,0,0,0,0,0,0,0,0,0,0,0,0,0,0,0,0,0,0,0,0,0,0,0,0,0,0,0,0,0,0,0,0,0,0,0,0,0,0,0,0,0,0,0,0,0,0,0,0,0,0,0,0,0,0,0,0,0,0,0,0,0,0,0,0,0,0,0,0,0,0],"sum_hessian":[1.0886021E4,6.145968E3,4.740054E3,4.600138E3,1.5458295E3,2.4508054E2,4.4949736E3,3.883498E3,7.166404E2,1.3048737E3,2.4095576E2,9.121813E1,1.538624E2,4.4367915E3,5.8182194E1,8.7327095E1,3.796171E3,4.1087863E2,3.0576175E2,5.564222E2,7.484515E2,2.1413843E2,2.6817345E1,4.704409E1,4.4174046E1,1.4784598E2,6.01643E0,2.934882E2,4.143303E3,2.150711E1,3.6675083E1,2.4058046E1,6.3269047E1,2.0617778E2,3.5899932E3,3.0672003E2,1.04158585E2,1.1431721E2,1.9144455E2,1.996138E2,3.5680838E2,3.0809702E2,4.4035443E2,5.814536E1,1.5599307E2,6.9109287E0,1.9906416E1,2.0809307E1,2.6234783E1,1.1220447E0,4.3052E1,1.8373081E1,1.2947289E2,4.9764156E0,1.0400139E0,2.8878502E1,2.646097E2,2.0278465E2,3.9405186E3,7.807595E0,1.3699516E1,8.243435E0,2.8431648E1,8.808558E0,1.5249489E1,1.4574451E1,4.8694595E1,1.1370397E2,9.247381E1,5.184799E2,3.0715132E3,1.6149342E2,1.4522662E2,3.1490307E1,7.2668274E1,4.7446262E1,6.687094E1,2.4821467E0,1.889624E2,1.7285776E2,2.6756046E1,2.6766275E2,8.9145615E1,2.2194397E2,8.615305E1,4.7080734E1,1.1064622E1,1.3158432E1,1.4283464E2,3.271782E0,3.639147E0,1.8851347E1,1.0550699E0,4.795387E0,1.601392E1,2.2967031E1,3.2677507E0,4.16619E1,1.3900993E0,1.1720932E1,6.6521482E0,1.2233928E2,7.133609E0,8.091197E0,2.0787306E1,4.7984627E1,2.1662508E2,2.7875101E1,1.7490956E2,1.0656555E0,6.741939E0,1.1876578E0,1.2511858E1,5.470095E0,2.77334E0,2.716161E1,1.2700399E0,1.5386736E0,7.269885E0,3.1842716E0,1.2065217E1,1.703581E0,1.2870871E1,1.048268E2,8.877178E0,8.1102196E1,1.1371608E1,4.1085773E1,4.7739417E2,2.9727375E3,9.877563E1,6.465604E1,9.683738E1,8.147964E1,6.3746986E1,1.4850847E0,3.0005222E1,5.9409943E1,1.3258331E1,1.514429E0,4.5931835E1,1.889533E1,4.7975613E1,1.2226133E0,1.2595333E0,1.837275E2,5.2349005E0,1.7181024E2,1.0475224E0,1.6059109E1,1.0696938E1,6.464238E1,2.0302039E2,7.52577E1,1.3887918E1,2.7106634E1,1.9483733E2,4.8806164E1,3.7346893E1,3.853102E1,8.549715E0,9.584566E0,1.4800555E0,7.14425E0,6.0141816E0,1.3768033E2,5.1543045E0,1.8484607E0,1.4233211E0,2.4464915E0,1.1926557E0,1.0124689E0,1.7838877E1,1.135248E0,3.660139E0,2.9785173E0,1.3035402E1,2.761974E0,2.0205057E1,1.7338198E0,1.5339308E0,1.5215801E0,1.0199352E1,5.4979486E0,1.1541995E0,1.0194141E0,1.2131987E2,1.5223912E0,5.6112175E0,1.8810138E0,1.8906292E1,3.361206E1,1.4372565E1,2.1494125E2,1.6838156E0,2.2794619E1,5.080483E0,1.7359673E2,1.3128295E0,1.1406467E1,1.1053907E0,4.1447706E0,1.3253245E0,1.2037656E0,1.5695744E0,1.2634839E0,6.006401E0,1.8603213E0,1.3239503E0,1.4459879E0,1.0619229E1,1.1061644E1,1.8092272E0,6.0054993E1,4.47718E1,7.806256E0,1.0709224E0,3.930537E1,4.179683E1,6.4423213E0,4.929287E0,1.9765802E1,2.1319971E1,3.2841647E2,1.489777E2,2.9666113E3,6.1261754E0,2.3499336E1,7.527629E1,1.732674E1,4.73293E1,7.969097E1,1.7886674E0,3.0005116E1,3.374187E1,2.5378866E0,2.7467337E1,5.7444714E1,1.9652326E0,5.999244E0,7.259087E0,1.0510972E1,3.542086E1,2.1515427E0,1.6743788E1,1.0452274E1,3.752334E1,2.367599E1,1.6005151E2,3.9491746E0,1.2857257E0,7.947524E0,1.6386272E2,1.5615036E0,1.4497604E1,7.4703574E0,3.22658E0,2.513989E1,3.9502487E1,1.8399045E2,1.902994E1,3.382046E1,4.1437237E1,1.187532E1,2.0125973E0,3.3030093E0,2.3803625E1,1.938084E2,1.0289309E0,1.2331974E1,3.647419E1,3.8210087E0,3.3525887E1,5.790523E0,3.2740498E1,5.327516E0,3.2221992E0,1.1010983E0,8.483468E0,5.960553E0,1.1836969E0,1.3587585E2,1.8044834E0,3.129078E0,2.0252268E0,1.5815515E1,2.0233626E0,1.8952805E0,1.0832369E0,1.1976455E1,1.0589473E0,1.0271616E0,1.7348126E0,2.492395E0,3.0055537E0,1.171259E0,4.4399586E0,1.754732E1,1.3589733E0,3.2578274E1,1.0337863E0,7.9594774E0,6.4130874E0,2.1230804E1,1.5638138E0,4.0727706E0,1.0077122E0,1.1196423E0,1.7247708E2,9.693216E0,1.3684278E0,3.232781E1,2.7727186E1,1.0181743E0,4.3753628E1,1.7191454E1,2.2113914E1,2.474581E0,3.9322247E1,5.297411E0,1.14491E0,2.9876802E0,1.9416068E0,4.215523E0,1.5550279E1,1.0545438E1,1.0774533E1,2.5347723E2,7.493922E1,2.6236353E1,1.22741356E2,1.7396436E2,2.792647E3,2.9690192E0,3.157156E0,2.913067E0,2.058627E1,1.9238646E1,5.6037643E1,1.2878517E1,4.4482217E0,4.1905148E1,5.424154E0,2.004307E0,7.768666E1,2.1671654E1,8.333462E0,7.1491485E0,2.6592722E1,1.1742578E0,1.3636289E0,2.64489E1,1.0184349E0,4.283757E1,1.4607141E1,1.6534404E0,4.3458037E0,5.2798376E0,1.9792496E0,9.427341E0,1.0836307E0,3.4412663E1,1.008199E0,1.0714047E0,1.0801381E0,1.5645231E1,1.098556E0,2.704525E0,7.747749E0,2.150044E1,1.60229E1,1.7347881E1,6.3281074E0,1.5750566E2,2.5458398E0,2.9481273E0,1.0010474E0,6.680518E0,1.2670057E0,1.3479547E1,1.018058E0,4.956798E0,2.5135593E0,2.3813622E1,1.3262691E0,1.4670712E2,3.728332E1,2.7733286E1,6.0871754E0,4.006892E1,1.3683163E0,1.067839E1,1.1969312E0,1.0048524E0,1.0077449E0,1.0254323E0,2.277577E0,1.787285E1,5.9307756E0,6.875513E1,1.2505327E2,1.7028183E0,1.0629155E1,1.865203E1,1.7822159E1,2.6927257E0,1.128283E0,2.016212E0,3.7743108E0,5.3170376E0,2.742346E1,3.729701E0,1.597815E0,1.5777215E0,1.6444777E0,1.167581E0,1.3470827E2,1.0210584E0,1.0041683E0,1.0085057E0,1.0148568E0,1.1750313E0,1.0801423E1,1.1681119E0,1.324283E0,1.1485912E0,1.6398727E1,3.0772232E1,1.8060431E0,1.5776962E0,6.3817816E0,1.0930716E0,5.320016E0,1.3460673E1,7.770132E0,1.2341509E1,1.9986298E1,2.485527E1,2.8719153E0,3.8998375E1,4.7552533E0,3.2563906E0,1.3935063E1,1.8881174E1,3.232741E0,1.1593548E0,1.3152262E0,3.2236607E1,7.0856423E0,1.2632041E0,1.7244761E0,1.6649089E0,2.5506139E0,1.4226769E1,1.3235096E0,9.227162E0,1.3182747E0,1.062496E0,9.712037E0,7.3720045E0,2.4610524E2,1.3911151E1,6.102807E1,5.0852633E0,2.115109E1,1.0775778E2,1.4983574E1,1.565793E2,1.7385042E1,2.7916304E3,1.0165968E0,1.9177617E0,1.0512575E0,1.0476965E0,2.1094594E0,2.4122028E0,1.8174067E1,1.4186532E1,5.052114E0,1.0408963E0,5.4996746E1,1.31503E0,1.1563488E1,2.8805213E0,1.5677004E0,3.0295093E0,2.3946445E0,6.676555E0,7.101011E1,1.2093246E0,2.046233E1,3.1459403E0,5.187522E0,2.1189508E0,5.0301976E0,2.3395445E1,3.1972783E0,1.281539E0,4.155603E1,3.4123142E0,1.1194826E1,7.3776164E0,2.049725E0,4.509527E0,2.9903135E1,1.6284149E0,1.0761102E0,1.1200155E0,6.627733E0,1.08026285E1,1.0697812E1,1.0126312E0,1.5010267E1,1.6339216E1,1.0086651E0,2.9440598E0,3.3840477E0,1.516305E0,1.0295348E0,1.0530196E0,5.6274986E0,3.9120104E0,1.0447876E0,1.4628295E0,1.0507298E0,1.6652037E1,7.161584E0,1.3579733E2,1.09098015E1,2.992712E1,7.3562007E0,1.6121332E1,1.1611955E1,1.1397716E0,4.9474034E0,3.6082943E1,3.9859788E0,1.6778254E1,1.0945966E0,3.3096693E0,2.6211061E0,1.254489E1,1.1250838E2,8.498624E0,1.0153406E1,4.6560297E0,1.3166128E1,1.0040174E0,1.0121948E0,1.0209752E0,2.7533357E0,2.2215037E0,3.0955336E0,1.8708582E0,2.55526E1,1.5355467E1,1.0432608E0,2.9747944E1,1.0242891E0,1.0196172E0,4.300399E0,5.8172765E0,1.9528556E0],"tree_param":{"num_deleted":"0","num_feature":"10","num_nodes":"563","size_leaf_vector":"0"}},{"base_weights":[-3.5243315E-1,7.578679E-1,-1.7925057E0,1.3311402E0,-9.4715685E-1,-7.3357904E-1,-1.8500915E0,1.5812483E0,-2.3996715E-2,-1.303948E0,9.825766E-1,6.042899E-1,-1.5257593E0,-1.8645031E0,-7.38944E-1,-1.1258676E0,1.6438252E0,-9.346388E-1,1.1986724E0,-8.5198617E-1,-1.6838776E0,1.253521E0,-1.1473405E0,-4.501058E-1,1.7129755E0,-1.6452539E0,1.2241409E0,-1.5069635E0,-1.8894675E0,-1.5783736E0,3.2682678E-1,2.3525694E-1,-1.639416E0,1.2272335E-1,1.7312093E0,-1.3728217E0,3.5629758E-1,3.6842078E-1,1.6904888E0,-1.0481695E0,2.9960504E-1,-1.4190625E0,-1.8427141E0,1.0983591E-1,1.5433792E0,8.7682255E-2,-1.5601612E0,7.2999036E-1,-1.3788881E0,-2.5768715E-1,1.7691369E0,-6.0442936E-1,-1.7873055E0,1.4697822E0,-9.46802E-2,1.7214012E-1,-1.6902872E0,-1.7417827E0,-1.8966241E0,-4.3259677E-1,-1.6949569E0,-1.3121191E0,1.246947E0,-1.2152258E0,1.0963697E0,-9.662014E-1,-1.817571E0,8.2582825E-1,-7.412729E-1,1.404556E0,1.829324E0,-1.7732921E0,-9.187198E-1,-1.5535992E0,1.1934904E0,1.1866568E0,-2.2084607E-1,-6.027199E-1,1.723686E0,-1.5296904E0,-7.2692186E-1,-9.976051E-1,9.196461E-1,-1.5672699E0,-9.505348E-1,8.0434555E-1,-7.295866E-1,2.1179456E-1,1.701772E0,-8.4783703E-1,9.3033284E-1,-1.610434E0,-3.1612763E-1,-8.589759E-1,1.2285178E0,-1.5908015E0,1.3295363E-1,1.8089671E0,3.1950018E-1,-1.2597722E0,5.6295663E-1,-1.8167315E0,-6.417744E-1,-1.6595005E0,9.2827666E-1,-1.0343425E0,-1.8391787E0,-9.0327334E-1,-1.8696218E0,6.4353526E-1,-9.41575E-1,-1.7450739E0,-2.8220975E-1,-1.221678E-1,-1.4964556E0,1.6033468E0,-5.5216515E-1,1.09751835E-1,-1.4753662E0,-1.953526E-1,1.4264458E0,8.6150146E-1,-1.2530198E0,1.0128596E0,-1.2620994E0,-9.806495E-1,9.067649E-1,1.5816451E0,6.4480114E-1,1.8474706E0,1.2648124E0,-1.5916551E0,-1.8770881E0,-1.2711587E0,7.2440434E-1,8.4511435E-1,-1.695977E0,1.4524705E0,1.3272109E-2,-1.1239855E0,1.2852284E0,-1.4096406E0,2.7513406E-1,1.2924317E-1,-1.0561595E0,1.7536404E0,5.6074214E-1,-1.5497925E0,3.1438759E-3,-5.762631E-1,-1.6378115E0,-1.4200834E0,-1.8255003E-1,1.2023003E0,-1.0006251E0,-9.718422E-1,-1.6185225E0,-2.144315E-1,-1.4434053E0,6.3323334E-2,1.2652934E0,6.860625E-1,-1.0473179E0,-9.0817237E-1,1.6171545E0,1.7416328E0,5.232969E-1,-1.2566276E0,-1.7791798E-2,1.302323E0,-7.8199364E-2,-4.569166E-1,-1.6482315E0,6.281167E-1,-1.3564199E0,-5.6655582E-2,1.5055827E0,-6.260964E-1,-1.6870441E0,-8.090667E-1,1.097001E0,1.0376465E0,-1.6650348E0,9.233015E-1,-7.849228E-1,-1.8453758E0,-1.0572969E0,-1.2743095E0,8.378324E-1,-1.1758082E0,1.186343E0,-1.5165677E0,6.934938E-2,-1.8459591E0,-6.154896E-1,-1.3810561E0,1.1137004E0,-1.8769826E0,-5.067909E-1,-1.6035291E0,-3.8318026E-1,2.2145747E-1,1.7030857E0,-3.8936774E-3,-9.9427265E-1,-3.033165E-1,-1.6436858E0,6.138036E-1,-1.1074612E0,1.3149232E-1,1.5765144E0,-1.4463397E0,2.1896826E-2,5.62973E-1,1.591373E0,-1.6030416E0,7.953325E-1,-3.4252992E-1,-1.5593104E0,1.4243374E0,1.0471599E-1,1.6542385E0,-8.529811E-1,-1.5100493E0,9.000659E-1,6.0858625E-1,1.8523237E0,1.6925254E0,-2.389214E-1,-1.1184946E0,-1.7382332E0,-1.5881395E0,-5.7395184E-1,-3.0085376E-1,1.2372793E0,-4.9865207E-1,-1.7853546E0,1.5494337E0,-9.46175E-1,-1.0732602E0,9.32533E-1,5.70722E-1,1.4759338E0,-7.2839014E-2,-1.5655583E0,-6.8240875E-1,5.490862E-1,1.2600073E0,1.8184168E0,1.1914037E0,-1.0496479E0,-9.0052646E-1,-1.5741177E0,5.101036E-1,-5.3289276E-1,-8.277448E-1,1.4791943E-1,-9.8567796E-1,-1.7092017E0,-5.8779055E-1,-1.6205213E0,4.0167502E-1,-1.2584577E0,1.3731415E0,-9.5092404E-1,-1.3463027E0,7.434771E-1,-1.4981093E0,7.970614E-1,-1.7411574E0,-1.3944532E0,-1.5312605E0,2.6315185E-1,-1.9700918E-1,-1.6007941E0,7.2713774E-1,-6.512589E-1,-2.7571967E-2,1.4505477E0,-3.6430848E-1,1.1130409E0,-1.3660738E0,4.0755904E-1,-1.3054075E0,9.7987545E-1,1.0152615E0,1.7899512E0,-5.7092535E-1,1.3023438E0,-1.7223879E0,-6.912049E-1,6.392465E-1,-9.9677056E-1,1.602003E0,1.6761234E-1,2.9451966E-1,-1.0797648E0,1.820384E-1,1.3393778E0,-5.3527856E-1,-1.8522582E0,-1.4315715E0,3.6807132E-1,1.3744586E0,-7.939187E-1,-1.6032838E0,-1.09185606E-1,1.0571847E0,-1.0159601E0,-1.5351882E0,4.9202394E-1,1.3605123E0,-6.3990854E-2,-5.028636E-1,-1.8829656E0,1.6394253E0,4.630303E-1,-1.5916337E0,-1.8068972E-1,-2.346686E-1,1.4698405E0,-4.190179E-1,1.6465708E0,-1.0342536E0,2.163997E-1,-3.076633E-1,-1.6285846E0,1.5731997E0,3.2380274E-1,7.276253E-1,-7.753038E-1,9.9833244E-1,1.7647386E0,-1.3496987E0,1.1866461E0,-1.6527147E0,-7.232854E-1,1.0403142E0,-6.504836E-1,1.3050474E0,-1.2972808E0,1.7127955E0,1.8879571E0,-5.6452113E-1,1.7935061E0,6.8577546E-1,-1.6019604E0,-1.5430225E0,-2.7111602E-1,-1.8037226E0,-1.0308455E0,-1.6237415E0,9.650795E-3,-9.87124E-1,9.621962E-1,-9.203887E-1,1.10558696E-1,1.4906901E0,-1.3849796E-1,-1.0513989E0,2.2059144E-1,-1.8238144E0,-3.7889457E-1,1.6334182E0,5.28058E-1,3.331216E-4,-1.4057431E0,1.4282557E0,-4.2428172E-1,7.5875384E-1,-6.4387757E-1,1.503118E0,2.6230296E-1,-6.287944E-1,5.157776E-1,4.202972E-1,-1.0792366E0,5.891802E-2,1.1625648E0,1.6516981E0,1.08300455E-1,1.8318185E0,2.3564899E-1,1.4391948E0,1.076187E-1,-1.3334451E0,1.0870255E0,-1.4421612E0,-1.6929677E0,-1.0113652E0,2.2072583E-2,-1.8095958E-1,1.1264471E0,7.103373E-2,-1.2787415E0,-6.37232E-1,-1.7398051E0,4.8273486E-1,-1.2408429E0,9.81172E-1,-6.8347806E-1,5.2482706E-1,1.733036E0,-1.2017511E0,-1.9572489E-1,-1.5282115E0,-1.13387935E-1,-1.5716788E0,-2.7719676E-1,1.1896342E0,-1.2315465E-1,-3.5835433E-1,-1.4904159E0,-7.853672E-1,6.81272E-1,-8.1851983E-1,6.109604E-1,-1.6864609E0,-8.198769E-1,-5.4004115E-1,1.3280975E0,-9.2060727E-1,-2.3002716E-2,1.5943619E0,6.135787E-4,-1.5448192E0,-2.5626728E-1,9.686017E-1,-2.063229E-1,-1.5529943E0,-1.2844121E-1,-3.9889967E-1,1.5622385E0,9.791389E-1,1.8286283E0,1.2213784E-1,-9.192171E-1,-9.7933775E-1,-6.1016217E-2,5.0034225E-1,1.6647639E0,-4.100013E-1,6.560221E-1,-3.382199E-1,1.5071602E0,-1.6813102E0,-1.686157E-1,6.285059E-1,-8.236648E-1,-3.7413436E-1,1.4292359E0,-1.4065713E-1,-1.1590072E0,-1.7786901E0,-9.5889807E-1,5.3870344E-1,-7.440011E-1,1.5777788E0,3.7056062E-1,1.7476435E0,6.592238E-1,2.4655648E-1,-1.3303494E0,5.60476E-1,-1.4523296E0,-1.0453826E0,5.1309156E-1,-4.9751684E-1,-1.689386E0,1.0193796E-1,9.804102E-1,-4.2676616E-1,1.5644523E0,1.821317E0,1.4583937E0,-2.4485093E-1,-1.6086782E0,1.3518733E0,3.3022752E-1,-1.7190005E0,-4.2358038E-1,-9.8880744E-1,8.114638E-2,1.3248131E0,2.7242067E-1,6.2020844E-1,-1.0907629E0,-3.2601145E-1,1.576745E0,1.113728E0,1.7464529E0,1.8893273E0,1.5854543E-1,3.5700032E-1,-1.1756905E0,1.8242955E0,7.830374E-1,1.1525657E0,-2.653141E-1,-1.043339E0,8.63216E-1,-5.092238E-1,-1.3465414E0,-3.2749653E-1,-1.6526486E0,-1.2055361E0,1.05965E0,-9.949735E-1,1.4852448E0,-2.4436103E-1,-1.1881979E0,8.3117795E-1,-3.747572E-1,4.328696E-1,1.6702302E0,5.8880836E-1,-7.539332E-1,1.1094598E0,1.7431083E0,1.2631669E0,-4.7603983E-1,1.34427E0,2.6090786E-1,8.155058E-1,1.5771456E0,7.831218E-1,-2.4139081E-1,1.7969376E-1,-1.2852972E0,5.658925E-1,-4.6027413E-1,-3.9990345E-1,1.2864885E0,1.705135E0,3.6894134E-1,-1.0553421E0,1.1305499E0,-3.8803467E-1,-1.4583808E0,-1.4534384E0,-2.2185023E-1,-1.7037872E0,-3.95274E-1,-8.082835E-1,-1.5346779E0,-1.5541735E0,4.1600466E-1,4.5134282E-1,-8.72287E-1,-3.3612862E-1,1.313337E0,1.4581488E0,-2.4035533E-1,-9.773307E-1,-1.1497235E-1,1.3358281E0,-6.150284E-1,1.7630845E0,6.366845E-1,-1.375222E0,9.172766E-1,3.9510325E-1,-1.5384735E0,-1.1490244E0,1.4712557E-1,8.903626E-1,-4.4339585E-1,-2.131479E-1,-1.016509E0,-1.7160628E0,-4.067422E-1,3.984772E-1,-1.2116895E0,-2.5013068E-1,-1.131469E0,-1.6154554E0,-3.902583E-1,-6.6067845E-1,2.985239E-1,2.451722E-1,-8.6588675E-1,-7.2967386E-1,1.3348435E0,1.8394483E0,5.373271E-1,4.3893436E-1,1.7083948E0,-1.7102872E0,-4.1066134E-1,3.9629713E-1,1.5806495E0,-1.4336153E0,4.6064726E-1],"categories":[],"categories_nodes":[],"categories_segments":[],"categories_sizes":[],"default_left":[1,1,1,1,1,1,1,1,1,1,1,1,1,1,1,1,1,1,1,1,1,1,1,1,1,1,1,1,1,1,1,1,1,1,1,1,1,1,1,1,1,1,0,1,1,1,1,1,1,0,1,1,1,0,0,1,1,1,0,1,1,1,1,1,1,1,0,1,1,1,1,1,1,1,1,1,1,1,1,1,1,1,1,1,1,1,1,1,1,1,1,1,0,1,1,1,1,0,0,1,1,1,1,0,1,1,1,1,1,0,0,0,0,0,1,1,1,0,1,1,1,0,1,1,1,1,1,1,1,1,1,1,0,1,1,0,1,1,1,0,1,1,1,0,0,1,1,1,1,1,1,1,1,1,1,1,1,1,1,1,1,1,1,1,0,1,1,0,0,0,0,0,1,0,0,1,1,1,0,0,0,0,0,1,0,1,1,0,0,0,1,1,1,0,0,1,1,1,0,0,0,0,0,0,0,0,0,0,0,0,1,1,0,1,1,0,0,1,1,1,1,1,1,1,1,1,1,1,1,1,1,1,1,1,1,1,1,1,0,1,1,1,1,1,0,1,1,1,1,1,0,1,1,0,0,1,1,1,1,1,0,1,0,1,1,1,0,1,1,0,1,0,1,1,1,1,1,0,1,0,0,1,1,1,0,1,1,1,0,0,1,0,0,1,0,0,0,1,0,0,0,0,0,1,0,1,1,1,1,1,0,0,0,0,0,0,0,0,0,1,1,0,1,1,1,1,1,0,0,1,0,1,1,1,1,1,1,1,1,1,0,1,1,1,1,1,0,0,1,0,1,1,0,1,1,1,1,1,1,0,0,0,0,1,1,0,0,0,0,1,0,1,0,0,0,1,1,1,1,1,1,0,0,0,0,1,0,1,1,1,1,1,1,0,0,0,0,0,0,1,1,1,1,0,0,0,0,0,0,0,0,1,1,1,1,1,0,1,1,0,0,1,0,0,0,1,1,0,0,0,0,1,0,1,1,0,0,0,0,0,0,0,0,0,1,1,0,0,0,0,1,0,0,0,1,0,0,0,0,0,0,0,0,0,0,0,0,0,0,0,0,0,0,0,0,0,0,0,0,0,0,0,0,0,0,0,0,0,0,0,0,0,0,0,0,0,0,0,0,0,0,0,0,0,0,0,0,0,0,0,0,0,0,0,0,0,0,0,0,0,0,0,0,0,0,0,0,0,0,0,0,0,0,0,0,0,0,0,0,0,0,0,0,0,0,0,0,0,0,0,0,0,0,0,0,0,0,0,0,0,0,0,0,0,0,0,0,0,0,0,0,0,0,0,0,0,0,0,0,0,0,0,0,0,0,0,0,0,0,0,0,0,0],"id":1,"left_children":[1,3,5,7,9,11,13,15,17,19,21,23,25,27,29,31,33,35,37,39,41,43,45,47,49,51,53,55,57,59,61,63,65,67,69,71,73,75,77,79,81,83,-1,85,87,89,91,93,95,-1,97,99,101,-1,-1,103,105,107,-1,109,111,113,115,117,119,121,-1,123,125,127,129,131,133,135,137,139,141,143,145,147,149,151,153,155,157,159,161,163,165,167,169,171,-1,173,175,177,179,-1,-1,181,183,185,187,-1,189,191,193,195,197,-1,-1,-1,-1,-1,199,201,203,-1,205,207,209,-1,211,213,215,217,219,221,223,225,227,229,-1,231,233,-1,235,237,239,-1,241,243,245,-1,-1,247,249,251,253,255,257,259,261,263,265,267,269,271,273,275,277,279,281,283,-1,285,287,-1,-1,-1,-1,-1,289,-1,-1,291,293,295,-1,-1,-1,-1,-1,297,-1,299,301,-1,-1,-1,303,305,307,-1,-1,309,311,313,-1,-1,-1,-1,-1,-1,-1,-1,-1,-1,-1,-1,315,317,-1,319,321,-1,-1,323,325,327,329,331,333,335,337,339,341,343,345,347,349,351,353,355,357,359,361,363,-1,365,367,369,371,373,-1,375,377,379,381,383,-1,385,387,-1,-1,389,391,393,395,397,-1,399,-1,401,403,405,-1,407,409,-1,411,-1,413,415,417,419,421,-1,423,-1,-1,425,427,429,-1,431,433,435,-1,-1,437,-1,-1,439,-1,-1,-1,441,-1,-1,-1,-1,-1,443,-1,445,447,449,451,453,-1,-1,-1,-1,-1,-1,-1,-1,-1,455,457,-1,459,461,463,465,467,-1,-1,469,-1,471,473,475,477,479,481,483,485,487,-1,489,491,493,495,497,-1,-1,499,-1,501,503,-1,505,507,509,511,513,515,-1,-1,-1,-1,517,519,-1,-1,-1,-1,521,-1,523,-1,-1,-1,525,527,529,531,533,535,-1,-1,-1,-1,537,-1,539,541,543,545,547,549,-1,-1,-1,-1,-1,-1,551,553,555,557,-1,-1,-1,-1,-1,-1,-1,-1,559,561,563,565,567,-1,569,571,-1,-1,573,-1,-1,-1,575,577,-1,-1,-1,-1,579,-1,581,583,-1,-1,-1,-1,-1,-1,-1,-1,-1,585,587,-1,-1,-1,-1,589,-1,-1,-1,591,-1,-1,-1,-1,-1,-1,-1,-1,-1,-1,-1,-1,-1,-1,-1,-1,-1,-1,-1,-1,-1,-1,-1,-1,-1,-1,-1,-1,-1,-1,-1,-1,-1,-1,-1,-1,-1,-1,-1,-1,-1,-1,-1,-1,-1,-1,-1,-1,-1,-1,-1,-1,-1,-1,-1,-1,-1,-1,-1,-1,-1,-1,-1,-1,-1,-1,-1,-1,-1,-1,-1,-1,-1,-1,-1,-1,-1,-1,-1,-1,-1,-1,-1,-1,-1,-1,-1,-1,-1,-1,-1,-1,-1,-1,-1,-1,-1,-1,-1,-1,-1,-1,-1,-1,-1,-1,-1,-1,-1,-1,-1,-1,-1,-1,-1,-1,-1,-1,-1,-1,-1,-1,-1,-1,-1,-1,-1,-1,-1,-1,-1,-1,-1,-1,-1,-1,-1,-1],"loss_changes":[1.7370906E4,5.997589E3,2.8705273E2,1.5562334E3,1.064494E3,2.612118E2,7.044336E1,6.584756E2,7.9873663E2,2.2242627E2,1.408233E2,1.0838249E2,5.2795685E1,3.6666016E1,5.337362E1,6.2015594E1,5.0341504E2,2.3305524E2,1.24421906E2,1.3528616E2,2.7134033E1,7.1022095E1,1.4300056E1,5.3589188E1,5.4451447E0,2.0880157E1,2.4098177E0,9.074927E1,1.0654297E0,3.7045746E0,4.2142155E1,3.2592224E1,5.9367065E0,1.26310905E2,1.12265625E2,5.422827E1,1.6971484E2,5.5806423E1,1.5658142E1,7.7884705E1,7.148837E1,1.7225403E1,0E0,2.6529064E1,3.5759125E1,7.021352E0,7.9634094E-1,1.8310183E1,8.923252E0,0E0,1.9601593E0,1.5511215E1,3.2223206E0,0E0,0E0,4.2859398E1,2.3982178E1,2.010608E1,0E0,3.0219102E0,1.6182709E0,2.0424938E0,1.2244425E1,3.538907E0,7.1985455E0,9.234651E0,0E0,4.601261E1,3.772154E1,1.1091162E2,2.5855469E1,6.918335E-2,8.5477806E1,1.2508301E1,2.2462532E1,1.2465218E1,4.0371536E1,1.2919168E0,5.619751E0,6.2740784E0,4.1355362E1,9.676683E0,3.3706886E1,4.6283875E0,2.4110424E1,8.400087E0,1.0016634E1,3.1920418E1,6.2713013E0,1.4264605E0,1.8412366E0,1.109848E-1,0E0,5.135519E0,6.1357613E0,1.1651917E0,4.761515E0,0E0,0E0,1.3552656E1,4.439143E0,7.9800415E-1,5.566121E0,0E0,1.3209244E1,2.7416687E1,6.453247E-1,2.9322987E1,8.0908203E-1,0E0,0E0,0E0,0E0,0E0,4.220562E-1,1.6960983E0,8.8643193E-1,0E0,1.1307278E0,3.766779E0,2.3281803E0,0E0,3.4462395E0,2.6611816E1,8.19355E0,2.9746063E1,4.982024E0,1.2052954E2,8.878849E1,1.4891602E1,5.7571518E1,2.6011658E0,0E0,2.5738907E1,1.4267148E1,0E0,2.4211655E0,1.5492584E1,1.5228821E1,0E0,5.5446014E0,4.0809975E0,1.3146091E1,0E0,0E0,3.6027222E0,7.577662E0,1.7542725E0,1.2587298E0,4.8570724E1,3.2657623E-1,2.193184E0,7.4186196E0,2.0675499E1,5.96249E0,1.8516666E1,2.6721497E0,1.8117823E1,7.558975E0,5.489172E0,3.6932964E0,2.3758605E0,8.569649E0,9.834564E0,0E0,3.358612E0,6.2266827E0,0E0,0E0,0E0,0E0,0E0,1.4413834E-1,0E0,0E0,3.239238E0,1.5394859E0,1.8886304E0,0E0,0E0,0E0,0E0,0E0,1.7590175E0,0E0,9.448242E-2,4.226605E0,0E0,0E0,0E0,8.496311E0,4.1886826E0,1.882773E1,0E0,0E0,7.6139946E0,1.8529806E0,4.8516846E-1,0E0,0E0,0E0,0E0,0E0,0E0,0E0,0E0,0E0,0E0,0E0,0E0,5.3560257E-2,1.9273529E0,0E0,4.4471474E1,5.759964E0,0E0,0E0,1.5796929E1,3.2033844E0,7.083845E-1,3.8133662E0,4.5697388E1,2.2040428E1,7.361107E-1,3.1716743E1,1.7468824E1,9.958008E0,1.681279E1,2.7011564E1,6.166811E0,3.7506104E-1,4.699173E0,2.5865181E1,2.5525904E0,6.415428E0,1.6380924E0,8.4555817E-1,4.142212E0,0E0,2.4967833E0,6.1559973E0,3.1162064E0,8.0555725E-1,1.3554899E0,0E0,5.3879504E0,1.1481622E1,1.0935753E1,2.9767456E0,1.1731219E0,0E0,9.700577E0,5.733032E-1,0E0,0E0,3.085785E1,2.2543657E1,2.1425085E0,1.2409973E-1,4.254601E0,0E0,5.6295295E0,0E0,1.4109489E1,6.099057E-1,1.4469042E0,0E0,8.836975E-1,1.9236641E0,0E0,6.4926147E0,0E0,9.971578E0,3.332686E0,9.92218E-1,5.25136E0,9.297776E-1,0E0,2.784912E0,0E0,0E0,2.4612732E0,1.5346153E0,2.6717606E0,0E0,9.525264E0,2.5047607E0,9.258038E-1,0E0,0E0,4.8910487E-1,0E0,0E0,6.2828064E-2,0E0,0E0,0E0,1.2488537E0,0E0,0E0,0E0,0E0,0E0,4.718914E0,0E0,3.4786072E0,2.177045E0,5.412197E0,8.88793E-1,1.4087486E0,0E0,0E0,0E0,0E0,0E0,0E0,0E0,0E0,0E0,1.3524939E1,2.8188782E0,0E0,3.3057404E0,7.2205143E0,1.4080338E1,2.6395454E0,1.9275284E0,0E0,0E0,5.305917E-1,0E0,7.869336E1,7.034424E0,4.3819923E0,1.8794107E-1,3.952675E-1,1.0242395E0,2.8319748E1,7.64462E0,4.5922985E0,0E0,9.155762E0,4.686035E0,2.520123E0,6.4341736E-1,6.0548706E0,0E0,0E0,7.3152943E0,0E0,3.7163353E-1,2.4768524E0,0E0,1.5327387E1,1.0513859E1,4.2377257E-1,2.6445448E0,2.1494064E0,2.0934186E0,0E0,0E0,0E0,0E0,1.1371002E0,4.9641213E0,0E0,0E0,0E0,0E0,2.687293E0,0E0,5.1371E-1,0E0,0E0,0E0,1.0782392E0,2.4548092E0,6.157594E0,3.8072414E0,6.263504E-1,9.904045E0,0E0,0E0,0E0,0E0,4.1720676E-1,0E0,1.0240631E0,6.6586304E-1,1.6031265E1,2.305574E1,2.348159E1,5.2523746E0,0E0,0E0,0E0,0E0,0E0,0E0,3.5848107E0,4.4470358E-1,1.5693653E1,1.045227E-3,0E0,0E0,0E0,0E0,0E0,0E0,0E0,0E0,1.0740091E1,6.440155E0,2.407466E0,4.139359E0,2.1670055E-1,0E0,4.7802734E-1,3.0870888E0,0E0,0E0,2.6944685E-1,0E0,0E0,0E0,3.650093E-1,9.144816E-1,0E0,0E0,0E0,0E0,1.4173237E0,0E0,6.0728693E0,8.220215E-1,0E0,0E0,0E0,0E0,0E0,0E0,0E0,0E0,0E0,2.9843903E0,4.671402E-1,0E0,0E0,0E0,0E0,5.4300404E-1,0E0,0E0,0E0,6.564769E0,0E0,0E0,0E0,0E0,0E0,0E0,0E0,0E0,0E0,0E0,0E0,0E0,0E0,0E0,0E0,0E0,0E0,0E0,0E0,0E0,0E0,0E0,0E0,0E0,0E0,0E0,0E0,0E0,0E0,0E0,0E0,0E0,0E0,0E0,0E0,0E0,0E0,0E0,0E0,0E0,0E0,0E0,0E0,0E0,0E0,0E0,0E0,0E0,0E0,0E0,0E0,0E0,0E0,0E0,0E0,0E0,0E0,0E0,0E0,0E0,0E0,0E0,0E0,0E0,0E0,0E0,0E0,0E0,0E0,0E0,0E0,0E0,0E0,0E0,0E0,0E0,0E0,0E0,0E0,0E0,0E0,0E0,0E0,0E0,0E0,0E0,0E0,0E0,0E0,0E0,0E0,0E0,0E0,0E0,0E0,0E0,0E0,0E0,0E0,0E0,0E0,0E0,0E0,0E0,0E0,0E0,0E0,0E0,0E0,0E0,0E0,0E0,0E0,0E0,0E0,0E0,0E0,0E0,0E0,0E0,0E0,0E0,0E0,0E0,0E0,0E0,0E0,0E0,0E0,0E0,0E0,0E0,0E0,0E0,0E0,0E0,0E0,0E0],"parents":[2147483647,0,0,1,1,2,2,3,3,4,4,5,5,6,6,7,7,8,8,9,9,10,10,11,11,12,12,13,13,14,14,15,15,16,16,17,17,18,18,19,19,20,20,21,21,22,22,23,23,24,24,25,25,26,26,27,27,28,28,29,29,30,30,31,31,32,32,33,33,34,34,35,35,36,36,37,37,38,38,39,39,40,40,41,41,43,43,44,44,45,45,46,46,47,47,48,48,50,50,51,51,52,52,55,55,56,56,57,57,59,59,60,60,61,61,62,62,63,63,64,64,65,65,67,67,68,68,69,69,70,70,71,71,72,72,73,73,74,74,75,75,76,76,77,77,78,78,79,79,80,80,81,81,82,82,83,83,84,84,85,85,86,86,87,87,88,88,89,89,90,90,91,91,93,93,94,94,95,95,96,96,99,99,100,100,101,101,102,102,104,104,105,105,106,106,107,107,108,108,114,114,115,115,116,116,118,118,119,119,120,120,122,122,123,123,124,124,125,125,126,126,127,127,128,128,129,129,130,130,131,131,133,133,134,134,136,136,137,137,138,138,140,140,141,141,142,142,145,145,146,146,147,147,148,148,149,149,150,150,151,151,152,152,153,153,154,154,155,155,156,156,157,157,158,158,159,159,160,160,161,161,162,162,163,163,165,165,166,166,172,172,175,175,176,176,177,177,183,183,185,185,186,186,190,190,191,191,192,192,195,195,196,196,197,197,210,210,211,211,213,213,214,214,217,217,218,218,219,219,220,220,221,221,222,222,223,223,224,224,225,225,226,226,227,227,228,228,229,229,230,230,231,231,232,232,233,233,234,234,235,235,236,236,237,237,239,239,240,240,241,241,242,242,243,243,245,245,246,246,247,247,248,248,249,249,251,251,252,252,255,255,256,256,257,257,258,258,259,259,261,261,263,263,264,264,265,265,267,267,268,268,270,270,272,272,273,273,274,274,275,275,276,276,278,278,281,281,282,282,283,283,285,285,286,286,287,287,290,290,293,293,297,297,303,303,305,305,306,306,307,307,308,308,309,309,319,319,320,320,322,322,323,323,324,324,325,325,326,326,329,329,331,331,332,332,333,333,334,334,335,335,336,336,337,337,338,338,339,339,341,341,342,342,343,343,344,344,345,345,348,348,350,350,351,351,353,353,354,354,355,355,356,356,357,357,358,358,363,363,364,364,369,369,371,371,375,375,376,376,377,377,378,378,379,379,380,380,385,385,387,387,388,388,389,389,390,390,391,391,392,392,399,399,400,400,401,401,402,402,411,411,412,412,413,413,414,414,415,415,417,417,418,418,421,421,425,425,426,426,431,431,433,433,434,434,444,444,445,445,450,450,454,454],"right_children":[2,4,6,8,10,12,14,16,18,20,22,24,26,28,30,32,34,36,38,40,42,44,46,48,50,52,54,56,58,60,62,64,66,68,70,72,74,76,78,80,82,84,-1,86,88,90,92,94,96,-1,98,100,102,-1,-1,104,106,108,-1,110,112,114,116,118,120,122,-1,124,126,128,130,132,134,136,138,140,142,144,146,148,150,152,154,156,158,160,162,164,166,168,170,172,-1,174,176,178,180,-1,-1,182,184,186,188,-1,190,192,194,196,198,-1,-1,-1,-1,-1,200,202,204,-1,206,208,210,-1,212,214,216,218,220,222,224,226,228,230,-1,232,234,-1,236,238,240,-1,242,244,246,-1,-1,248,250,252,254,256,258,260,262,264,266,268,270,272,274,276,278,280,282,284,-1,286,288,-1,-1,-1,-1,-1,290,-1,-1,292,294,296,-1,-1,-1,-1,-1,298,-1,300,302,-1,-1,-1,304,306,308,-1,-1,310,312,314,-1,-1,-1,-1,-1,-1,-1,-1,-1,-1,-1,-1,316,318,-1,320,322,-1,-1,324,326,328,330,332,334,336,338,340,342,344,346,348,350,352,354,356,358,360,362,364,-1,366,368,370,372,374,-1,376,378,380,382,384,-1,386,388,-1,-1,390,392,394,396,398,-1,400,-1,402,404,406,-1,408,410,-1,412,-1,414,416,418,420,422,-1,424,-1,-1,426,428,430,-1,432,434,436,-1,-1,438,-1,-1,440,-1,-1,-1,442,-1,-1,-1,-1,-1,444,-1,446,448,450,452,454,-1,-1,-1,-1,-1,-1,-1,-1,-1,456,458,-1,460,462,464,466,468,-1,-1,470,-1,472,474,476,478,480,482,484,486,488,-1,490,492,494,496,498,-1,-1,500,-1,502,504,-1,506,508,510,512,514,516,-1,-1,-1,-1,518,520,-1,-1,-1,-1,522,-1,524,-1,-1,-1,526,528,530,532,534,536,-1,-1,-1,-1,538,-1,540,542,544,546,548,550,-1,-1,-1,-1,-1,-1,552,554,556,558,-1,-1,-1,-1,-1,-1,-1,-1,560,562,564,566,568,-1,570,572,-1,-1,574,-1,-1,-1,576,578,-1,-1,-1,-1,580,-1,582,584,-1,-1,-1,-1,-1,-1,-1,-1,-1,586,588,-1,-1,-1,-1,590,-1,-1,-1,592,-1,-1,-1,-1,-1,-1,-1,-1,-1,-1,-1,-1,-1,-1,-1,-1,-1,-1,-1,-1,-1,-1,-1,-1,-1,-1,-1,-1,-1,-1,-1,-1,-1,-1,-1,-1,-1,-1,-1,-1,-1,-1,-1,-1,-1,-1,-1,-1,-1,-1,-1,-1,-1,-1,-1,-1,-1,-1,-1,-1,-1,-1,-1,-1,-1,-1,-1,-1,-1,-1,-1,-1,-1,-1,-1,-1,-1,-1,-1,-1,-1,-1,-1,-1,-1,-1,-1,-1,-1,-1,-1,-1,-1,-1,-1,-1,-1,-1,-1,-1,-1,-1,-1,-1,-1,-1,-1,-1,-1,-1,-1,-1,-1,-1,-1,-1,-1,-1,-1,-1,-1,-1,-1,-1,-1,-1,-1,-1,-1,-1,-1,-1,-1,-1,-1,-1,-1,-1],"split_conditions":[7.5792446E0,1.7218245E0,5.9480333E-1,1.375001E0,3.3030454E-2,2.53686E1,7.180834E-2,1.8039343E-1,3.27594E0,2.7245588E0,3.238656E0,1.945178E0,6.224905E-2,1.5633608E1,1.0708444E0,1.5771808E-1,-2.8793769E-2,2.5948595E-2,7.2948867E-3,1.5865507E-2,3.1204774E0,7.233407E0,3.7001818E-1,6.3542426E-1,-7.2311774E-2,3.1383625E-1,4.421026E0,9.903779E-1,9.008765E-1,1.0597782E1,3.2314382E0,8.162021E-2,3.7025362E-1,8.7619716E-1,6.5061185E-3,1.326133E0,5.652174E-1,1.1252911E0,-8.90146E-1,5.655977E0,4.941901E0,8.861017E-3,-9.2135705E-2,4.651261E-1,-2.1993306E-1,1.7292183E1,6.488893E-1,3.0243982E-2,3.8119197E-2,-1.2884358E-2,1.37241E1,1.4981718E0,3.4106325E-2,7.3489115E-2,-4.73401E-3,2.002432E0,1.7664423E0,2.440005E-1,-9.4831206E-2,2.145361E0,3.94062E-1,4.1681254E-1,1.587453E0,7.591406E-1,4.3696945E1,1.993803E-1,-9.087855E-2,1.6108402E1,2.7869243E-2,1.015528E0,7.2073917E0,1.5447336E-1,3.9372783E0,9.685287E-2,6.455593E-1,-6.2156282E-2,4.251815E0,1.3198265E0,9.5604026E-1,1.0859424E0,2.3594284E-1,9.505983E0,4.498589E-1,3.5454486E-2,7.779341E-1,2.3490876E-2,2.6405776E-1,2.3219313E-1,8.887372E-1,-8.8205456E-4,3.5731773E0,3.5950713E-2,-1.5806383E-2,1.8284637E-1,4.6554985E-3,8.096597E-1,2.2591076E1,9.044836E-2,1.597501E-2,7.482189E-2,3.007945E2,3.8539262E0,1.4756572E0,-8.297502E-2,-5.2329265E-2,5.786758E0,1.5542847E1,5.3576193E0,4.2555057E-2,3.2176763E-2,-4.707875E-2,-8.72537E-2,-1.4110488E-2,-6.10839E-3,2.8536081E0,-1.5696904E-2,4.5973E1,5.487592E-3,1.7745832E-2,5.4856677E0,1.0033546E-3,4.3075074E-2,1.3023756E2,2.2509978E0,4.612095E-2,9.74597E-1,1.2567661E0,2.7537699E0,2.905558E0,2.8053072E-1,2.028772E1,1.8132222E0,-9.3854405E-2,2.3275476E0,3.2749027E-3,4.225572E-2,2.8606522E-1,1.0187626E1,2.2011044E0,-5.619928E-2,5.453642E0,4.9826305E-2,-3.4536324E-2,6.462158E-3,-5.2807976E-2,1.1295651E-2,1.432456E0,5.3757755E-3,1.7885811E0,5.229244E-3,1.9759252E0,7.295986E-1,2.2358446E0,4.2226615E0,1.3118777E2,8.070541E0,2.5037963E-2,-3.1719036E-2,3.708414E-2,2.39447E0,6.630579E-3,5.280268E0,1.5411812E-1,7.492606E1,8.0857724E-2,2.8227073E-1,5.1732655E1,-6.283138E-2,-8.8958995E-4,6.511615E-2,-3.9099683E-3,-2.284583E-2,2.7373905E0,3.1405836E-2,-6.7820996E-2,1.9337225E0,7.055323E0,6.9201756E-1,-8.435221E-2,-4.0453337E-2,5.485005E-2,5.1882327E-2,-8.325174E-2,2.8309329E0,-3.924614E-2,5.7876237E-2,9.538508E-1,-6.371548E-2,4.189162E-2,-5.879041E-2,9.894092E-1,3.1804226E-2,8.218336E-1,-9.229796E-2,-3.077448E-2,2.7857862E-2,3.3286107E0,1.8249413E1,-2.5339544E-2,-8.017646E-2,-1.9159013E-2,1.1072873E-2,8.515429E-2,-1.9468387E-4,-4.9713634E-2,-1.5165825E-2,-8.218429E-2,3.0690182E-2,-5.537306E-2,6.574616E-3,1.6890599E2,3.5018735E-2,1.0948413E-3,1.8136064E-2,1.3880306E-1,-8.015209E-2,3.9766625E-2,4.1275406E0,1.9443853E0,2.8099403E0,6.892175E-1,1.428469E0,7.089E1,4.2843455E-3,2.6623106E0,2.61176E-1,8.776837E0,5.0092256E-1,3.2683E-1,8.2825165E0,9.318709E-3,2.198458E-2,1.2059401E-2,-3.610628E-2,1.3267064E-1,5.7943508E-2,4.5276254E-1,2.7319908E0,-4.730875E-2,1.9503293E0,1.0249075E0,2.7482495E0,2.6940298E-1,3.9391117E0,-7.8277916E-2,7.247429E-1,1.0373205E1,1.2969828E0,6.5318346E0,1.880301E0,-5.2482396E-2,5.3306688E-3,8.289132E-1,2.550518E-2,-2.6644638E-2,4.1726112E-2,1.4668174E1,4.0093318E-1,2.547658E-1,2.5614327E-1,-8.102607E-2,1.5652391E-1,-6.292289E-2,8.612402E0,3.7363295E-2,5.956906E-1,3.7173856E-2,7.972019E-3,8.955171E-1,-8.705787E-2,1.439413E-1,-7.656302E-2,5.7938623E0,4.363041E0,5.950986E-1,1.5335057E0,7.2010226E0,-1.3785984E-3,2.183137E0,-1.8215423E-2,5.565205E-2,9.2056614E-1,1.1122597E0,-3.686043E-1,4.8993774E-2,4.935485E0,1.0461626E1,1.035106E0,6.5117195E-2,-8.61194E-2,3.476621E-1,3.1962328E-2,-4.9838528E-2,2.7965832E-1,8.380617E-3,1.4725983E-2,-5.3988244E-2,4.374089E-3,6.696889E-2,-2.6763929E-2,-9.2612915E-2,-7.157858E-2,1.8403566E-2,1.3870827E-3,-3.9695937E-2,1.7102416E0,1.3018131E0,-9.50949E-3,3.7441337E-1,2.3346882E0,2.4601197E-2,6.802561E-2,-3.1995426E-3,-2.514318E-2,-9.414828E-2,8.1971265E-2,2.3151515E-2,-7.9581685E-2,-9.0344865E-3,2.8257257E-1,8.2332927E-1,-2.0950897E-2,9.581598E-1,2.0199889E-1,1.7641323E1,8.456394E-3,3.7307966E-1,7.865999E-2,1.6190138E-2,-5.035981E-1,-3.876519E-2,9.839127E0,7.805168E-1,1.0527797E-1,6.4710217E0,9.722075E-1,2.664424E0,1.4787673E0,1.0700336E0,5.2833483E-2,-6.486404E-2,1.4846191E0,1.2413614E2,2.4297208E-1,1.0135279E0,8.0082226E-1,-8.0098026E-2,-7.715113E-2,5.301361E-1,-9.0186134E-2,1.3603265E0,1.4095724E0,4.8253973E-4,2.9279857E0,1.5316803E0,5.37178E-2,-5.0913426E-3,1.5816395E0,1.913371E0,-5.2569944E-2,1.1029572E-2,-9.119072E-2,-1.894473E-2,4.7352456E-2,1.299983E0,1.665608E-5,-7.028716E-2,7.141279E-2,-2.1214087E-2,7.51581E-1,-3.219388E-2,3.7795365E0,1.3115148E-2,-3.1439718E-2,2.5788879E-2,4.578967E-2,4.4445696E0,1.2877473E-2,2.9374322E-1,4.319871E0,5.1150837E0,9.1590926E-2,1.178245E-2,7.195974E-2,5.380935E-3,3.1406388E0,5.4351278E-2,2.712017E0,1.4194866E-2,1.203357E0,5.63328E0,8.23576E-1,4.8562605E-2,3.5516866E-3,-6.3937075E-2,-3.18616E-2,-8.699026E-2,2.4136743E-2,-6.2042147E-2,2.2364182E0,8.5540945E-3,2.2742987E0,3.7517633E0,-6.0087558E-2,-9.7862445E-3,-7.641058E-2,-5.669397E-3,-7.858394E-2,-1.3859838E-2,5.948171E-2,-6.1577326E-3,2.9786844E0,2.6775599E-2,5.962739E-1,2.7086824E-1,3.9538926E-1,3.0548021E-2,1.4625462E1,6.3320243E-1,-2.7002057E-2,6.640487E-2,3.9878553E-1,-1.1501358E-3,7.97181E-2,3.0678937E-5,2.4474566E-1,4.7603723E-2,4.8430085E-2,-1.0316145E-2,-7.764971E-2,-6.422061E-3,6.442001E-1,7.8111924E-2,4.2716894E0,5.681896E0,6.106892E-3,-4.5960855E-2,-4.896689E-2,-3.050811E-3,2.5017112E-2,8.32382E-2,-2.0500066E-2,3.2801103E-2,-1.6910996E-2,2.74983E0,2.5541916E0,-8.4307855E-3,3.1425294E-2,-4.118324E-2,-1.8706718E-2,2.5375983E-1,-7.0328563E-3,-5.795036E-2,-8.89345E-2,5.5689546E-3,2.6935173E-2,-3.7200056E-2,7.8888945E-2,1.8528031E-2,8.7382175E-2,3.296119E-2,1.2327824E-2,-6.651747E-2,2.80238E-2,-7.261648E-2,-5.226913E-2,2.5654579E-2,-2.4875842E-2,-8.44693E-2,5.096898E-3,4.902051E-2,-2.1338308E-2,7.822262E-2,9.106585E-2,7.291969E-2,-1.2242547E-2,-8.043391E-2,6.7593664E-2,1.6511377E-2,-8.5950024E-2,-2.1179019E-2,-4.9440373E-2,4.0573194E-3,6.624066E-2,1.3621034E-2,3.1010423E-2,-5.4538142E-2,-1.6300572E-2,7.883725E-2,5.5686403E-2,8.7322645E-2,9.4466366E-2,7.927272E-3,1.7850017E-2,-5.8784526E-2,9.1214776E-2,3.9151873E-2,5.7628285E-2,-1.3265706E-2,-5.216695E-2,4.31608E-2,-2.5461191E-2,-6.7327075E-2,-1.6374826E-2,-8.263243E-2,-6.0276806E-2,5.2982498E-2,-4.9748674E-2,7.426224E-2,-1.2218052E-2,-5.9409894E-2,4.15589E-2,-1.873786E-2,2.164348E-2,8.351151E-2,2.9440418E-2,-3.769666E-2,5.547299E-2,8.715542E-2,6.315835E-2,-2.3801992E-2,6.72135E-2,1.3045393E-2,4.077529E-2,7.885728E-2,3.915609E-2,-1.2069541E-2,8.984688E-3,-6.426486E-2,2.8294627E-2,-2.3013707E-2,-1.9995173E-2,6.432443E-2,8.525675E-2,1.8447068E-2,-5.2767105E-2,5.6527495E-2,-1.9401735E-2,-7.291904E-2,-7.267192E-2,-1.1092512E-2,-8.5189365E-2,-1.97637E-2,-4.0414177E-2,-7.6733895E-2,-7.770868E-2,2.0800233E-2,2.2567142E-2,-4.361435E-2,-1.6806431E-2,6.566685E-2,7.290744E-2,-1.2017767E-2,-4.8866536E-2,-5.748618E-3,6.679141E-2,-3.075142E-2,8.815423E-2,3.1834226E-2,-6.87611E-2,4.5863833E-2,1.9755162E-2,-7.6923676E-2,-5.745122E-2,7.3562786E-3,4.451813E-2,-2.2169793E-2,-1.0657395E-2,-5.0825454E-2,-8.580314E-2,-2.033711E-2,1.992386E-2,-6.0584474E-2,-1.2506534E-2,-5.657345E-2,-8.077277E-2,-1.9512916E-2,-3.3033922E-2,1.4926195E-2,1.2258611E-2,-4.3294337E-2,-3.6483694E-2,6.6742174E-2,9.197242E-2,2.6866356E-2,2.1946719E-2,8.541974E-2,-8.551436E-2,-2.0533068E-2,1.9814856E-2,7.903247E-2,-7.168077E-2,2.3032364E-2],"split_indices":[0,3,3,1,4,0,4,2,2,3,3,2,4,0,8,1,7,4,4,4,3,6,9,1,7,5,5,3,3,0,2,2,1,3,4,2,2,3,7,2,2,4,0,0,7,6,8,7,4,0,8,2,4,0,0,2,3,5,0,3,4,5,1,5,8,5,0,6,4,3,7,5,8,5,9,7,2,0,9,8,5,6,5,5,0,7,9,4,9,7,3,4,0,3,4,1,6,0,0,3,0,2,2,0,7,2,0,2,4,0,0,0,0,0,2,7,0,0,3,5,4,0,8,2,4,0,3,5,2,6,8,1,0,8,4,0,7,5,2,0,6,0,7,0,0,4,3,0,3,4,3,1,0,0,6,6,7,7,5,3,0,2,4,6,0,8,6,0,0,0,0,0,1,0,0,5,5,9,0,0,0,0,0,2,0,3,9,0,0,0,9,4,9,0,0,4,8,0,0,0,0,0,0,0,0,0,0,0,0,0,8,4,0,4,3,0,0,2,6,0,0,2,6,4,8,6,6,2,1,8,4,4,4,7,5,4,4,1,0,1,3,1,5,2,0,9,6,3,0,1,0,0,9,0,0,7,6,1,5,0,0,5,0,6,7,7,0,4,1,0,1,0,6,6,8,1,2,0,1,0,0,8,1,7,0,2,6,0,0,0,5,0,0,2,0,0,0,4,0,0,0,0,0,4,0,3,1,7,1,2,0,0,0,0,0,0,0,0,0,1,9,0,9,1,2,4,9,0,0,7,0,8,3,1,5,9,2,3,3,3,0,8,8,1,1,2,0,0,2,0,0,1,0,2,2,5,7,2,1,0,0,0,0,4,0,0,0,0,0,3,0,2,0,0,0,5,2,7,9,0,2,0,0,0,0,2,0,3,4,8,6,0,5,0,0,0,0,0,0,3,7,3,0,0,0,0,0,0,0,0,0,3,7,8,7,9,0,2,9,0,0,9,0,0,0,7,4,0,0,0,0,0,0,2,0,0,0,0,0,0,0,0,0,0,2,8,0,0,0,0,1,0,0,0,4,0,0,0,0,0,0,0,0,0,0,0,0,0,0,0,0,0,0,0,0,0,0,0,0,0,0,0,0,0,0,0,0,0,0,0,0,0,0,0,0,0,0,0,0,0,0,0,0,0,0,0,0,0,0,0,0,0,0,0,0,0,0,0,0,0,0,0,0,0,0,0,0,0,0,0,0,0,0,0,0,0,0,0,0,0,0,0,0,0,0,0,0,0,0,0,0,0,0,0,0,0,0,0,0,0,0,0,0,0,0,0,0,0,0,0,0,0,0,0,0,0,0,0,0,0,0,0,0,0,0,0,0,0,0,0,0,0,0],"split_type":[0,0,0,0,0,0,0,0,0,0,0,0,0,0,0,0,0,0,0,0,0,0,0,0,0,0,0,0,0,0,0,0,0,0,0,0,0,0,0,0,0,0,0,0,0,0,0,0,0,0,0,0,0,0,0,0,0,0,0,0,0,0,0,0,0,0,0,0,0,0,0,0,0,0,0,0,0,0,0,0,0,0,0,0,0,0,0,0,0,0,0,0,0,0,0,0,0,0,0,0,0,0,0,0,0,0,0,0,0,0,0,0,0,0,0,0,0,0,0,0,0,0,0,0,0,0,0,0,0,0,0,0,0,0,0,0,0,0,0,0,0,0,0,0,0,0,0,0,0,0,0,0,0,0,0,0,0,0,0,0,0,0,0,0,0,0,0,0,0,0,0,0,0,0,0,0,0,0,0,0,0,0,0,0,0,0,0,0,0,0,0,0,0,0,0,0,0,0,0,0,0,0,0,0,0,0,0,0,0,0,0,0,0,0,0,0,0,0,0,0,0,0,0,0,0,0,0,0,0,0,0,0,0,0,0,0,0,0,0,0,0,0,0,0,0,0,0,0,0,0,0,0,0,0,0,0,0,0,0,0,0,0,0,0,0,0,0,0,0,0,0,0,0,0,0,0,0,0,0,0,0,0,0,0,0,0,0,0,0,0,0,0,0,0,0,0,0,0,0,0,0,0,0,0,0,0,0,0,0,0,0,0,0,0,0,0,0,0,0,0,0,0,0,0,0,0,0,0,0,0,0,0,0,0,0,0,0,0,0,0,0,0,0,0,0,0,0,0,0,0,0,0,0,0,0,0,0,0,0,0,0,0,0,0,0,0,0,0,0,0,0,0,0,0,0,0,0,0,0,0,0,0,0,0,0,0,0,0,0,0,0,0,0,0,0,0,0,0,0,0,0,0,0,0,0,0,0,0,0,0,0,0,0,0,0,0,0,0,0,0,0,0,0,0,0,0,0,0,0,0,0,0,0,0,0,0,0,0,0,0,0,0,0,0,0,0,0,0,0,0,0,0,0,0,0,0,0,0,0,0,0,0,0,0,0,0,0,0,0,0,0,0,0,0,0,0,0,0,0,0,0,0,0,0,0,0,0,0,0,0,0,0,0,0,0,0,0,0,0,0,0,0,0,0,0,0,0,0,0,0,0,0,0,0,0,0,0,0,0,0,0,0,0,0,0,0,0,0,0,0,0,0,0,0,0,0,0,0,0,0,0,0,0,0,0,0,0,0,0,0,0,0,0,0,0,0,0,0,0,0,0,0,0,0,0,0,0,0,0,0,0,0,0,0,0,0,0,0,0,0,0,0,0,0,0,0,0,0,0,0,0,0,0],"sum_hessian":[1.0862341E4,6.1337056E3,4.7286353E3,4.5904873E3,1.5432184E3,2.4459503E2,4.48404E3,3.8751174E3,7.1537E2,1.302687E3,2.405314E2,9.1054825E1,1.535402E2,4.4259575E3,5.8082756E1,8.716825E1,3.787949E3,4.1013654E2,3.0523346E2,5.964254E2,7.0626154E2,2.1375175E2,2.6779648E1,4.697454E1,4.408028E1,1.4753107E2,6.0091333E0,2.9286807E2,4.1330894E3,3.2222492E1,2.5860264E1,2.4027342E1,6.3140907E1,2.0591832E2,3.5820308E3,3.0615485E2,1.0398166E2,1.1419916E2,1.9103432E2,5.096859E2,8.6739494E1,2.685178E2,4.3774377E2,4.3498802E1,1.7025296E2,6.906198E0,1.987345E1,2.078257E1,2.619197E1,1.1219954E0,4.2958286E1,1.8348083E1,1.2918298E2,4.9691257E0,1.0400077E0,2.8833796E1,2.6403427E2,2.023209E2,3.9307683E3,3.410902E0,2.881159E1,9.1449585E0,1.6715305E1,8.797447E0,1.5229896E1,1.4556814E1,4.8584095E1,1.1355414E2,9.236418E1,8.309303E2,2.7511003E3,1.6114061E2,1.4501425E2,3.1428278E1,7.255338E1,4.7386322E1,6.6812836E1,2.4812052E0,1.885531E2,2.0245805E2,3.0722787E2,2.7854712E1,5.888478E1,2.0220883E2,6.630895E1,2.3826965E1,1.9671835E1,1.8347271E1,1.5190569E2,3.269837E0,3.6363611E0,1.8818449E1,1.0550005E0,4.7905445E0,1.5992026E1,2.29262E1,3.26577E0,4.156828E1,1.3900052E0,1.170054E1,6.6475444E0,1.2537644E2,3.8065484E0,8.076014E0,2.0757782E1,5.0315445E1,2.1371883E2,2.783223E1,1.7448868E2,1.0103511E0,2.4005508E0,2.7597342E1,1.2142475E0,1.4496623E0,7.695296E0,1.4042359E1,2.6729457E0,1.5386614E0,7.2587857E0,3.1827302E0,1.2047165E1,1.7027392E0,1.2854075E1,1.0469107E2,8.863064E0,8.100343E1,1.13607435E1,6.729845E2,1.5794585E2,2.6632166E3,8.788389E1,6.453774E1,9.660287E1,1.195895E2,2.5424751E1,1.484381E0,2.9943897E1,5.930842E1,1.3244968E1,1.5131599E0,4.587316E1,1.91267E1,4.7686134E1,1.2225999E0,1.2586055E0,1.8332326E2,5.2298512E0,1.9982639E2,2.6316578E0,2.6502594E2,4.2201935E1,1.7856565E1,9.998146E0,5.1655273E1,7.229506E0,1.7608107E1,1.8460072E2,2.7168219E1,3.914073E1,9.573665E0,1.4253301E1,3.393384E0,1.6278452E1,1.0407249E1,7.940021E0,1.4647348E2,5.432212E0,1.846516E0,1.4233209E0,2.4437103E0,1.1926508E0,1.0123299E0,1.7806118E1,1.1349527E0,3.655592E0,2.977292E0,1.3014733E1,2.7605693E0,2.0165632E1,1.733064E0,1.5327059E0,1.5204929E0,1.0180046E1,5.493814E0,1.1537306E0,1.1944143E2,5.935014E0,2.7637784E0,1.04277E0,1.87928E0,1.8878504E1,3.4755836E1,1.5559608E1,2.1203545E2,1.6833909E0,2.2756847E1,5.075381E0,1.7317607E2,1.3126063E0,6.6183777E0,1.0769181E0,1.1620759E0,1.2880283E1,1.6435431E0,1.0294027E0,1.263407E0,5.995379E0,1.8598535E0,1.3228767E0,1.4459713E0,1.0601193E1,1.1044848E1,1.8092266E0,6.0002605E1,4.468847E1,7.7925873E0,1.0704764E0,3.9279655E1,4.172378E1,6.4333477E0,4.9273953E0,6.538103E2,1.9174154E1,1.6208033E1,1.4173781E2,1.0885083E1,2.6523315E3,6.8324524E1,1.9559364E1,1.7305508E1,4.7232235E1,8.133375E1,3.825575E1,8.61547E0,1.680928E1,2.5369868E0,2.740691E1,5.734436E1,1.9640576E0,5.9934306E0,7.2515373E0,1.0505486E1,3.5367676E1,2.1510744E0,1.6975626E1,1.02763405E1,3.7409794E1,2.363824E1,1.5968501E2,3.9450614E0,1.2847897E0,8.589291E0,1.9123709E2,1.377376E0,1.2542819E0,1.9660822E2,6.841772E1,5.625068E0,3.6576866E1,4.228945E0,1.3627621E1,6.8857837E0,3.1123624E0,4.8193768E1,3.4615064E0,6.2240033E0,1.0055026E0,1.3688671E1,3.9194353E0,1.1492871E2,6.9672005E1,6.64363E0,2.052459E1,4.640817E0,3.4499916E1,4.9540277E0,4.619637E0,1.893059E0,1.2360242E1,1.0231647E0,2.3702192E0,1.3402968E1,2.8754828E0,8.853181E0,1.5540681E0,1.0508635E1,1.3596484E2,2.3702252E0,3.0619867E0,1.5783394E1,2.0227246E0,1.8947635E0,1.0825287E0,1.1955806E1,1.0589278E0,1.0271031E0,1.7334663E0,2.4918883E0,3.0019257E0,1.0358645E0,1.1840556E2,4.6972523E0,1.2377614E0,1.7520096E1,1.3584062E0,3.260752E1,2.1483142E0,8.159158E0,7.4004507E0,2.1193287E1,1.5635622E0,4.0676713E0,1.0077095E0,1.1194557E0,1.7205661E2,9.587187E0,1.014007E0,9.676451E0,1.3683982E0,3.231817E1,2.7684437E1,1.0180568E0,4.367041E1,1.7174414E1,2.210524E1,2.4735167E0,3.9250267E1,5.288517E0,1.1448308E0,2.986568E0,1.9408275E0,9.571289E1,5.580974E2,1.5691106E1,3.4830482E0,1.2788434E1,3.4195995E0,1.3028271E2,1.1455094E1,8.202786E0,2.6822972E0,5.4955E2,2.1027815E3,2.7293677E0,6.559516E1,1.1949561E1,7.6098027E0,1.0982469E1,6.323038E0,4.181152E1,5.420716E0,7.954508E1,1.7886673E0,3.0428822E1,7.826927E0,2.9444134E0,5.6710563E0,1.4124161E1,2.6851203E0,1.1734018E0,1.3635849E0,2.638857E1,1.0183387E0,5.2433674E1,4.910687E0,1.6534404E0,4.33999E0,5.2725263E0,1.9790113E0,9.422151E0,1.083335E0,3.4359524E1,1.0081534E0,1.0711256E0,1.0799488E0,2.7038195E0,7.572521E0,2.1404043E1,1.600575E1,1.731526E1,6.322981E0,1.5818826E2,1.4967564E0,2.9440217E0,1.0010397E0,7.3232737E0,1.2660168E0,9.6845726E1,9.439137E1,1.615187E2,3.5089508E1,5.181723E1,1.6600483E1,1.3858098E0,4.2392583E0,1.6209483E0,3.4955917E1,1.7011359E0,2.5278091E0,4.5511727E0,2.3346107E0,1.5087944E1,3.3105824E1,2.1545908E0,1.3069156E0,5.2150455E0,1.0089577E0,1.2639731E1,1.0489396E0,2.5421522E0,1.3772833E0,6.307287E0,6.3364716E1,5.600898E0,1.4923691E1,2.615698E0,2.0251188E0,3.0044445E1,4.4554706E0,1.6262659E0,3.327762E0,2.9076993E0,1.7119375E0,1.1154276E1,1.2059664E0,1.1206136E1,2.1968322E0,1.2004917E0,1.6749913E0,7.05054E0,1.8026407E0,3.0064476E0,7.502187E0,7.38861E0,1.2857623E2,1.0099188E0,1.3603064E0,1.0078704E0,1.0148543E0,1.1279938E0,1.0827812E1,1.1679825E0,1.3239057E0,1.1485046E0,1.6371592E1,3.076254E1,1.8449792E0,1.1161904E0,1.0321238E0,1.6821512E0,6.4770064E0,1.3181292E0,6.0823216E0,1.3431557E1,7.7617292E0,1.2809904E1,1.9508265E1,2.4812786E1,2.8716495E0,3.891656E1,4.753849E0,3.2562568E0,1.3918157E1,1.887709E1,3.228149E0,1.1585197E0,1.314997E0,2.4707296E0,3.6779537E1,1.2631954E0,1.7233726E0,2.7281952E1,6.843094E1,4.6691788E2,9.117955E1,3.3490357E0,1.234207E1,2.4347897E0,1.0482585E0,1.1755907E1,1.0325269E0,2.3986633E0,1.0209364E0,9.453349E1,3.5749226E1,2.8425438E0,8.61255E0,1.1427445E0,7.060042E0,3.1046389E1,5.185036E2,2.1010244E3,1.7570022E0,1.2541832E0,1.4751846E0,6.2873966E1,2.7211933E0,7.873465E0,4.076096E0,3.8097079E0,2.5133302E0,3.0289795E0,2.3917363E0,2.0041633E0,7.754092E1,2.7866215E1,2.5626082E0,1.4603305E0,6.3665967E0,1.37811E0,1.5663033E0,1.995457E0,3.6755993E0,2.5443373E0,1.15798235E1,1.2505344E0,1.4345859E0,1.1000737E1,4.1432934E1,2.6861331E0,2.2245536E0,3.5485413E0,5.8736086E0,4.5074916E0,2.9852032E1,1.6277506E0,1.0760689E0,1.0831225E0,6.4893985E0,1.0783932E1,1.0620111E1,1.0125246E0,1.4993226E1,1.6306684E1,1.0085748E0,2.9418523E0,3.3811288E0,1.3340627E0,5.9892106E0,9.576965E1,1.0760715E0,9.330054E1,1.0908353E0,1.1819528E2,4.3323425E1,6.4271555E0,2.8662352E1,2.7245274E1,2.4571959E1,1.790412E0,1.4810072E1,3.133793E0,1.4173797E0,1.0650034E0,1.2696074E0,8.715199E0,6.372745E0,3.1630756E1,1.4750667E0,3.4661658E0,2.8411217E0,1.3953996E0,6.196932E1,3.862412E0,1.7384859E0,1.2759807E1,2.1638844E0,1.1564128E0,1.4592854E0,2.9031921E1,1.0125239E0,1.0800401E0,3.3754303E0,1.2187316E0,1.6889677E0,1.018389E1,1.0222461E0,1.1602305E0,1.0366015E0,1.463277E0,1.5431705E0,1.091874E0,6.296736E0,1.2708685E2,1.4893765E0,3.0995057E0,1.3272086E1,2.9738365E1,1.0241756E0,1.2905089E0,5.1864977E0,5.80915E0,1.9525787E0],"tree_param":{"num_deleted":"0","num_feature":"10","num_nodes":"593","size_leaf_vector":"0"}},{"base_weights":[-3.3707324E-1,7.2389555E-1,-1.7148967E0,1.2721765E0,-9.0481555E-1,-7.011572E-1,-1.770095E0,1.5307409E0,7.275539E-2,-1.2455243E0,9.384954E-1,5.775343E-1,-1.4589182E0,-1.7838991E0,-7.0819014E-1,-1.0138584E0,1.5861162E0,-8.64196E-1,1.1304026E0,-6.3554657E-1,-1.5055513E0,1.1981897E0,-1.1007574E0,-4.303726E-1,1.639181E0,-1.5737627E0,1.1763041E0,-1.4413738E0,-1.8078382E0,4.8171782E-1,-1.4004234E0,2.2408687E-1,-1.5410112E0,1.5491055E-1,1.6657999E0,-1.3174207E0,4.0152296E-1,2.9272667E-1,1.6071879E0,-1.3412377E0,-1.8923664E-1,-1.2652508E0,-1.7617795E0,1.0471422E-1,1.4761939E0,8.313172E-2,-1.4974349E0,6.9879717E-1,-1.3199555E0,-2.5089177E-1,1.6934487E0,-5.7594687E-1,-1.7102755E0,1.4136026E0,-9.226757E-2,1.611698E-1,-1.6166501E0,-1.6665357E0,-1.8146863E0,-1.2966957E0,1.4674693E0,-5.1772577E-1,-1.6307983E0,-1.1676965E0,1.0505077E0,-7.736791E-1,-1.6896276E0,8.265547E-1,-6.907273E-1,1.3681817E0,1.758158E0,-1.6498765E0,-7.883066E-1,1.1410515E0,-1.5932965E0,1.0858105E0,-3.108253E-1,-4.4620168E-1,1.6389062E0,-1.4445759E0,-5.6229126E-1,-5.386048E-1,1.0513378E0,-1.0959913E0,-1.668522E0,7.6793367E-1,-6.968325E-1,2.0433368E-1,1.6277571E0,-8.214779E-1,8.986085E-1,-1.5454184E0,-3.0804384E-1,-8.243408E-1,1.1771845E0,-1.5239062E0,1.2986527E-1,1.7315527E0,3.1024536E-1,-1.2048554E0,5.4101104E-1,-1.7384609E0,-6.156484E-1,-1.5933505E0,8.8481426E-1,-9.688455E-1,-1.7554137E0,-8.635175E-1,-1.7892429E0,2.0038289E-1,-1.5340801E0,9.692047E-3,1.6021675E0,-1.2008538E0,7.886025E-1,-1.6861111E0,-2.3094998E-1,1.06427394E-1,-1.4189078E0,-1.917033E-1,1.3690113E0,2.5161818E-1,-1.2547413E0,-8.3168745E-1,-1.7459021E0,1.0128574E0,-1.2993039E0,-1.3340563E0,-4.6060238E-2,1.4193372E0,-9.096182E-1,1.774101E0,1.2652005E0,-1.4379618E0,-1.7930759E0,-1.5151263E0,2.821407E-1,-6.691204E-1,1.3284901E0,-1.7395723E0,7.7703404E-1,-1.2848445E0,1.2002372E0,-1.4525363E0,2.3657045E-1,-1.1473618E0,5.7430863E-1,1.7459623E0,1.0960332E0,-1.4597335E0,2.3415975E-1,-1.3013244E0,1.8088563E-1,-1.9447252E-1,-9.671065E-1,1.2996162E0,-9.521326E-1,-1.2904837E0,-4.821874E-1,-2.1475245E-1,-1.6806283E0,5.7326127E-2,1.2109698E0,6.611649E-1,-1.0020907E0,-8.6845696E-1,1.5519598E0,1.6659781E0,5.0185645E-1,-1.2183099E0,-1.7269347E-2,1.2590847E0,-7.6073065E-2,-4.455149E-1,-1.581087E0,6.1167157E-1,-1.3068746E0,-5.8375537E-2,1.4445995E0,-6.059064E-1,-1.6153139E0,-7.84052E-1,1.0653235E0,1.0076274E0,-1.5971686E0,8.9101034E-1,-7.643913E-1,-1.765765E0,-1.0147895E0,-1.2312056E0,8.162678E-1,-1.1394479E0,1.133925E0,-1.4397106E0,1.5113595E-1,-1.7617352E0,-5.9646124E-1,-1.3228418E0,1.0713092E0,-1.7962294E0,-4.9254876E-1,1.6837556E0,3.8583505E-1,-1.4214672E0,-1.972373E-1,9.557771E-1,1.7364423E-1,-2.9488066E-1,-1.5804429E0,5.9413016E-1,-1.0773946E0,1.2760822E-1,1.5133499E0,-4.801862E-1,9.5566964E-1,-1.4745119E0,-4.4180238E-1,-1.2312852E0,2.613024E-1,-1.767569E0,-4.6154356E-1,5.853975E-1,1.5585303E0,-1.6062789E0,5.676256E-1,5.0175093E-2,-1.4915274E0,-5.4628915E-1,1.1156994E0,1.5922058E0,6.717382E-1,-1.3607945E0,1.0750308E0,1.6447874E0,1.8071688E0,1.6474297E0,-1.4012249E-1,1.5025975E-1,-1.460572E0,-1.5486957E0,6.303099E-2,-5.700548E-1,1.0710601E0,-1.3100113E0,3.3906996E-1,1.3885009E0,-8.992773E-1,-1.7762597E0,-6.229967E-1,1.4907866E0,7.8816E-1,5.90373E-2,-1.5385022E0,4.5823124E-1,-1.2907927E0,1.4477336E0,1.7935983E0,-3.5931486E-1,1.4460733E0,-6.1028415E-1,-1.4969345E0,-5.569631E-1,-1.5338994E0,9.163031E-1,-1.1185983E0,-6.7688763E-1,3.5443553E-1,-1.5818692E0,-7.4676347E-1,-3.5697338E-1,1.4710087E0,-1.2678106E0,2.3599186E-3,-1.3107284E0,1.2511343E0,-1.0300742E0,2.164663E-1,6.5434605E-1,-6.838997E-1,-2.6669687E-2,1.3889551E0,-3.55134E-1,1.0756862E0,-1.3096969E0,3.972276E-1,-1.2526363E0,9.5116526E-1,9.718447E-1,1.7122334E0,1.2373472E0,-5.8752126E-1,-1.6504725E0,-6.7427903E-1,6.186499E-1,-9.7184205E-1,1.5371172E0,1.6330665E-1,2.8708288E-1,-1.0470414E0,-4.7753567E-1,-1.6612412E0,1.7653668E-1,1.2925551E0,-5.0652874E-1,-1.7723166E0,2.6141515E-1,-1.4277545E0,1.3158956E0,-7.716017E-1,-1.5118479E0,4.5129102E-1,1.0375551E0,-9.388041E-1,-1.471805E0,4.7715712E-1,1.309734E0,-6.238515E-2,-4.8971125E-1,-1.8018855E0,1.5725399E0,4.5162722E-1,-4.4992805E-2,-6.134209E-1,-2.2910292E-1,1.3729533E0,-4.085191E-1,1.6149876E0,-7.104416E-1,1.0320555E0,-6.799424E-2,-1.5921742E0,-1.1319286E0,5.3060347E-1,1.3184117E0,-5.4032147E-1,9.693135E-1,1.6981729E0,-1.4895315E0,9.061404E-1,-1.4743156E0,3.25983E-2,1.2310655E0,3.218141E-1,1.0849394E0,1.6758808E0,1.8085223E0,1.5349874E-1,-4.1119048E-1,1.7258701E0,9.018092E-1,-1.1786836E0,-1.5425032E0,-9.236617E-1,-6.655788E-1,-1.6083072E0,6.5329915E-1,-8.474772E-1,1.3087263E0,-3.4788373E-1,-3.625208E-1,-1.4427556E0,-4.3150216E-1,7.5217295E-1,-6.287849E-1,1.4270099E0,1.5712079E0,-5.0788903E-1,1.0436189E0,-7.4029213E-1,-5.7690734E-1,7.183169E-1,-2.9838198E-1,-1.600702E0,5.9120136E-1,1.585122E0,-9.140102E-1,9.740647E-1,1.5293405E0,-5.8741677E-1,-1.1431992E0,1.058022E0,-1.3560115E0,-1.6935959E0,-1.0166839E0,3.7649322E-1,1.2861104E0,-5.900819E-1,-7.693612E-1,1.2194839E0,-9.207941E-1,6.01006E-1,-5.956541E-1,-1.5827937E0,2.7171603E-1,-9.893574E-1,1.571136E0,-3.7391487E-1,-1.5494496E0,-1.0366799E0,-1.4100914E0,-5.967443E-1,7.117481E-1,-9.6999305E-1,-4.3918532E-1,1.166768E0,1.9599602E-2,-8.784454E-1,1.527191E0,5.9679704E-4,-1.480596E0,-2.4920453E-1,9.43125E-1,-1.9984734E-1,-1.4907897E0,-1.2429907E-1,-3.867317E-1,1.4999685E0,9.360444E-1,1.7493851E0,8.262758E-2,-9.9229157E-1,-9.5565444E-1,-5.9479784E-2,4.8879424E-1,1.6001837E0,-3.9902773E-1,6.3764095E-1,-5.3377295E-1,-1.7793442E0,-3.2921943E-1,1.4441198E0,-1.6061301E0,8.7195374E-2,-4.633314E-1,1.422744E0,-9.835218E-2,-1.068869E0,-1.7058076E0,-9.1908026E-1,5.5872005E-1,-7.84422E-1,1.4983002E0,3.255302E-1,1.6545625E0,2.8837967E-1,-1.0100535E0,3.7709817E-2,4.8620102E-1,-7.031253E-1,-6.218555E-1,-1.6457232E0,8.34703E-1,-1.2742918E0,-2.198354E-1,1.1918159E0,1.5311443E0,3.204013E-1,-4.9873403E-1,1.426304E0,1.7020489E0,-2.312031E-1,-3.8261905E-1,-1.5574528E0,9.9989265E-1,-1.2134242E0,-5.066798E-1,-1.6673111E0,-5.444482E-1,1.6269729E0,6.6466016E-1,1.6855726E0,6.0129637E-1,1.8090277E0,3.254135E-1,-9.9964184E-1,1.7517129E0,7.521024E-1,1.212372E0,2.2847924E-1,-1.4502069E0,3.4215552E-1,-1.1901904E0,-1.6819514E0,-1.4761825E0,1.01089686E-1,-1.0671539E0,1.7451291E-1,-8.878166E-1,-1.6516118E0,9.619173E-1,-2.9716575E-1,-1.2106972E0,-7.839037E-2,1.5410519E0,5.562539E-1,-8.853745E-1,6.7777705E-1,1.4722183E0,-2.0305458E-1,1.5998857E0,3.8792694E-1,2.8557503E-1,1.4706987E0,-1.074211E0,1.13977104E-1,4.749942E-1,-9.964742E-1,-1.8244058E-1,9.753062E-1,-7.362687E-1,1.0838861E0,1.635176E0,3.6948702E-1,-1.2650743E0,1.7143396E-1,1.5816361E0,-6.1587606E-2,-2.4451938E-1,-1.3801613E0,-1.3978181E0,-5.726578E-1,3.0545935E-1,1.4848567E0,-4.879126E-1,-1.3658104E0,3.845641E-1,-1.3606918E0,-1.030022E0,7.494639E-1,-1.2376028E0,-2.9241636E-1,7.505881E-1,-3.1408358E-1,2.7360117E-1,1.6005245E0,-8.2602024E-2,-4.826175E-1,-7.439554E-2,-1.560657E0,1.0006249E0,-1.1154766E0,-1.4681656E0,-1.08806044E-1,-8.8929206E-1,3.224197E-1,-7.29239E-1,1.0637001E0,-1.4275702E0,1.0038345E0,-1.0493968E0,-2.1197331E-1,-1.5473213E0,-3.804705E-1,-6.43237E-1,2.9093587E-1,2.3794864E-1,-8.3953357E-1,-7.108845E-1,1.2806413E0,1.7596551E0,5.2135366E-1,4.226479E-1,1.6370682E0,-1.6334617E0,-4.0033886E-1,-2.738432E-1,-1.1702541E0,-1.3772136E0,4.4553834E-1],"categories":[],"categories_nodes":[],"categories_segments":[],"categories_sizes":[],"default_left":[1,1,1,1,1,1,1,1,1,1,1,1,1,1,1,1,1,1,1,1,1,1,1,1,1,1,1,1,1,1,1,1,1,1,1,1,1,1,1,1,1,1,0,1,1,1,1,1,1,0,1,1,1,0,0,1,1,1,0,1,1,1,1,1,1,1,1,1,1,1,1,1,1,1,1,1,1,1,1,1,1,1,1,1,1,1,1,1,1,1,1,1,0,1,1,1,1,0,0,1,1,1,1,0,1,1,1,1,1,0,0,0,1,1,1,0,0,0,1,1,1,1,1,1,1,1,1,1,1,1,1,1,1,1,0,1,1,1,1,1,0,0,1,1,1,0,0,1,1,1,0,1,1,1,1,1,1,1,1,0,0,1,1,1,1,1,0,1,1,0,0,0,0,0,1,0,0,1,1,1,0,0,0,0,1,1,0,1,1,0,0,0,1,1,1,0,0,1,1,1,0,0,0,0,0,0,0,0,0,0,0,0,1,0,0,0,1,0,0,0,0,1,1,0,0,1,1,1,1,1,1,1,1,1,1,1,1,0,1,1,0,1,1,1,1,1,0,0,0,1,1,0,0,1,1,1,0,1,1,1,1,1,0,1,0,1,1,0,1,1,1,0,0,1,0,1,1,1,1,0,1,0,0,1,1,1,0,1,1,0,1,0,1,0,0,1,0,0,0,0,0,1,0,0,1,0,0,1,0,1,0,1,1,1,0,0,0,0,0,0,0,0,0,1,1,0,1,1,0,1,1,1,1,1,0,1,1,1,1,1,0,0,0,1,1,1,0,1,1,1,1,1,1,1,1,1,1,1,1,0,0,0,0,0,1,1,0,1,1,1,1,0,0,1,1,1,0,1,0,1,0,1,0,0,0,1,0,1,0,1,1,1,0,1,0,1,1,1,1,1,1,1,1,0,0,0,1,0,0,1,1,0,0,0,0,1,0,1,1,0,0,0,0,0,0,0,0,0,0,0,1,1,0,0,0,0,1,0,1,0,0,0,0,0,0,0,0,0,0,0,0,0,0,0,0,0,0,0,0,0,0,0,0,0,0,0,0,0,0,0,0,0,0,0,0,0,0,0,0,0,0,0,0,0,0,0,0,0,0,0,0,0,0,0,0,0,0,0,0,0,0,0,0,0,0,0,0,0,0,0,0,0,0,0,0,0,0,0,0,0,0,0,0,0,0,0,0,0,0,0,0,0,0,0,0,0,0,0,0,0,0,0,0,0,0,0,0,0,0,0,0,0,0,0,0,0,0,0,0,0,0,0,0,0,0,0,0,0,0],"id":2,"left_children":[1,3,5,7,9,11,13,15,17,19,21,23,25,27,29,31,33,35,37,39,41,43,45,47,49,51,53,55,57,59,61,63,65,67,69,71,73,75,77,79,81,83,-1,85,87,89,91,93,95,-1,97,99,101,-1,-1,103,105,107,-1,109,111,113,115,117,119,121,123,125,127,129,131,133,135,137,139,141,143,145,147,149,151,153,155,157,159,161,163,165,167,169,171,173,-1,175,177,179,181,-1,-1,183,185,187,189,-1,191,193,195,197,199,-1,-1,-1,201,203,205,-1,-1,-1,207,209,211,213,215,217,219,221,223,225,227,229,231,233,235,237,-1,239,241,243,245,247,-1,-1,249,251,253,-1,-1,255,257,259,-1,261,263,265,267,269,271,273,275,-1,-1,277,279,281,283,285,-1,287,289,-1,-1,-1,-1,-1,291,-1,-1,293,295,297,-1,-1,-1,-1,299,301,-1,303,305,-1,-1,-1,307,309,311,-1,-1,313,315,317,-1,-1,-1,-1,-1,-1,-1,-1,-1,-1,-1,-1,319,-1,-1,-1,321,-1,-1,-1,-1,323,325,-1,-1,327,329,331,333,335,337,339,341,343,345,347,349,-1,351,353,-1,355,357,359,361,363,-1,-1,-1,365,367,-1,-1,369,371,373,-1,375,377,379,381,383,-1,385,-1,387,389,-1,391,393,395,-1,-1,397,-1,399,401,403,405,-1,407,-1,-1,409,411,413,-1,415,417,-1,419,-1,421,-1,-1,423,-1,-1,-1,-1,-1,425,-1,-1,427,-1,-1,429,-1,431,-1,433,435,437,-1,-1,-1,-1,-1,-1,-1,-1,-1,439,441,-1,443,445,-1,447,449,451,453,455,-1,457,459,461,463,465,-1,-1,-1,467,469,471,-1,473,475,477,479,481,483,485,487,489,491,493,495,-1,-1,-1,-1,-1,497,499,-1,501,503,505,507,-1,-1,509,511,513,-1,515,-1,517,-1,519,-1,-1,-1,521,-1,523,-1,525,527,529,-1,531,-1,533,535,537,539,541,543,545,547,-1,-1,-1,549,-1,-1,551,553,-1,-1,-1,-1,555,-1,557,559,-1,-1,-1,-1,-1,-1,-1,-1,-1,-1,-1,561,563,-1,-1,-1,-1,565,-1,567,-1,-1,-1,-1,-1,-1,-1,-1,-1,-1,-1,-1,-1,-1,-1,-1,-1,-1,-1,-1,-1,-1,-1,-1,-1,-1,-1,-1,-1,-1,-1,-1,-1,-1,-1,-1,-1,-1,-1,-1,-1,-1,-1,-1,-1,-1,-1,-1,-1,-1,-1,-1,-1,-1,-1,-1,-1,-1,-1,-1,-1,-1,-1,-1,-1,-1,-1,-1,-1,-1,-1,-1,-1,-1,-1,-1,-1,-1,-1,-1,-1,-1,-1,-1,-1,-1,-1,-1,-1,-1,-1,-1,-1,-1,-1,-1,-1,-1,-1,-1,-1,-1,-1,-1,-1,-1,-1,-1,-1,-1,-1,-1,-1,-1,-1,-1,-1,-1,-1,-1,-1,-1,-1,-1,-1,-1,-1,-1,-1,-1],"loss_changes":[1.5785751E4,5.4493247E3,2.6163086E2,1.4155874E3,9.6654626E2,2.3749825E2,6.40332E1,5.307588E2,8.0425616E2,2.0488501E2,1.2861263E2,9.87193E1,4.8349884E1,3.344629E1,4.9124756E1,5.2938393E1,4.1893164E2,2.4742667E2,1.5178159E2,1.2245691E2,5.375E1,6.480606E1,1.3120583E1,4.891732E1,5.02182E0,1.9127655E1,2.2341747E0,8.232086E1,9.482422E-1,4.1132618E1,6.7697525E0,2.9915E1,5.1529846E0,1.1130041E2,9.329883E1,5.4487915E1,1.7035686E2,6.710982E1,1.6539246E1,1.1324738E1,1.0451342E2,3.0437744E1,0E0,2.4134336E1,3.2495636E1,6.5605173E0,7.099228E-1,1.6788475E1,8.202774E0,0E0,1.7658081E0,1.4193602E1,2.9213257E0,0E0,0E0,3.9133854E1,2.1979675E1,1.8361572E1,0E0,3.3321333E0,2.903656E0,9.170155E0,1.8737183E0,3.2768784E0,6.6624546E0,5.759179E0,7.984772E-1,4.453026E1,3.5956085E1,9.789807E1,1.8611328E1,3.3043823E0,9.7130585E1,2.936602E1,1.2209724E1,1.79552E1,5.0335327E1,3.8632202E0,1.1990295E1,3.7128906E0,1.0834175E1,2.7504143E1,2.7619717E1,3.9475006E1,2.064972E0,7.7282286E0,9.212214E0,2.9216606E1,5.705963E0,1.339839E0,1.721972E0,6.949997E-2,0E0,4.802251E0,5.678774E0,1.019352E0,4.4773417E0,0E0,0E0,1.2583387E1,4.169161E0,6.8951416E-1,5.2323017E0,0E0,1.2223988E1,2.590308E1,5.297241E-1,2.6933468E1,6.94458E-1,0E0,0E0,0E0,7.0028305E-1,1.1470804E0,2.2137713E-1,0E0,0E0,0E0,1.0278149E0,3.548229E0,2.1358395E0,2.7039835E0,7.2046375E-1,2.4090016E0,3.7617493E-1,2.2618797E1,6.2013636E0,9.541962E0,2.6420038E1,1.0377576E2,1.8315155E1,8.008789E0,4.6759613E1,3.2079468E0,0E0,4.027817E0,3.4970932E1,5.9624157E0,1.1461182E1,1.1432648E-1,0E0,0E0,5.797592E0,3.4775543E0,1.9187656E1,0E0,0E0,2.1820068E-1,2.1963116E1,3.2398071E0,0E0,8.418579E-1,1.1059165E1,2.81504E1,1.0114838E1,1.4043816E1,1.9389815E0,1.4733093E1,3.1770342E1,0E0,0E0,5.121243E0,3.3868103E0,2.2304559E0,7.939625E0,9.142587E0,0E0,3.0429382E0,5.8727727E0,0E0,0E0,0E0,0E0,0E0,6.459427E-2,0E0,0E0,3.0587618E0,1.4036179E0,1.7803953E0,0E0,0E0,0E0,0E0,4.8332214E-3,1.631465E0,0E0,8.944702E-2,4.018785E0,0E0,0E0,0E0,7.882597E0,5.3727493E0,1.5776472E1,0E0,0E0,7.0438004E0,1.7199779E0,3.9605713E-1,0E0,0E0,0E0,0E0,0E0,0E0,0E0,0E0,0E0,0E0,0E0,0E0,1.5750885E-2,0E0,0E0,0E0,1.8091863E-1,0E0,0E0,0E0,0E0,3.7628677E1,5.514183E0,0E0,0E0,4.7688365E0,5.4834824E0,2.0603542E1,5.31015E0,4.179785E1,7.941275E1,2.5434513E0,7.918692E-2,7.479126E0,4.2773438E0,1.1718826E1,2.210302E1,0E0,2.1888428E0,2.7557068E0,0E0,9.113368E0,9.522343E0,1.5952873E-1,1.633981E0,6.706375E0,0E0,0E0,0E0,6.107582E0,1.1003962E1,0E0,0E0,1.3526887E1,1.7439337E0,2.884575E0,0E0,7.5189695E0,6.6775055E0,7.6133657E0,1.1741333E0,2.0575025E0,0E0,4.800359E0,0E0,1.0836168E1,1.62623E1,0E0,7.0518684E0,2.363623E0,8.594353E0,0E0,0E0,1.4941376E1,0E0,6.7936745E0,2.2462269E1,4.0767097E0,7.2899365E-1,0E0,2.5542583E0,0E0,0E0,2.2341785E0,1.4510275E0,2.454257E0,0E0,8.81079E0,2.288025E0,0E0,9.680543E-1,0E0,4.6573758E-1,0E0,0E0,7.066536E-2,0E0,0E0,0E0,0E0,0E0,1.1807786E0,0E0,0E0,8.291626E-2,0E0,0E0,4.366886E0,0E0,5.168091E0,0E0,5.8186455E0,7.034292E-1,1.2890358E0,0E0,0E0,0E0,0E0,0E0,0E0,0E0,0E0,0E0,1.3323724E1,3.4138756E0,0E0,1.7643433E0,8.533819E-1,0E0,1.6166782E0,8.682785E-1,6.9049435E0,6.1436396E0,2.1618557E0,0E0,6.6471954E1,4.5897217E0,5.6604385E-1,2.8960747E1,1.8834076E0,0E0,0E0,0E0,2.8209713E1,3.8205566E0,1.5234375E-1,0E0,1.7600434E0,3.400879E-1,1.8711071E0,4.6962385E0,1.4262848E0,7.7182894E0,2.3121967E0,6.358948E-1,1.8190575E0,5.769803E0,3.2054253E0,3.1620538E0,0E0,0E0,0E0,0E0,0E0,5.7289276E0,4.6522522E-1,0E0,6.982828E0,1.3597124E0,5.0344453E0,9.291494E0,0E0,0E0,4.777072E0,1.062561E0,2.825295E0,0E0,2.848442E0,0E0,9.274063E-1,0E0,1.7530365E0,0E0,0E0,0E0,7.4300194E-1,0E0,8.470936E0,0E0,5.398213E0,1.1055534E1,1.0383335E1,0E0,1.1970261E0,0E0,1.1371689E0,5.6370497E-2,2.0852966E0,2.0505127E1,1.6515961E0,6.5781355E0,1.4324676E1,1.1670308E1,0E0,0E0,0E0,2.4421382E-1,0E0,0E0,3.044567E-1,8.673082E-1,0E0,0E0,0E0,0E0,1.3329155E0,0E0,5.660006E0,7.0651245E-1,0E0,0E0,0E0,0E0,0E0,0E0,0E0,0E0,0E0,0E0,0E0,2.7176971E0,3.8568115E-1,0E0,0E0,0E0,0E0,1.8766546E-1,0E0,6.076383E0,0E0,0E0,0E0,0E0,0E0,0E0,0E0,0E0,0E0,0E0,0E0,0E0,0E0,0E0,0E0,0E0,0E0,0E0,0E0,0E0,0E0,0E0,0E0,0E0,0E0,0E0,0E0,0E0,0E0,0E0,0E0,0E0,0E0,0E0,0E0,0E0,0E0,0E0,0E0,0E0,0E0,0E0,0E0,0E0,0E0,0E0,0E0,0E0,0E0,0E0,0E0,0E0,0E0,0E0,0E0,0E0,0E0,0E0,0E0,0E0,0E0,0E0,0E0,0E0,0E0,0E0,0E0,0E0,0E0,0E0,0E0,0E0,0E0,0E0,0E0,0E0,0E0,0E0,0E0,0E0,0E0,0E0,0E0,0E0,0E0,0E0,0E0,0E0,0E0,0E0,0E0,0E0,0E0,0E0,0E0,0E0,0E0,0E0,0E0,0E0,0E0,0E0,0E0,0E0,0E0,0E0,0E0,0E0,0E0,0E0,0E0,0E0,0E0,0E0,0E0,0E0,0E0,0E0,0E0,0E0,0E0,0E0,0E0,0E0,0E0,0E0,0E0,0E0,0E0,0E0],"parents":[2147483647,0,0,1,1,2,2,3,3,4,4,5,5,6,6,7,7,8,8,9,9,10,10,11,11,12,12,13,13,14,14,15,15,16,16,17,17,18,18,19,19,20,20,21,21,22,22,23,23,24,24,25,25,26,26,27,27,28,28,29,29,30,30,31,31,32,32,33,33,34,34,35,35,36,36,37,37,38,38,39,39,40,40,41,41,43,43,44,44,45,45,46,46,47,47,48,48,50,50,51,51,52,52,55,55,56,56,57,57,59,59,60,60,61,61,62,62,63,63,64,64,65,65,66,66,67,67,68,68,69,69,70,70,71,71,72,72,73,73,74,74,75,75,76,76,77,77,78,78,79,79,80,80,81,81,82,82,83,83,84,84,85,85,86,86,87,87,88,88,89,89,90,90,91,91,93,93,94,94,95,95,96,96,99,99,100,100,101,101,102,102,104,104,105,105,106,106,107,107,108,108,112,112,113,113,114,114,118,118,119,119,120,120,121,121,122,122,123,123,124,124,125,125,126,126,127,127,128,128,129,129,130,130,131,131,132,132,133,133,135,135,136,136,137,137,138,138,139,139,142,142,143,143,144,144,147,147,148,148,149,149,151,151,152,152,153,153,154,154,155,155,156,156,157,157,158,158,161,161,162,162,163,163,164,164,165,165,167,167,168,168,174,174,177,177,178,178,179,179,184,184,185,185,187,187,188,188,192,192,193,193,194,194,197,197,198,198,199,199,212,212,216,216,221,221,222,222,225,225,226,226,227,227,228,228,229,229,230,230,231,231,232,232,233,233,234,234,235,235,236,236,238,238,239,239,241,241,242,242,243,243,244,244,245,245,249,249,250,250,253,253,254,254,255,255,257,257,258,258,259,259,260,260,261,261,263,263,265,265,266,266,268,268,269,269,270,270,273,273,275,275,276,276,277,277,278,278,280,280,283,283,284,284,285,285,287,287,288,288,290,290,292,292,295,295,301,301,304,304,307,307,309,309,311,311,312,312,313,313,323,323,324,324,326,326,327,327,329,329,330,330,331,331,332,332,333,333,335,335,336,336,337,337,338,338,339,339,343,343,344,344,345,345,347,347,348,348,349,349,350,350,351,351,352,352,353,353,354,354,355,355,356,356,357,357,358,358,364,364,365,365,367,367,368,368,369,369,370,370,373,373,374,374,375,375,377,377,379,379,381,381,385,385,387,387,389,389,390,390,391,391,393,393,395,395,396,396,397,397,398,398,399,399,400,400,401,401,402,402,406,406,409,409,410,410,415,415,417,417,418,418,430,430,431,431,436,436,438,438],"right_children":[2,4,6,8,10,12,14,16,18,20,22,24,26,28,30,32,34,36,38,40,42,44,46,48,50,52,54,56,58,60,62,64,66,68,70,72,74,76,78,80,82,84,-1,86,88,90,92,94,96,-1,98,100,102,-1,-1,104,106,108,-1,110,112,114,116,118,120,122,124,126,128,130,132,134,136,138,140,142,144,146,148,150,152,154,156,158,160,162,164,166,168,170,172,174,-1,176,178,180,182,-1,-1,184,186,188,190,-1,192,194,196,198,200,-1,-1,-1,202,204,206,-1,-1,-1,208,210,212,214,216,218,220,222,224,226,228,230,232,234,236,238,-1,240,242,244,246,248,-1,-1,250,252,254,-1,-1,256,258,260,-1,262,264,266,268,270,272,274,276,-1,-1,278,280,282,284,286,-1,288,290,-1,-1,-1,-1,-1,292,-1,-1,294,296,298,-1,-1,-1,-1,300,302,-1,304,306,-1,-1,-1,308,310,312,-1,-1,314,316,318,-1,-1,-1,-1,-1,-1,-1,-1,-1,-1,-1,-1,320,-1,-1,-1,322,-1,-1,-1,-1,324,326,-1,-1,328,330,332,334,336,338,340,342,344,346,348,350,-1,352,354,-1,356,358,360,362,364,-1,-1,-1,366,368,-1,-1,370,372,374,-1,376,378,380,382,384,-1,386,-1,388,390,-1,392,394,396,-1,-1,398,-1,400,402,404,406,-1,408,-1,-1,410,412,414,-1,416,418,-1,420,-1,422,-1,-1,424,-1,-1,-1,-1,-1,426,-1,-1,428,-1,-1,430,-1,432,-1,434,436,438,-1,-1,-1,-1,-1,-1,-1,-1,-1,440,442,-1,444,446,-1,448,450,452,454,456,-1,458,460,462,464,466,-1,-1,-1,468,470,472,-1,474,476,478,480,482,484,486,488,490,492,494,496,-1,-1,-1,-1,-1,498,500,-1,502,504,506,508,-1,-1,510,512,514,-1,516,-1,518,-1,520,-1,-1,-1,522,-1,524,-1,526,528,530,-1,532,-1,534,536,538,540,542,544,546,548,-1,-1,-1,550,-1,-1,552,554,-1,-1,-1,-1,556,-1,558,560,-1,-1,-1,-1,-1,-1,-1,-1,-1,-1,-1,562,564,-1,-1,-1,-1,566,-1,568,-1,-1,-1,-1,-1,-1,-1,-1,-1,-1,-1,-1,-1,-1,-1,-1,-1,-1,-1,-1,-1,-1,-1,-1,-1,-1,-1,-1,-1,-1,-1,-1,-1,-1,-1,-1,-1,-1,-1,-1,-1,-1,-1,-1,-1,-1,-1,-1,-1,-1,-1,-1,-1,-1,-1,-1,-1,-1,-1,-1,-1,-1,-1,-1,-1,-1,-1,-1,-1,-1,-1,-1,-1,-1,-1,-1,-1,-1,-1,-1,-1,-1,-1,-1,-1,-1,-1,-1,-1,-1,-1,-1,-1,-1,-1,-1,-1,-1,-1,-1,-1,-1,-1,-1,-1,-1,-1,-1,-1,-1,-1,-1,-1,-1,-1,-1,-1,-1,-1,-1,-1,-1,-1,-1,-1,-1,-1,-1,-1,-1],"split_conditions":[7.5792446E0,1.7218245E0,5.9480333E-1,1.2481604E0,3.3030454E-2,2.53686E1,7.180834E-2,1.8039343E-1,3.11526E0,2.3660655E0,3.238656E0,1.945178E0,6.224905E-2,1.5633608E1,1.4569304E0,1.5771808E-1,-2.8793769E-2,2.5948595E-2,7.290247E-3,5.260725E0,3.1181943E0,7.233407E0,3.7001818E-1,6.3542426E-1,-7.2311774E-2,3.1383625E-1,4.421026E0,9.903779E-1,9.008765E-1,2.8536081E0,2.0118843E1,8.162021E-2,3.1882513E-1,8.6768305E-1,6.78405E-3,1.5516967E0,2.7280679E0,1.1252911E0,-7.8515667E-1,1.6505174E-2,1.193374E-2,2.1053476E0,-8.808898E-2,4.651261E-1,-2.1993306E-1,1.7292183E1,6.488893E-1,3.0243982E-2,3.8119197E-2,-1.2544589E-2,1.37241E1,1.4981718E0,3.4106325E-2,7.0680134E-2,-4.6133786E-3,2.002432E0,1.7148085E0,2.440005E-1,-9.073432E-2,4.1681254E-1,-4.3438777E-1,8.5274684E-1,3.9330262E-1,7.591406E-1,4.3696945E1,8.0489624E-1,1.9687119E-1,1.6108402E1,4.0790377E0,3.06633E0,7.2073917E0,1.5613773E-1,2.3275476E0,9.6104026E-1,1.2901033E0,-6.2156282E-2,4.244338E0,1.7642722E-1,1.4400902E0,1.2160709E0,6.304518E0,8.484184E-1,4.498589E-1,8.86322E-3,2.8230476E0,2.3490876E-2,2.6405776E-1,2.3219313E-1,8.887372E-1,-8.8205456E-4,3.5731773E0,3.5950713E-2,-1.5402192E-2,1.8284637E-1,4.6554985E-3,8.096597E-1,2.2591076E1,8.657764E-2,1.5512268E-2,7.482189E-2,3.007945E2,3.8539262E0,1.4756572E0,-7.966753E-2,-5.2329265E-2,5.786758E0,1.5542847E1,5.3576193E0,4.2555057E-2,1.0019145E-2,-7.670401E-2,4.8460235E-4,1.7623022E2,4.1614143E1,6.030384E-1,-8.4305555E-2,-1.1547499E-2,5.32137E-3,1.7745832E-2,5.4856677E0,1.0033546E-3,1.1875983E0,2.6281571E-2,8.2180274E-1,1.3491493E-1,2.2509978E0,3.2880943E-2,2.3324886E-1,8.939991E-3,1.015528E0,7.089E1,8.776837E0,2.028772E1,-1.2911412E-1,-8.96538E-2,2.2950126E-2,4.307336E-3,5.7770215E-2,8.613334E-1,1.9788477E-1,3.8851704E-2,-6.424223E-2,8.885993E-1,5.903063E-3,2.0165393E0,-5.736809E-2,2.8715432E-2,5.7261286E0,4.106615E0,5.3757755E-3,1.1707988E-2,3.979107E-2,1.5652391E-1,2.8470655E-3,-3.343281E-2,2.592494E0,4.6478903E-1,2.102926E0,7.131415E0,-1.0737623E-2,-8.403142E-2,2.4583719E0,6.630579E-3,5.280268E0,1.5411812E-1,7.492606E1,7.759799E-2,2.8227073E-1,8.5059726E-1,-6.0915496E-2,-8.6346734E-4,6.295424E-2,-3.8036534E-3,-2.2275744E-2,2.7373905E0,3.058358E-2,-6.534373E-2,1.9337225E0,7.055323E0,6.9201756E-1,-8.0765694E-2,-3.92026E-2,5.3266175E-2,5.038137E-2,2.168349E-1,2.8309329E0,-3.8219567E-2,2.6344284E1,3.3422583E-1,-6.156028E-2,4.081339E-2,-5.6972396E-2,9.894092E-1,1.7022885E0,8.218336E-1,-8.808676E-2,-2.9823063E-2,2.7857862E-2,3.3286107E0,1.8249413E1,-2.4627438E-2,8.418778E-2,1.9291753E-2,-7.107336E-2,-9.861865E-3,4.7788855E-2,8.682212E-3,-1.4744033E-2,-7.902215E-2,2.9706508E-2,-5.386973E-2,6.3804113E-3,1.6890599E2,-2.400931E-2,4.7783483E-2,-7.3725596E-2,3.7184408E0,-6.1564263E-2,1.3065121E-2,-8.837845E-2,-2.3077179E-2,1.2647644E-2,1.3880306E-1,-8.031394E-2,2.8381279E-2,1.662402E0,1.9043177E0,-3.9579526E-2,9.5077133E-1,1.428469E0,2.9111705E0,2.6028373E0,6.4710217E0,1.4846191E0,1.2413614E2,4.56145E-1,1.9658934E-1,7.5129876E-3,1.31987E0,1.4095724E0,3.1515495E-3,4.6499747E-1,1.9118595E-1,2.4158596E-1,8.702793E-1,1.9299793E-1,-4.4963866E-2,-8.8812985E-2,-3.1149834E-2,2.9987173E0,2.841549E0,2.951865E-3,-7.6925114E-2,-3.4536324E-2,1.2052082E0,-3.8176432E-2,8.967992E-2,2.7193595E-2,4.776449E0,5.260771E-3,1.4584342E0,2.817089E0,-7.669497E-2,2.7044497E0,-5.5929918E-2,8.297212E-1,-3.5536475E-2,-7.909346E-2,1.572093E1,2.1305623E0,4.6848955E0,-6.339053E-2,1.1799593E-4,9.335235E0,6.2556714E-2,4.9366474E0,2.3585287E-1,1.5335057E0,1.3879782E-1,-1.3334843E-3,2.183137E0,-1.77567E-2,5.378431E-2,9.2056614E-1,1.1122597E0,-3.686043E-1,4.7558263E-2,4.935485E0,1.0461626E1,6.1867364E-2,2.5211005E0,-8.252363E-2,3.476621E-1,3.0932495E-2,-4.85921E-2,3.2557726E0,8.1653325E-3,1.4354144E-2,-5.235207E-2,-2.3876784E-2,-8.306206E-2,4.374089E-3,6.462776E-2,-2.5326436E-2,3.290628E-2,1.30707575E-2,-7.138773E-2,1.3870827E-3,-3.8580086E-2,3.3259265E-2,2.256455E-2,-9.50949E-3,1.1203963E0,2.3346882E0,2.3857856E-2,6.54867E-2,-3.1192575E-3,-2.4485564E-2,-9.0094276E-2,7.8627E-2,2.2581361E-2,-2.2496402E-3,-3.0671045E-2,2.6251113E-1,7.357122E-1,-2.0425955E-2,9.884379E-1,3.153733E0,5.1602777E-2,9.0747774E-1,1.04833275E-1,3.3092883E-1,2.3580296E-3,1.3844216E0,-2.7016073E-2,8.535344E0,1.598968E1,3.265868E-2,3.3101287E0,1.0527797E-1,1.6299151E-3,6.1553277E-2,1.6090704E-2,3.6335912E0,2.490159E-1,9.400612E-1,7.674937E-3,2.4297208E-1,1.0135279E0,4.2126316E1,4.5651606E-1,1.8132222E0,4.207869E0,4.935818E-2,1.8591796E-1,2.2756646E0,2.3395624E0,1.0415285E0,1.576529E-2,-1.812604E-2,-7.213778E-2,-2.1575108E-2,3.760865E-2,-3.1439245E-2,1.4090185E0,5.4473915E0,-2.5394453E-2,4.8198524E0,1.7081306E0,4.377685E-2,5.9787693E0,-1.4919099E-2,-8.0035105E-2,8.006407E-2,3.3876495E0,1.0469412E1,4.8703235E-2,2.0005574E0,-2.9370839E-2,3.3248372E0,5.29011E-2,1.235965E0,-8.46798E-2,-5.0834198E-2,1.8824661E-2,8.216358E0,-2.9504094E-2,1.2692333E0,6.0974192E-2,8.0806875E-1,2.3763275E0,6.9182777E0,-7.913969E-2,7.1959764E-2,-4.9467873E-2,-8.75168E-2,7.128139E-1,1.4469156E-2,3.6394726E-2,4.404665E1,2.0717759E-2,4.5518975E0,7.616414E1,-2.1959266E-2,5.83384E-2,9.799801E-4,2.901348E0,7.6359555E-2,2.9839852E-5,2.4474566E-1,4.7603723E-2,4.7156252E-2,-9.992368E-3,-7.453948E-2,-6.2149535E-3,6.442001E-1,7.499843E-2,4.2716894E0,5.681896E0,4.131379E-3,-4.961458E-2,-4.7782723E-2,-2.9739894E-3,2.4439713E-2,8.0009185E-2,-1.9951386E-2,3.1882048E-2,-2.6688648E-2,-8.896721E-2,-1.6460972E-2,2.74983E0,2.5541916E0,4.3597687E-3,-2.316657E-2,7.1137205E-2,-4.917609E-3,9.4246864E-4,-8.529038E-2,5.5689546E-3,2.7936002E-2,-3.92211E-2,7.4915014E-2,1.627651E-2,8.2728125E-2,1.4418984E-2,-5.0502677E-2,1.8854908E-3,2.431005E-2,-3.5156265E-2,-3.1092776E-2,-8.2286164E-2,4.1735154E-2,-6.3714586E-2,-1.099177E-2,5.9590794E-2,7.655721E-2,1.6020065E-2,-2.4936702E-2,7.13152E-2,8.510245E-2,-1.1560155E-2,-1.9130953E-2,-7.787264E-2,4.9994633E-2,-6.067121E-2,-2.533399E-2,-8.336555E-2,-2.722241E-2,8.134865E-2,3.323301E-2,8.4278636E-2,3.006482E-2,9.045138E-2,1.6270675E-2,-4.9982093E-2,8.758565E-2,3.7605118E-2,6.0618598E-2,1.1423962E-2,-7.251035E-2,1.7107775E-2,-5.9509523E-2,-8.409757E-2,-7.3809125E-2,5.0544846E-3,-5.3357698E-2,8.725646E-3,-4.439083E-2,-8.258059E-2,4.8095863E-2,-1.4858288E-2,-6.053486E-2,-3.9195186E-3,7.705259E-2,2.7812695E-2,-4.4268724E-2,3.3888854E-2,7.361092E-2,-1.0152729E-2,7.999428E-2,1.9396348E-2,1.4278752E-2,7.3534936E-2,-5.371055E-2,5.6988555E-3,2.3749711E-2,-4.9823713E-2,-9.122029E-3,4.8765313E-2,-3.6813434E-2,5.419431E-2,8.17588E-2,1.8474352E-2,-6.3253716E-2,8.571698E-3,7.90818E-2,-3.0793804E-3,-1.222597E-2,-6.900807E-2,-6.989091E-2,-2.8632892E-2,1.52729675E-2,7.424284E-2,-2.439563E-2,-6.8290524E-2,1.9228205E-2,-6.803459E-2,-5.1501103E-2,3.7473198E-2,-6.188014E-2,-1.4620818E-2,3.7529405E-2,-1.570418E-2,1.36800585E-2,8.002623E-2,-4.1301013E-3,-2.4130875E-2,-3.7197769E-3,-7.803285E-2,5.0031245E-2,-5.5773832E-2,-7.340828E-2,-5.440302E-3,-4.4464603E-2,1.6120985E-2,-3.646195E-2,5.3185005E-2,-7.1378514E-2,5.0191727E-2,-5.246984E-2,-1.0598666E-2,-7.736607E-2,-1.9023526E-2,-3.216185E-2,1.4546794E-2,1.1897433E-2,-4.197668E-2,-3.5544228E-2,6.403207E-2,8.798276E-2,2.6067683E-2,2.1132395E-2,8.185341E-2,-8.1673086E-2,-2.0016944E-2,-1.369216E-2,-5.8512706E-2,-6.886068E-2,2.2276917E-2],"split_indices":[0,3,3,1,4,0,4,2,2,3,3,2,4,0,3,1,7,4,4,2,3,6,9,1,7,5,5,3,3,2,0,2,1,3,4,2,7,3,7,4,4,0,0,0,7,6,8,7,4,0,8,2,4,0,0,2,3,5,0,5,7,8,4,5,8,5,5,6,2,5,7,5,8,6,4,7,2,4,3,8,6,0,5,4,2,7,9,4,9,7,3,4,0,3,4,1,6,0,0,3,0,2,2,0,7,2,0,2,4,0,0,0,0,6,9,0,0,0,3,5,4,6,4,6,4,2,4,9,4,3,6,6,8,7,0,4,4,4,9,3,0,0,3,0,8,0,0,6,2,0,0,5,5,4,7,6,7,0,2,0,0,3,0,2,4,6,0,8,0,0,0,0,0,0,1,0,0,5,5,9,0,0,0,0,1,2,0,0,1,0,0,0,9,3,9,0,0,4,8,0,0,0,0,0,0,0,0,0,0,0,0,0,8,0,0,0,5,0,0,0,0,4,3,0,0,8,6,7,9,2,2,2,5,8,8,2,1,0,2,1,0,3,5,5,2,2,0,0,0,1,8,0,0,7,3,7,0,4,0,0,0,