{"learner":{"attributes":{"best_iteration":"499","best_ntree_limit":"500","best_score":"0.14795648114831592","scikit_learn":"{\"n_estimators\": 500, \"objective\": \"binary:logistic\", \"max_depth\": 6, \"max_leaves\": null, \"max_bin\": null, \"grow_policy\": null, \"learning_rate\": 0.01, \"verbosity\": null, \"booster\": null, \"tree_method\": null, \"gamma\": null, \"min_child_weight\": null, \"max_delta_step\": null, \"subsample\": null, \"sampling_method\": null, \"colsample_bytree\": null, \"colsample_bylevel\": null, \"colsample_bynode\": null, \"reg_alpha\": null, \"reg_lambda\": null, \"scale_pos_weight\": null, \"base_score\": null, \"missing\": NaN, \"num_parallel_tree\": null, \"random_state\": null, \"n_jobs\": null, \"monotone_constraints\": null, \"interaction_constraints\": null, \"importance_type\": null, \"gpu_id\": null, \"validate_parameters\": null, \"predictor\": null, \"enable_categorical\": false, \"feature_types\": null, \"max_cat_to_onehot\": null, \"max_cat_threshold\": null, \"eval_metric\": null, \"early_stopping_rounds\": null, \"callbacks\": null, \"evals_result_\": {\"validation_0\": {\"rmse\": [0.49585221239025845, 0.4917570346969937, 0.4877061659486328, 0.48370249989002867, 0.4797251323318777, 0.4758233889866906, 0.47193856118333805, 0.46808973869785747, 0.4642734520148019, 0.46049458540808946, 0.4567887515195185, 0.45313437295596914, 0.44949709235839763, 0.4458770931327052, 0.4423268161291433, 0.4387918392207371, 0.43535218257917124, 0.43194374513450523, 0.428525731967693, 0.42515037417224444, 0.42185843959712, 0.418619058049116, 0.41535663609113915, 0.4121381689162089, 0.40900185189144167, 0.40585227037711025, 0.4028018002322274, 0.39972905058756836, 0.3966943682182542, 0.393746903515128, 0.3907832393354428, 0.3878504473080032, 0.3849962610429822, 0.38214654686658883, 0.3793696074805102, 0.3765792684343917, 0.3738178632526222, 0.3711100030296648, 0.36842635385052586, 0.3658129593442227, 0.3632294586946506, 0.3606487811384391, 0.35809677222724595, 0.35558384872846516, 0.3530904185405769, 0.3506292828609619, 0.3481968291596758, 0.3458164019500061, 0.34343470983225743, 0.34108669766510885, 0.3387753787095774, 0.3364778472674539, 0.3342249006412316, 0.3320183144837937, 0.32982786685719023, 0.3276513799298278, 0.32550211508835203, 0.32337608892564, 0.3212668846263256, 0.3191886288575684, 0.3171437827082266, 0.315126273678252, 0.31314421122902686, 0.3111819796060676, 0.3092271096464947, 0.3073148045714652, 0.3054221025336012, 0.30356923825044874, 0.30172636331502134, 0.29991219037235334, 0.29808858344759326, 0.29630905606724933, 0.2945231296891605, 0.2927569133016475, 0.2910157303339879, 0.2893012187493151, 0.2876141411755492, 0.28594661355878176, 0.2842981604834885, 0.28266371602520896, 0.2810699690997813, 0.27946551282449583, 0.27791009065537925, 0.2763888967267561, 0.2748560944038631, 0.27335656587635804, 0.27187558531443856, 0.27041229359395613, 0.26895041005309994, 0.26752118338072084, 0.2661216418465711, 0.26472318298444986, 0.26334988240895263, 0.2619766621854929, 0.26063879281344104, 0.2593406950757989, 0.2580665118289266, 0.2568015165570607, 0.2555259045722917, 0.2542354780876729, 0.25296628331555515, 0.25171924237684973, 0.2504878829338201, 0.2492957807129574, 0.2481136959329375, 0.2469448302123505, 0.24579341253643863, 0.24466511612763955, 0.2435562126528557, 0.24245513329087967, 0.24137229003035732, 0.24029595071654006, 0.23919749538290516, 0.23811403733024983, 0.2370696831251285, 0.23601965331798042, 0.2350066402269521, 0.23398450787813974, 0.23297095736716952, 0.23198215928556631, 0.23102960563584768, 0.23003219745988604, 0.22904865897669746, 0.22807751896414713, 0.2271750577716807, 0.22621744629511473, 0.2252757599329952, 0.2243723980650723, 0.22350473770775534, 0.22257745673020915, 0.2216534371193382, 0.22076260400094044, 0.21987760861690517, 0.21901868455334725, 0.2182109752516952, 0.21737061157955084, 0.2165321796638896, 0.21572266258248346, 0.21491712892225964, 0.21417141538427878, 0.21338194146224615, 0.21262625724401885, 0.21185870704367424, 0.2111628517319247, 0.2104342830151279, 0.2097150732451362, 0.20900385471294225, 0.20831562463114023, 0.2076316478521961, 0.20696485377541263, 0.20629906255970745, 0.20564079072203054, 0.204980759223679, 0.20435338051883367, 0.2037297156598606, 0.20311883894351693, 0.20251555834429127, 0.20191145438127892, 0.20130177043906067, 0.20069399769938348, 0.20012130615348553, 0.1995440153706605, 0.19898527859098586, 0.19845116311411015, 0.19790115172612213, 0.19736054000487965, 0.19683574888920555, 0.1962976368500787, 0.19578693060282537, 0.1952786191220519, 0.19477907285129908, 0.1942846140635188, 0.19377930952866335, 0.19330769643592075, 0.19284965437956, 0.1923812752885863, 0.1919413008539108, 0.19149856745373664, 0.19102244837676455, 0.1905759431393534, 0.19016251625900193, 0.18973022663790287, 0.18932018397868097, 0.18892727434978937, 0.18853670403450645, 0.18811258421207105, 0.18772506383826576, 0.18735591026045811, 0.18694737292914648, 0.18655763362192188, 0.1861662071144872, 0.18578670227823685, 0.1854159891006146, 0.18501298570894809, 0.18465153973601864, 0.18429640926177013, 0.18393217433415388, 0.18360417133520004, 0.18325344149011996, 0.18290898311166381, 0.18253468392520522, 0.18219685232270103, 0.18183849284656717, 0.18148265795754295, 0.18116126030376623, 0.18081242170692383, 0.18047150776319942, 0.18012199721977598, 0.1797746881465951, 0.17943702188959904, 0.17911215402633954, 0.1787766210836966, 0.17845501357349755, 0.1781310865006627, 0.17781144898526377, 0.17752404553793277, 0.1772098425420276, 0.1768945081783682, 0.1765899297195364, 0.1762795242059014, 0.17601157199219755, 0.1757447655897225, 0.17545392372657417, 0.1751656754077425, 0.17489369252566786, 0.17464858999593078, 0.17439669526374987, 0.17415592506285688, 0.17389715012707627, 0.17365589699882844, 0.17340755245546421, 0.1731298362661677, 0.17287307789515693, 0.1726157537347593, 0.17236000225585474, 0.17211695414909978, 0.1718752228456705, 0.17164868809558187, 0.1714208434610895, 0.17119231262536627, 0.17097464417131747, 0.1707853020202608, 0.17055686860668362, 0.17034332128341675, 0.1701567571336394, 0.16994110317658115, 0.16975070833492673, 0.16956387548000268, 0.1693378127956256, 0.16915608357933754, 0.16895090782686323, 0.1687585782379507, 0.1685816161423347, 0.16840459992668858, 0.1682395196855069, 0.16807429224057369, 0.16787213084682392, 0.1676744614568095, 0.16748312061028287, 0.1672798976082166, 0.16711551353872173, 0.16692436399520927, 0.1667305302150278, 0.1665651741284806, 0.1664056929896231, 0.1662195460351945, 0.1660456400330596, 0.16586764428013995, 0.16569749378606966, 0.16554747639580686, 0.16536831851608036, 0.16519573404001456, 0.16504786978836972, 0.16490164464293636, 0.1647371393883494, 0.16458168362450695, 0.16445666113652974, 0.16433262576051422, 0.16420245918304263, 0.16404816020778507, 0.163894596136341, 0.16378479909399168, 0.16365098820014545, 0.16354524127515185, 0.16340458946528702, 0.163304882264734, 0.1631597674902813, 0.1630431622852427, 0.16293009264193073, 0.1628328194971689, 0.16270698520472615, 0.16257282733846717, 0.1624739817734035, 0.1623299069275585, 0.16220911136684477, 0.16209007418488455, 0.16194673917803687, 0.1618239244985853, 0.1617096137002377, 0.1615989783672532, 0.16149218719107444, 0.16138081726844103, 0.16125098487504688, 0.16114903692215152, 0.1610341534808564, 0.16089944059422132, 0.16076453908464675, 0.1606395600894598, 0.16052133899302082, 0.16039105040715945, 0.160282484804474, 0.16018771047531694, 0.16005584578579504, 0.1599309915493541, 0.15983069036525194, 0.15971006179693645, 0.15958377154871906, 0.15946511508591873, 0.15936169671169634, 0.15928271209406616, 0.15916582918689381, 0.15904211766925605, 0.1589406958309679, 0.15885370975203522, 0.1587810807596569, 0.1586902850646868, 0.15857977093886777, 0.15849932933880576, 0.1584171247448881, 0.15830258864900654, 0.15820905990563397, 0.15810708152843508, 0.1580278540006326, 0.1579175184685371, 0.1578056758661523, 0.1577189239635052, 0.15762090442444548, 0.15751313174477835, 0.157419248207857, 0.15732321926630813, 0.15721467217342605, 0.15711625953759084, 0.15700713016478457, 0.15692068615040017, 0.15681362111998368, 0.1567166905939167, 0.15663242936272564, 0.15653833431523645, 0.15646059867830356, 0.15639404634096057, 0.15633613531453958, 0.15625783711464153, 0.15615291666924533, 0.1560448631135384, 0.15597462542267698, 0.15588983644808638, 0.15579832623841483, 0.15570314182218273, 0.15562718153387825, 0.1555588723297175, 0.15548780907103654, 0.15542047438720247, 0.15537099111894817, 0.1552839620461035, 0.1552141163791422, 0.15512608760491692, 0.155035423488455, 0.1549620659911297, 0.15487667370469815, 0.15480882475313942, 0.1547440626739318, 0.15468350317538695, 0.15462483025008522, 0.15456096564925229, 0.1544784240644616, 0.15441041622780935, 0.15435002785220503, 0.15427397546170368, 0.15419811832854782, 0.15412951113756393, 0.1540614456255576, 0.15398922207428833, 0.15393485217967895, 0.15386824445095557, 0.15381050571471847, 0.15375472118703779, 0.15369394254799965, 0.15362291503729678, 0.15356292469991534, 0.15350951274524918, 0.15342992589171284, 0.15336442647044393, 0.15330798594914571, 0.15324822961185755, 0.15317868728401854, 0.15311881752566633, 0.15306873499588974, 0.1530192656149174, 0.15295414495412082, 0.15288530977850648, 0.15283350929404038, 0.15277845359408013, 0.15271686609443033, 0.15267001205935574, 0.15260750936186973, 0.1525451162220231, 0.15249794821488655, 0.15243833880085056, 0.15238315399175903, 0.1523208813586924, 0.15224723121366585, 0.1521881262905986, 0.1521306701148653, 0.1520730470788067, 0.15202738292509788, 0.15196941867348152, 0.15190865945205784, 0.15186239328079018, 0.15179917152011158, 0.15173061089472004, 0.1516815152611489, 0.15162022340474052, 0.15156927583470284, 0.15151663666971518, 0.15146312098743145, 0.15140053415350863, 0.15136621792762245, 0.15131181959618412, 0.15126136285308803, 0.1512153320272279, 0.15116752086058086, 0.15110097736580716, 0.15103560988663403, 0.15097821387293084, 0.15093302733882333, 0.1508815612776385, 0.15083602202037352, 0.1507897138971674, 0.15071933811819113, 0.15066913446795716, 0.15062135085635228, 0.1505758210812815, 0.15053238771142358, 0.1504781770184414, 0.15043232431693862, 0.1503913255032422, 0.15032490392423212, 0.1502757691834869, 0.1502450833822769, 0.15019266803177037, 0.15012976988957835, 0.15009696299020012, 0.15004602246717128, 0.14997407141267396, 0.14995496347147477, 0.14993670017323696, 0.14988316049379796, 0.14980972289986044, 0.14978151195337397, 0.14973015202125806, 0.14965739372630155, 0.14963959204474217, 0.14960667096868274, 0.14955961348652927, 0.14949466337751932, 0.14943409885551556, 0.14936852749538687, 0.14930283010033313, 0.14925306690442286, 0.14919514785759955, 0.14917363603122707, 0.1491328166823227, 0.14906359828348312, 0.14902979015998138, 0.149008738957569, 0.1489675235578617, 0.14893071681034714, 0.1488923532141662, 0.14886219214044566, 0.14881548015325574, 0.1487738225545946, 0.14872425272970993, 0.14866004834487437, 0.14861858168764075, 0.1485766638831078, 0.14853832610432585, 0.14849097069538983, 0.14844261067956063, 0.14840186285364365, 0.14834602388380722, 0.14830654632234466, 0.1482696526769744, 0.1482306387592428, 0.14819537035764904, 0.14815516554167613, 0.1481138993211479, 0.14807548878908916, 0.14802782799391737, 0.14798712323786967, 0.14795648114831592]}}, \"_estimator_type\": \"regressor\"}"},"feature_names":[],"feature_types":[],"gradient_booster":{"model":{"gbtree_model_param":{"num_parallel_tree":"1","num_trees":"500","size_leaf_vector":"0"},"tree_info":[0,0,0,0,0,0,0,0,0,0,0,0,0,0,0,0,0,0,0,0,0,0,0,0,0,0,0,0,0,0,0,0,0,0,0,0,0,0,0,0,0,0,0,0,0,0,0,0,0,0,0,0,0,0,0,0,0,0,0,0,0,0,0,0,0,0,0,0,0,0,0,0,0,0,0,0,0,0,0,0,0,0,0,0,0,0,0,0,0,0,0,0,0,0,0,0,0,0,0,0,0,0,0,0,0,0,0,0,0,0,0,0,0,0,0,0,0,0,0,0,0,0,0,0,0,0,0,0,0,0,0,0,0,0,0,0,0,0,0,0,0,0,0,0,0,0,0,0,0,0,0,0,0,0,0,0,0,0,0,0,0,0,0,0,0,0,0,0,0,0,0,0,0,0,0,0,0,0,0,0,0,0,0,0,0,0,0,0,0,0,0,0,0,0,0,0,0,0,0,0,0,0,0,0,0,0,0,0,0,0,0,0,0,0,0,0,0,0,0,0,0,0,0,0,0,0,0,0,0,0,0,0,0,0,0,0,0,0,0,0,0,0,0,0,0,0,0,0,0,0,0,0,0,0,0,0,0,0,0,0,0,0,0,0,0,0,0,0,0,0,0,0,0,0,0,0,0,0,0,0,0,0,0,0,0,0,0,0,0,0,0,0,0,0,0,0,0,0,0,0,0,0,0,0,0,0,0,0,0,0,0,0,0,0,0,0,0,0,0,0,0,0,0,0,0,0,0,0,0,0,0,0,0,0,0,0,0,0,0,0,0,0,0,0,0,0,0,0,0,0,0,0,0,0,0,0,0,0,0,0,0,0,0,0,0,0,0,0,0,0,0,0,0,0,0,0,0,0,0,0,0,0,0,0,0,0,0,0,0,0,0,0,0,0,0,0,0,0,0,0,0,0,0,0,0,0,0,0,0,0,0,0,0,0,0,0,0,0,0,0,0,0,0,0,0,0,0,0,0,0,0,0,0,0,0,0,0,0,0,0,0,0,0,0,0,0,0,0,0,0,0,0,0,0,0,0,0,0,0,0,0,0,0,0,0,0,0,0,0,0,0,0,0,0,0,0,0,0,0,0,0,0,0,0,0,0,0,0,0,0,0,0,0,0,0,0,0,0,0,0],"trees":[{"base_weights":[1.0142651E0,1.5450369E0,-1.7263973E0,1.7323093E0,-4.8205695E-1,-2.91103E-1,-1.9137807E0,-1.2474252E0,1.8271995E0,-1.0302303E0,1.0147521E0,-1.201446E0,1.36667E0,-1.9281528E0,6.381172E-1,7.963994E-1,-1.7696805E0,3.1939134E-1,1.8926201E0,-1.8170775E0,-4.7829837E-1,-1.3583783E0,1.385806E0,5.3952765E-1,-1.6416999E0,1.8086728E0,-4.8781684E-1,-1.957451E0,-1.442666E0,-6.6677326E-1,1.5496192E0,1.6642822E0,-4.864976E-1,-2.95679E-1,-1.9540673E0,8.523355E-1,-6.678348E-1,1.9263326E0,6.3750225E-1,-1.0730294E0,-1.8967478E0,-1.5046449E0,3.080011E-1,-1.7322592E0,1.1087576E-1,-1.5963843E-1,1.6518141E0,-1.3722188E0,1.1910132E0,-1.7741096E0,1.7284356E-1,-2.0622598E-1,1.8863724E0,-1.442874E0,1.1702257E0,-1.7552619E0,-1.9863158E0,1.0630821E0,-1.5857539E0,3.0511224E-1,-1.1777512E0,1.8836768E-2,1.7723128E0,1.029219E0,-1.2389809E0,1.074416E0,-1.4404445E0,-1.9612193E0,-5.846218E-1,-1.0534983E-1,1.1536314E0,-1.0910504E0,2.597533E-1,1.5245941E0,1.9579226E0,-4.569735E-1,1.4486314E0,-1.3360245E0,4.346781E-1,-1.9034978E0,-4.742544E-1,-9.9141854E-1,-1.7578231E0,7.094265E-1,-9.3715733E-1,-6.6100866E-1,-1.8020022E0,-1.2223428E0,1.0428611E0,7.854E-1,-9.159954E-1,8.26168E-1,1.8899583E0,-2.7012646E-1,-1.5603876E0,1.3947446E0,-5.652531E-1,-8.7055165E-1,-1.9066722E0,-8.524941E-1,1.1629387E0,1.9190627E0,3.2193315E-1,-2.5819108E-1,-1.6414716E0,1.1629191E-1,1.4362652E0,-1.1206563E0,-1.9448967E0,1.3354422E0,1.076713E-1,-1.7166765E0,-4.9367473E-1],"categories":[],"categories_nodes":[],"categories_segments":[],"categories_sizes":[],"default_left":[1,1,1,1,1,1,1,1,1,1,1,1,1,1,1,1,1,1,1,1,1,1,1,1,1,1,1,1,1,1,0,1,1,1,1,1,1,1,1,1,1,1,1,1,1,1,1,1,1,1,1,0,1,1,1,1,0,1,1,0,0,0,0,0,0,0,0,0,0,0,0,0,0,0,0,0,0,0,0,0,0,0,0,0,0,0,0,0,0,0,0,0,0,0,0,0,0,0,0,0,0,0,0,0,0,0,0,0,0,0,0,0,0],"id":0,"left_children":[1,3,5,7,9,11,13,15,17,19,21,23,25,27,29,31,33,35,37,39,41,43,45,47,49,51,53,55,57,59,-1,61,63,65,67,69,71,73,75,77,79,81,83,85,87,89,91,93,95,97,99,-1,101,103,105,107,-1,109,111,-1,-1,-1,-1,-1,-1,-1,-1,-1,-1,-1,-1,-1,-1,-1,-1,-1,-1,-1,-1,-1,-1,-1,-1,-1,-1,-1,-1,-1,-1,-1,-1,-1,-1,-1,-1,-1,-1,-1,-1,-1,-1,-1,-1,-1,-1,-1,-1,-1,-1,-1,-1,-1,-1],"loss_changes":[1.1367363E4,2.4856533E3,3.4047705E2,1.6965625E3,4.5589606E2,2.2440295E2,4.2359375E1,1.9944165E2,5.7227344E2,1.7555908E2,1.3317532E2,7.43259E1,4.4154984E1,1.3041016E1,9.39676E0,4.361873E1,3.9668182E1,1.2826639E2,2.3428711E2,7.871704E0,1.942472E2,1.1544281E1,5.3475006E1,2.6658329E1,1.8740616E1,7.0964355E0,1.9025446E1,2.6362305E0,2.5809479E1,2.142661E0,0E0,4.083519E0,1.9853241E1,2.9218632E1,1.408081E-1,4.5728607E1,3.3906803E1,6.579883E1,1.312396E2,7.903284E0,5.342407E-1,1.1813965E1,6.9038574E1,4.414749E-2,7.651323E0,1.4957463E1,2.016861E1,7.338791E-1,6.3417587E0,6.915619E0,7.213577E0,0E0,1.4969635E0,1.3159666E0,1.1097646E0,1.4627228E1,0E0,9.577613E-1,8.310196E0,0E0,0E0,0E0,0E0,0E0,0E0,0E0,0E0,0E0,0E0,0E0,0E0,0E0,0E0,0E0,0E0,0E0,0E0,0E0,0E0,0E0,0E0,0E0,0E0,0E0,0E0,0E0,0E0,0E0,0E0,0E0,0E0,0E0,0E0,0E0,0E0,0E0,0E0,0E0,0E0,0E0,0E0,0E0,0E0,0E0,0E0,0E0,0E0,0E0,0E0,0E0,0E0,0E0,0E0],"parents":[2147483647,0,0,1,1,2,2,3,3,4,4,5,5,6,6,7,7,8,8,9,9,10,10,11,11,12,12,13,13,14,14,15,15,16,16,17,17,18,18,19,19,20,20,21,21,22,22,23,23,24,24,25,25,26,26,27,27,28,28,29,29,31,31,32,32,33,33,34,34,35,35,36,36,37,37,38,38,39,39,40,40,41,41,42,42,43,43,44,44,45,45,46,46,47,47,48,48,49,49,50,50,52,52,53,53,54,54,55,55,57,57,58,58],"right_children":[2,4,6,8,10,12,14,16,18,20,22,24,26,28,30,32,34,36,38,40,42,44,46,48,50,52,54,56,58,60,-1,62,64,66,68,70,72,74,76,78,80,82,84,86,88,90,92,94,96,98,100,-1,102,104,106,108,-1,110,112,-1,-1,-1,-1,-1,-1,-1,-1,-1,-1,-1,-1,-1,-1,-1,-1,-1,-1,-1,-1,-1,-1,-1,-1,-1,-1,-1,-1,-1,-1,-1,-1,-1,-1,-1,-1,-1,-1,-1,-1,-1,-1,-1,-1,-1,-1,-1,-1,-1,-1,-1,-1,-1,-1],"split_conditions":[1.0519375E1,2.2155867E0,8.361513E-1,2.556093E-1,5.0620705E-2,2.10237E0,3.8981882E-1,2.3731557E-1,-5.151965E-1,-5.311395E-1,-8.908193E-1,3.2012546E-1,1.3947997E2,5.996741E-2,6.9076866E-1,9.9985605E-1,9.98754E-1,1.6943082E0,2.0860753E0,2.5740435E0,5.6505585E0,3.137756E1,4.900481E0,-2.6418227E-1,1.191273E-1,-8.305553E-1,2.6838426E-2,2.9670681E1,9.2733E-1,3.1054222E1,1.5496192E-2,5.882524E-2,2.9128868E-2,1.0396357E0,6.4621296E0,1.51346605E-2,3.190209E-2,4.678795E0,3.6127124E0,2.533843E0,-5.60056E-1,7.779341E-1,2.4803102E-1,4.3961894E-2,-1.6706377E0,2.6474624E0,1.2738052E1,6.4751015E0,5.165858E-1,2.2416191E-1,6.377933E-1,-2.0622597E-3,1.7317805E0,9.6303785E-1,4.4277006E-1,1.7662561E0,-1.9863158E-2,1.0093102E-1,1.5023494E0,3.0511224E-3,-1.1777512E-2,1.8836767E-4,1.7723126E-2,1.029219E-2,-1.2389809E-2,1.074416E-2,-1.4404444E-2,-1.9612193E-2,-5.8462177E-3,-1.0534982E-3,1.1536314E-2,-1.0910504E-2,2.5975327E-3,1.5245941E-2,1.9579226E-2,-4.569735E-3,1.4486314E-2,-1.3360245E-2,4.346781E-3,-1.9034978E-2,-4.7425437E-3,-9.914185E-3,-1.7578231E-2,7.094265E-3,-9.371573E-3,-6.610086E-3,-1.802002E-2,-1.2223428E-2,1.0428611E-2,7.854E-3,-9.159954E-3,8.26168E-3,1.8899582E-2,-2.7012646E-3,-1.5603876E-2,1.3947446E-2,-5.6525306E-3,-8.705516E-3,-1.9066721E-2,-8.524941E-3,1.1629387E-2,1.9190626E-2,3.2193314E-3,-2.5819107E-3,-1.6414715E-2,1.1629191E-3,1.4362652E-2,-1.1206563E-2,-1.9448966E-2,1.3354422E-2,1.076713E-3,-1.7166764E-2,-4.9367473E-3],"split_indices":[0,3,3,2,4,2,4,1,7,8,8,1,0,4,8,7,7,0,1,3,2,6,2,7,4,7,4,0,3,0,0,2,3,1,0,4,4,6,2,3,8,0,5,0,8,3,6,6,3,5,8,0,1,5,9,3,0,4,8,0,0,0,0,0,0,0,0,0,0,0,0,0,0,0,0,0,0,0,0,0,0,0,0,0,0,0,0,0,0,0,0,0,0,0,0,0,0,0,0,0,0,0,0,0,0,0,0,0,0,0,0,0,0],"split_type":[0,0,0,0,0,0,0,0,0,0,0,0,0,0,0,0,0,0,0,0,0,0,0,0,0,0,0,0,0,0,0,0,0,0,0,0,0,0,0,0,0,0,0,0,0,0,0,0,0,0,0,0,0,0,0,0,0,0,0,0,0,0,0,0,0,0,0,0,0,0,0,0,0,0,0,0,0,0,0,0,0,0,0,0,0,0,0,0,0,0,0,0,0,0,0,0,0,0,0,0,0,0,0,0,0,0,0,0,0,0,0,0,0],"sum_hessian":[7.8115796E3,6.54456E3,1.2670195E3,5.9912095E3,5.533506E2,1.4660767E2,1.1204119E3,1.8452806E2,5.806681E3,4.0524887E2,1.4810175E2,9.481603E1,5.1791645E1,1.1143802E3,6.0316486E0,3.7448795E1,1.4707927E2,2.4170735E2,5.564974E3,1.6612495E2,2.3912392E2,1.966573E1,1.2843602E2,1.909193E1,7.57241E1,4.1843315E1,9.948328E0,1.0480974E3,6.62828E1,2.590962E0,3.4406867E0,2.2160131E1,1.5288664E1,1.6642397E1,1.3043687E2,1.5705786E2,8.464948E1,5.4188877E3,1.4608641E2,1.7467031E1,1.4865793E2,1.03332184E2,1.3579173E2,1.5533832E1,4.131897E0,1.8919294E1,1.09516716E2,4.5713315E0,1.4520598E1,7.059497E1,5.129127E0,1.4922531E0,4.0351063E1,6.394674E0,3.5536544E0,1.386571E2,9.094403E2,3.2332182E0,6.304958E1,1.0316458E0,1.5593162E0,1.4376248E0,2.0722506E1,4.9500613E0,1.0338603E1,7.603599E0,9.038797E0,1.2932932E2,1.1075555E0,3.7742306E1,1.1931557E2,5.8007236E1,2.6642248E1,3.9863297E2,5.0202544E3,6.2368176E1,8.371823E1,1.4969683E1,2.497348E0,1.476193E2,1.0386224E0,3.5759247E1,6.757293E1,1.0301203E2,3.2779694E1,1.5899557E0,1.3943876E1,1.5718275E0,2.5600696E0,8.39352E0,1.0525774E1,2.5517319E1,8.3999405E1,1.0218685E0,3.5494628E0,1.3195708E1,1.3248898E0,1.000016E1,6.0594814E1,2.5879922E0,2.5411346E0,3.9303116E1,1.0479485E0,1.2483047E0,5.1463695E0,1.005887E0,2.5477674E0,3.3490826E1,1.0516628E2,2.206454E0,1.0267642E0,5.5789402E1,7.2601805E0],"tree_param":{"num_deleted":"0","num_feature":"10","num_nodes":"113","size_leaf_vector":"0"}},{"base_weights":[1.0041971E0,1.5297137E0,-1.7093447E0,1.715144E0,-4.773777E-1,-2.8833374E-1,-1.8948671E0,-1.2351247E0,1.8090965E0,-1.0201379E0,1.0046655E0,-1.189877E0,1.3534286E0,-1.9091035E0,6.327225E-1,7.8889114E-1,-1.752336E0,3.1621388E-1,1.8738738E0,-1.7992549E0,-4.736555E-1,-1.3461568E0,1.3722359E0,5.336573E-1,-1.6257282E0,1.791213E0,-4.832771E-1,-1.9381112E0,-1.4284443E0,-6.625461E-1,1.5376842E0,1.6485289E0,-4.8177707E-1,-2.9294118E-1,-1.934904E0,8.4389985E-1,-6.6126734E-1,1.9032549E0,4.6172154E-1,-1.0628265E0,-1.8781077E0,-1.4899495E0,3.0490902E-1,-1.7165459E0,1.09420076E-1,-1.5811048E-1,1.6356597E0,-1.3618357E0,1.1796873E0,-1.7568965E0,1.7162535E-1,-2.0499143E-1,1.8682148E0,-1.431082E0,1.1619666E0,-1.7380661E0,-1.9666688E0,1.055885E0,-1.5703437E0,3.035633E-1,-1.1706003E0,1.872569E-2,1.7555375E0,1.0206791E0,-1.2277269E0,1.0649478E0,-1.4275417E0,-1.9419433E0,-5.8155227E-1,-1.0432367E-1,1.142229E0,-1.486421E0,-1.8612732E-1,1.4466027E0,1.934101E0,-5.776768E-1,1.3054037E0,-1.3235565E0,4.3157563E-1,-1.884761E0,-4.7183955E-1,-9.817975E-1,-1.7406343E0,7.024093E-1,-9.2808294E-1,-6.569553E-1,-1.7853237E0,-1.2149001E0,1.0353822E0,7.783928E-1,-9.076477E-1,8.1823134E-1,1.8714467E0,-2.6876152E-1,-1.5482874E0,1.3818424E0,-5.6203437E-1,-8.6265236E-1,-1.8880843E0,-8.463563E-1,1.1546214E0,1.9005195E0,3.2028618E-1,-2.567577E-1,-1.6278198E0,1.15708716E-1,1.4260037E0,-1.1098086E0,-1.9258116E0,1.3262935E0,1.0712584E-1,-1.6999357E0,-4.893381E-1],"categories":[],"categories_nodes":[],"categories_segments":[],"categories_sizes":[],"default_left":[1,1,1,1,1,1,1,1,1,1,1,1,1,1,1,1,1,1,1,1,1,1,1,1,1,1,1,1,1,1,0,1,1,1,1,1,1,1,1,1,1,1,1,1,1,1,1,1,1,1,1,0,1,1,1,1,0,1,1,0,0,0,0,0,0,0,0,0,0,0,0,0,0,0,0,0,0,0,0,0,0,0,0,0,0,0,0,0,0,0,0,0,0,0,0,0,0,0,0,0,0,0,0,0,0,0,0,0,0,0,0,0,0],"id":1,"left_children":[1,3,5,7,9,11,13,15,17,19,21,23,25,27,29,31,33,35,37,39,41,43,45,47,49,51,53,55,57,59,-1,61,63,65,67,69,71,73,75,77,79,81,83,85,87,89,91,93,95,97,99,-1,101,103,105,107,-1,109,111,-1,-1,-1,-1,-1,-1,-1,-1,-1,-1,-1,-1,-1,-1,-1,-1,-1,-1,-1,-1,-1,-1,-1,-1,-1,-1,-1,-1,-1,-1,-1,-1,-1,-1,-1,-1,-1,-1,-1,-1,-1,-1,-1,-1,-1,-1,-1,-1,-1,-1,-1,-1,-1,-1],"loss_changes":[1.1142475E4,2.436708E3,3.3371045E2,1.6630371E3,4.469157E2,2.2007149E2,4.155713E1,1.9558533E2,5.609883E2,1.7210849E2,1.3067664E2,7.283998E1,4.3311127E1,1.2781494E1,9.2607565E0,4.2790047E1,3.8883728E1,1.25744286E2,2.3003516E2,7.7078857E0,1.90446E2,1.1328648E1,5.2434814E1,2.6208956E1,1.8388306E1,6.967911E0,1.8734615E1,2.5742188E0,2.5375504E1,2.1178966E0,0E0,4.006035E0,1.9508158E1,2.8700161E1,1.22680664E-1,4.4829857E1,3.3302673E1,7.399609E1,1.0138484E2,7.766361E0,5.1086426E-1,1.1580734E1,6.769454E1,3.1959534E-2,7.5508213E0,1.4688491E1,1.9768066E1,7.193022E-1,6.2411804E0,6.7696533E0,7.1103334E0,0E0,1.4588623E0,1.2903833E0,1.0929141E0,1.4334351E1,0E0,9.439373E-1,8.140244E0,0E0,0E0,0E0,0E0,0E0,0E0,0E0,0E0,0E0,0E0,0E0,0E0,0E0,0E0,0E0,0E0,0E0,0E0,0E0,0E0,0E0,0E0,0E0,0E0,0E0,0E0,0E0,0E0,0E0,0E0,0E0,0E0,0E0,0E0,0E0,0E0,0E0,0E0,0E0,0E0,0E0,0E0,0E0,0E0,0E0,0E0,0E0,0E0,0E0,0E0,0E0,0E0,0E0,0E0],"parents":[2147483647,0,0,1,1,2,2,3,3,4,4,5,5,6,6,7,7,8,8,9,9,10,10,11,11,12,12,13,13,14,14,15,15,16,16,17,17,18,18,19,19,20,20,21,21,22,22,23,23,24,24,25,25,26,26,27,27,28,28,29,29,31,31,32,32,33,33,34,34,35,35,36,36,37,37,38,38,39,39,40,40,41,41,42,42,43,43,44,44,45,45,46,46,47,47,48,48,49,49,50,50,52,52,53,53,54,54,55,55,57,57,58,58],"right_children":[2,4,6,8,10,12,14,16,18,20,22,24,26,28,30,32,34,36,38,40,42,44,46,48,50,52,54,56,58,60,-1,62,64,66,68,70,72,74,76,78,80,82,84,86,88,90,92,94,96,98,100,-1,102,104,106,108,-1,110,112,-1,-1,-1,-1,-1,-1,-1,-1,-1,-1,-1,-1,-1,-1,-1,-1,-1,-1,-1,-1,-1,-1,-1,-1,-1,-1,-1,-1,-1,-1,-1,-1,-1,-1,-1,-1,-1,-1,-1,-1,-1,-1,-1,-1,-1,-1,-1,-1,-1,-1,-1,-1,-1,-1],"split_conditions":[1.0519375E1,2.2155867E0,8.361513E-1,2.556093E-1,5.0620705E-2,2.10237E0,3.8981882E-1,2.3731557E-1,-5.151965E-1,-5.311395E-1,-8.908193E-1,3.2012546E-1,1.3947997E2,5.996741E-2,6.9076866E-1,9.9985605E-1,9.98754E-1,1.6943082E0,2.2618303E0,2.5740435E0,5.6505585E0,3.137756E1,4.900481E0,-2.6418227E-1,1.191273E-1,-8.305553E-1,2.6838426E-2,2.9670681E1,9.2733E-1,3.1054222E1,1.5376842E-2,5.882524E-2,2.9128868E-2,1.0396357E0,6.4621296E0,1.51346605E-2,-9.829649E-1,3.9693956E0,3.596434E0,2.533843E0,-5.60056E-1,7.779341E-1,2.4803102E-1,4.3961894E-2,-1.6706377E0,2.6474624E0,1.2738052E1,6.4751015E0,5.165858E-1,2.2416191E-1,6.377933E-1,-2.0499143E-3,1.7317805E0,9.6303785E-1,4.4277006E-1,1.7662561E0,-1.9666689E-2,1.0093102E-1,1.5023494E0,3.035633E-3,-1.1706003E-2,1.872569E-4,1.7555375E-2,1.0206791E-2,-1.2277269E-2,1.0649478E-2,-1.4275417E-2,-1.9419432E-2,-5.8155227E-3,-1.0432367E-3,1.142229E-2,-1.4864209E-2,-1.8612732E-3,1.4466027E-2,1.9341009E-2,-5.7767676E-3,1.3054037E-2,-1.3235565E-2,4.3157563E-3,-1.8847609E-2,-4.7183954E-3,-9.817975E-3,-1.7406343E-2,7.024093E-3,-9.280829E-3,-6.5695527E-3,-1.7853238E-2,-1.21490015E-2,1.0353821E-2,7.783928E-3,-9.076477E-3,8.182313E-3,1.8714467E-2,-2.687615E-3,-1.5482874E-2,1.3818423E-2,-5.6203436E-3,-8.626523E-3,-1.8880842E-2,-8.4635625E-3,1.1546213E-2,1.9005194E-2,3.2028619E-3,-2.567577E-3,-1.6278198E-2,1.1570872E-3,1.4260037E-2,-1.1098085E-2,-1.9258115E-2,1.3262934E-2,1.0712583E-3,-1.6999356E-2,-4.8933807E-3],"split_indices":[0,3,3,2,4,2,4,1,7,8,8,1,0,4,8,7,7,0,1,3,2,6,2,7,4,7,4,0,3,0,0,2,3,1,0,4,7,6,2,3,8,0,5,0,8,3,6,6,3,5,8,0,1,5,9,3,0,4,8,0,0,0,0,0,0,0,0,0,0,0,0,0,0,0,0,0,0,0,0,0,0,0,0,0,0,0,0,0,0,0,0,0,0,0,0,0,0,0,0,0,0,0,0,0,0,0,0,0,0,0,0,0,0],"split_type":[0,0,0,0,0,0,0,0,0,0,0,0,0,0,0,0,0,0,0,0,0,0,0,0,0,0,0,0,0,0,0,0,0,0,0,0,0,0,0,0,0,0,0,0,0,0,0,0,0,0,0,0,0,0,0,0,0,0,0,0,0,0,0,0,0,0,0,0,0,0,0,0,0,0,0,0,0,0,0,0,0,0,0,0,0,0,0,0,0,0,0,0,0,0,0,0,0,0,0,0,0,0,0,0,0,0,0,0,0,0,0,0,0],"sum_hessian":[7.810902E3,6.543998E3,1.2669036E3,5.990679E3,5.5331885E2,1.4659688E2,1.1203066E3,1.8451279E2,5.8061665E3,4.0522668E2,1.4809218E2,9.480933E1,5.178754E1,1.1142753E3,6.031386E0,3.744664E1,1.4706615E2,2.417016E2,5.564465E3,1.6611089E2,2.391158E2,1.9664452E1,1.2842773E2,1.9091059E1,7.571828E1,4.183969E1,9.947847E0,1.0479967E3,6.627854E1,2.5909057E0,3.4404802E0,2.2158504E1,1.52881365E1,1.664171E1,1.3042444E2,1.5705388E2,8.464771E1,5.4507104E3,1.13754524E2,1.746635E1,1.4864455E2,1.0332608E2,1.3578972E2,1.5532682E1,4.1317687E0,1.8918943E1,1.0950878E2,4.5711136E0,1.4519945E1,7.058928E1,5.128994E0,1.4922514E0,4.034744E1,6.394325E0,3.5535228E0,1.3864612E2,9.0935065E2,3.2331195E0,6.304542E1,1.0316434E0,1.5592622E0,1.4376248E0,2.0720879E1,4.94993E0,1.0338206E1,7.6033797E0,9.038329E0,1.293169E2,1.1075461E0,3.774229E1,1.1931159E2,3.0153368E1,5.4494347E1,3.4792072E2,5.1027896E3,5.110704E1,6.2647484E1,1.4969014E1,2.4973364E0,1.4760593E2,1.0386167E0,3.575837E1,6.756771E1,1.03010735E2,3.2778976E1,1.5899383E0,1.3942744E1,1.5717686E0,2.56E0,8.393391E0,1.0525553E1,2.5516884E1,8.39919E1,1.0218667E0,3.549247E0,1.3195066E1,1.324879E0,9.99997E0,6.058931E1,2.5879452E0,2.5410488E0,3.9299496E1,1.0479459E0,1.2483027E0,5.1460223E0,1.0058867E0,2.5476363E0,3.3489773E1,1.0515634E2,2.2063556E0,1.0267638E0,5.5785286E1,7.260136E0],"tree_param":{"num_deleted":"0","num_feature":"10","num_nodes":"113","size_leaf_vector":"0"}},{"base_weights":[9.9439716E-1,1.514796E0,-1.692766E0,1.6984417E0,-4.7279754E-1,-2.8563237E-1,-1.8764873E0,-1.2231447E0,1.7914823E0,-1.0102535E0,9.9480486E-1,-1.1785828E0,1.3405213E0,-1.890593E0,6.274193E-1,7.815406E-1,-1.7354655E0,3.1304592E-1,1.855646E0,-1.770722E0,-4.6108803E-1,-1.3342098E0,1.3589704E0,5.278926E-1,-1.6101536E0,1.7742176E0,-4.788203E-1,-1.9193256E0,-1.4145379E0,-6.5836626E-1,1.525982E0,1.6331514E0,-4.7713253E-1,-2.9025117E-1,-1.9162866E0,8.3558923E-1,-6.5487945E-1,1.8887444E0,6.236989E-1,-1.0755614E0,-1.8493644E0,-1.4706749E0,3.152354E-1,-1.7012099E0,1.0798415E-1,-1.5660244E-1,1.6198926E0,-1.3516368E0,1.1685649E0,-1.7401239E0,1.7042327E-1,-2.037643E-1,1.8505517E0,-1.4195194E0,1.1538324E0,-1.721306E0,-1.9475943E0,1.0487853E0,-1.555282E0,3.0202296E-1,-1.1635418E0,1.8615304E-2,1.7391781E0,1.0122542E0,-1.2166592E0,1.0556164E0,-1.4148852E0,-1.9232187E0,-5.7850385E-1,-1.0330718E-1,1.1310126E0,-1.0732998E0,2.6192993E-1,1.4946038E0,1.9197416E0,-4.5096606E-1,1.4203153E0,-1.3180697E0,4.061726E-1,-1.8597296E0,-1.526961E-1,-9.646954E-1,-1.7212082E0,6.4244443E-1,-1.1320949E0,-6.5293515E-1,-1.7690642E0,-1.2075573E0,1.0279968E0,7.7146924E-1,-8.9940995E-1,8.103973E-1,1.8534389E0,-2.674038E-1,-1.5364257E0,1.3691816E0,-5.588391E-1,-8.548539E-1,-1.8700074E0,-8.4028435E-1,1.146419E0,1.8824884E0,3.1864864E-1,-2.55333E-1,-1.6144612E0,1.15128554E-1,1.41592E0,-1.0991318E0,-1.9072664E0,1.3172876E0,1.0658322E-1,-1.6835976E0,-4.8504505E-1],"categories":[],"categories_nodes":[],"categories_segments":[],"categories_sizes":[],"default_left":[1,1,1,1,1,1,1,1,1,1,1,1,1,1,1,1,1,1,1,1,1,1,1,1,1,1,1,1,1,1,0,1,1,1,1,1,1,1,1,1,1,1,1,1,1,1,1,1,1,1,1,0,1,1,1,1,0,1,1,0,0,0,0,0,0,0,0,0,0,0,0,0,0,0,0,0,0,0,0,0,0,0,0,0,0,0,0,0,0,0,0,0,0,0,0,0,0,0,0,0,0,0,0,0,0,0,0,0,0,0,0,0,0],"id":2,"left_children":[1,3,5,7,9,11,13,15,17,19,21,23,25,27,29,31,33,35,37,39,41,43,45,47,49,51,53,55,57,59,-1,61,63,65,67,69,71,73,75,77,79,81,83,85,87,89,91,93,95,97,99,-1,101,103,105,107,-1,109,111,-1,-1,-1,-1,-1,-1,-1,-1,-1,-1,-1,-1,-1,-1,-1,-1,-1,-1,-1,-1,-1,-1,-1,-1,-1,-1,-1,-1,-1,-1,-1,-1,-1,-1,-1,-1,-1,-1,-1,-1,-1,-1,-1,-1,-1,-1,-1,-1,-1,-1,-1,-1,-1,-1],"loss_changes":[1.0923902E4,2.389209E3,3.2715454E2,1.6304609E3,4.3816193E2,2.1585512E2,4.077954E1,1.918393E2,5.501543E2,1.6880585E2,1.2824118E2,7.1395584E1,4.2491516E1,1.2535156E1,9.127526E0,4.198333E1,3.8127014E1,1.2329364E2,2.2569531E2,7.3025513E0,1.8637183E2,1.1119087E1,5.142572E1,2.576927E1,1.804686E1,6.8437195E0,1.8449787E1,2.5180664E0,2.4952133E1,2.0935173E0,0E0,3.9311638E0,1.9170267E1,2.8193127E1,1.05895996E-1,4.395327E1,3.313512E1,6.3320312E1,1.2654382E2,7.601061E0,2.37677E0,1.143248E1,6.461956E1,2.0641327E-2,7.451959E0,1.4424846E1,1.9385742E1,7.052212E-1,6.1428585E0,6.630966E0,7.008852E0,0E0,1.4225006E0,1.2656708E0,1.0764918E0,1.4056946E1,0E0,9.3043375E-1,7.9769135E0,0E0,0E0,0E0,0E0,0E0,0E0,0E0,0E0,0E0,0E0,0E0,0E0,0E0,0E0,0E0,0E0,0E0,0E0,0E0,0E0,0E0,0E0,0E0,0E0,0E0,0E0,0E0,0E0,0E0,0E0,0E0,0E0,0E0,0E0,0E0,0E0,0E0,0E0,0E0,0E0,0E0,0E0,0E0,0E0,0E0,0E0,0E0,0E0,0E0,0E0,0E0,0E0,0E0,0E0],"parents":[2147483647,0,0,1,1,2,2,3,3,4,4,5,5,6,6,7,7,8,8,9,9,10,10,11,11,12,12,13,13,14,14,15,15,16,16,17,17,18,18,19,19,20,20,21,21,22,22,23,23,24,24,25,25,26,26,27,27,28,28,29,29,31,31,32,32,33,33,34,34,35,35,36,36,37,37,38,38,39,39,40,40,41,41,42,42,43,43,44,44,45,45,46,46,47,47,48,48,49,49,50,50,52,52,53,53,54,54,55,55,57,57,58,58],"right_children":[2,4,6,8,10,12,14,16,18,20,22,24,26,28,30,32,34,36,38,40,42,44,46,48,50,52,54,56,58,60,-1,62,64,66,68,70,72,74,76,78,80,82,84,86,88,90,92,94,96,98,100,-1,102,104,106,108,-1,110,112,-1,-1,-1,-1,-1,-1,-1,-1,-1,-1,-1,-1,-1,-1,-1,-1,-1,-1,-1,-1,-1,-1,-1,-1,-1,-1,-1,-1,-1,-1,-1,-1,-1,-1,-1,-1,-1,-1,-1,-1,-1,-1,-1,-1,-1,-1,-1,-1,-1,-1,-1,-1,-1,-1],"split_conditions":[1.0519375E1,2.2155867E0,8.361513E-1,2.556093E-1,5.0620705E-2,2.10237E0,3.8981882E-1,2.3731557E-1,-5.151965E-1,-5.050449E-1,-8.908193E-1,3.2012546E-1,1.3947997E2,5.996741E-2,6.9076866E-1,9.9985605E-1,9.98754E-1,1.6943082E0,2.0860753E0,2.5740435E0,5.6505585E0,3.137756E1,4.900481E0,-2.6418227E-1,1.191273E-1,-8.305553E-1,2.6838426E-2,2.9670681E1,9.2733E-1,3.1054222E1,1.525982E-2,5.882524E-2,2.9128868E-2,1.0396357E0,6.4621296E0,1.51346605E-2,3.190209E-2,4.678795E0,3.6127124E0,2.533843E0,4.9252346E-2,7.779341E-1,3.9889055E-1,4.3961894E-2,-1.6706377E0,2.6474624E0,1.2738052E1,6.4751015E0,5.165858E-1,2.2416191E-1,6.377933E-1,-2.037643E-3,1.7317805E0,9.6303785E-1,4.4277006E-1,1.7662561E0,-1.9475942E-2,1.0093102E-1,1.5023494E0,3.0202295E-3,-1.1635418E-2,1.8615303E-4,1.739178E-2,1.0122542E-2,-1.2166591E-2,1.0556163E-2,-1.4148851E-2,-1.9232187E-2,-5.785038E-3,-1.0330718E-3,1.1310126E-2,-1.0732997E-2,2.6192993E-3,1.4946037E-2,1.9197416E-2,-4.5096604E-3,1.4203153E-2,-1.3180696E-2,4.061726E-3,-1.8597296E-2,-1.526961E-3,-9.646954E-3,-1.7212082E-2,6.4244443E-3,-1.1320949E-2,-6.529351E-3,-1.7690642E-2,-1.2075573E-2,1.0279967E-2,7.714692E-3,-8.9941E-3,8.103973E-3,1.8534388E-2,-2.674038E-3,-1.5364257E-2,1.36918165E-2,-5.588391E-3,-8.548539E-3,-1.8700074E-2,-8.402843E-3,1.1464191E-2,1.8824883E-2,3.1864862E-3,-2.55333E-3,-1.6144611E-2,1.1512855E-3,1.41592E-2,-1.0991318E-2,-1.9072663E-2,1.3172875E-2,1.0658322E-3,-1.6835975E-2,-4.8504504E-3],"split_indices":[0,3,3,2,4,2,4,1,7,8,8,1,0,4,8,7,7,0,1,3,2,6,2,7,4,7,4,0,3,0,0,2,3,1,0,4,4,6,2,3,4,0,5,0,8,3,6,6,3,5,8,0,1,5,9,3,0,4,8,0,0,0,0,0,0,0,0,0,0,0,0,0,0,0,0,0,0,0,0,0,0,0,0,0,0,0,0,0,0,0,0,0,0,0,0,0,0,0,0,0,0,0,0,0,0,0,0,0,0,0,0,0,0],"split_type":[0,0,0,0,0,0,0,0,0,0,0,0,0,0,0,0,0,0,0,0,0,0,0,0,0,0,0,0,0,0,0,0,0,0,0,0,0,0,0,0,0,0,0,0,0,0,0,0,0,0,0,0,0,0,0,0,0,0,0,0,0,0,0,0,0,0,0,0,0,0,0,0,0,0,0,0,0,0,0,0,0,0,0,0,0,0,0,0,0,0,0,0,0,0,0,0,0,0,0,0,0,0,0,0,0,0,0,0,0,0,0,0,0],"sum_hessian":[7.8089E3,6.54234E3,1.2665602E3,5.9891147E3,5.532249E2,1.4656488E2,1.1199952E3,1.8446751E2,5.804647E3,4.0516107E2,1.4806386E2,9.478949E1,5.177539E1,1.1139646E3,6.0306044E0,3.7440258E1,1.4702725E2,2.4168597E2,5.5629614E3,1.6896239E2,2.3619867E2,1.9660666E1,1.284032E2,1.908848E1,7.570101E1,4.1828968E1,9.946423E0,1.0476987E3,6.626595E1,2.5907373E0,3.439867E0,2.2153685E1,1.52865715E1,1.663967E1,1.3038759E2,1.570421E2,8.4643875E1,5.4168945E3,1.4606685E2,1.8663393E1,1.50299E2,1.0228521E2,1.3391345E2,1.5529278E1,4.131387E0,1.8917906E1,1.0948529E2,4.570466E0,1.4518013E1,7.057241E1,5.128599E0,1.4922469E0,4.033672E1,6.393291E0,3.5531313E0,1.3861356E2,9.0908514E2,3.2328262E0,6.3033127E1,1.0316362E0,1.5591012E0,1.4376247E0,2.071606E1,4.9495416E0,1.033703E1,7.602729E0,9.03694E0,1.2928006E2,1.1075178E0,3.7742264E1,1.19299835E2,5.8001865E1,2.6642015E1,3.985405E2,5.018354E3,6.2366306E1,8.370055E1,1.6133377E1,2.5300167E0,1.4929085E2,1.0081526E0,3.548002E1,6.680519E1,1.096746E2,2.4238857E1,1.5898867E0,1.3939391E1,1.5715941E0,2.5597932E0,8.393007E0,1.0524899E1,2.5515594E1,8.3969696E1,1.0218611E0,3.5486052E0,1.3193166E1,1.3248476E0,9.999409E0,6.0573E1,2.5878057E0,2.5407934E0,3.9288784E1,1.0479376E0,1.2482964E0,5.1449947E0,1.0058856E0,2.5472457E0,3.3486656E1,1.051269E2,2.2060633E0,1.026763E0,5.5773125E1,7.2600045E0],"tree_param":{"num_deleted":"0","num_feature":"10","num_nodes":"113","size_leaf_vector":"0"}},{"base_weights":[9.848577E-1,1.5002717E0,-1.6766415E0,1.6821887E0,-4.6831083E-1,-2.8299612E-1,-1.8586193E0,-1.2114719E0,1.7743427E0,-1.1408855E0,6.848154E-1,-1.1675527E0,1.3279358E0,-1.8725991E0,6.2220496E-1,7.74342E-1,-1.7190493E0,3.099587E-1,1.8379178E0,-1.7879119E0,-6.2456876E-1,-1.374787E0,1.0969937E0,5.2223E-1,-1.59496E0,1.7576687E0,-4.744441E-1,-1.901071E0,-1.4009366E0,-6.5423286E-1,1.5145054E0,1.6181352E0,-4.725619E-1,-2.8760767E-1,-1.8981922E0,8.274003E-1,-6.48481E-1,1.8667767E0,4.515541E-1,-1.1363077E0,-1.8569176E0,-1.3134471E0,3.4569195E-1,-1.7033843E0,-5.399614E-1,-4.891746E-1,1.478879E0,-1.3416165E0,1.1576399E0,-1.7237737E0,1.6923662E-1,-2.0254487E-1,1.8333638E0,-1.4081793E0,1.14582E0,-1.7049645E0,-1.9290681E0,1.0417812E0,-1.5405566E0,3.0049106E-1,-1.1565737E0,1.8505497E-2,1.7232184E0,-1.236447E0,9.498812E-1,1.0464181E0,-1.4024669E0,-1.9050221E0,-5.754765E-1,-1.0230097E-1,1.119977E0,-1.4646244E0,-1.7870739E-1,1.4181095E0,1.8970934E0,-4.7960764E-1,1.3586017E0,-1.4315203E0,5.216211E-1,-1.6507903E0,-7.006613E-1,-9.728404E-1,7.6377434E-1,1.0858749E0,-1.1329827E0,2.8591156E-1,-1.300574E0,6.455444E-1,1.7565838E0,-2.6605362E-1,-1.5247948E0,1.3567548E0,-5.5566704E-1,-8.471541E-1,-1.8524203E0,-8.342777E-1,1.1383286E0,1.8649495E0,3.1702003E-1,-2.5391656E-1,-1.6013871E0,1.14551276E-1,1.4060086E0,-1.0886216E0,-1.8892382E0,1.3084214E0,1.06043294E-1,-1.6676483E0,-4.8079443E-1],"categories":[],"categories_nodes":[],"categories_segments":[],"categories_sizes":[],"default_left":[1,1,1,1,1,1,1,1,1,1,1,1,1,1,1,1,1,1,1,1,1,1,1,1,1,1,1,1,1,1,0,1,1,1,1,1,1,1,1,1,0,1,1,0,1,1,1,1,1,1,1,0,1,1,1,1,0,1,1,0,0,0,0,0,0,0,0,0,0,0,0,0,0,0,0,0,0,0,0,0,0,0,0,0,0,0,0,0,0,0,0,0,0,0,0,0,0,0,0,0,0,0,0,0,0,0,0,0,0],"id":3,"left_children":[1,3,5,7,9,11,13,15,17,19,21,23,25,27,29,31,33,35,37,39,41,43,45,47,49,51,53,55,57,59,-1,61,63,65,67,69,71,73,75,77,-1,79,81,-1,83,85,87,89,91,93,95,-1,97,99,101,103,-1,105,107,-1,-1,-1,-1,-1,-1,-1,-1,-1,-1,-1,-1,-1,-1,-1,-1,-1,-1,-1,-1,-1,-1,-1,-1,-1,-1,-1,-1,-1,-1,-1,-1,-1,-1,-1,-1,-1,-1,-1,-1,-1,-1,-1,-1,-1,-1,-1,-1,-1,-1],"loss_changes":[1.0711422E4,2.3431035E3,3.2080054E2,1.5988008E3,4.304994E2,2.1174965E2,4.0025146E1,1.8819897E2,5.3969336E2,1.1591867E2,1.7531746E2,6.9991E1,4.1695198E1,1.230249E1,8.996991E0,4.119774E1,3.7396698E1,1.2088021E2,2.2166602E2,4.8571167E0,1.3171516E2,8.567673E0,1.0439848E2,2.5338997E1,1.771579E1,6.723633E0,1.8170786E1,2.4660645E0,2.4539062E1,2.0695128E0,0E0,3.858776E0,1.8868395E1,2.7697191E1,9.008789E-2,4.3098175E1,3.257156E1,7.141016E1,9.75518E1,9.27018E0,0E0,2.262703E1,4.612817E1,0E0,1.2059994E1,2.1731262E1,3.0846802E1,6.9160557E-1,6.046711E0,6.499115E0,6.9090962E0,0E0,1.3877411E0,1.2417974E0,1.0604825E0,1.3793976E1,0E0,9.172425E-1,7.819931E0,0E0,0E0,0E0,0E0,0E0,0E0,0E0,0E0,0E0,0E0,0E0,0E0,0E0,0E0,0E0,0E0,0E0,0E0,0E0,0E0,0E0,0E0,0E0,0E0,0E0,0E0,0E0,0E0,0E0,0E0,0E0,0E0,0E0,0E0,0E0,0E0,0E0,0E0,0E0,0E0,0E0,0E0,0E0,0E0,0E0,0E0,0E0,0E0,0E0,0E0],"parents":[2147483647,0,0,1,1,2,2,3,3,4,4,5,5,6,6,7,7,8,8,9,9,10,10,11,11,12,12,13,13,14,14,15,15,16,16,17,17,18,18,19,19,20,20,21,21,22,22,23,23,24,24,25,25,26,26,27,27,28,28,29,29,31,31,32,32,33,33,34,34,35,35,36,36,37,37,38,38,39,39,41,41,42,42,44,44,45,45,46,46,47,47,48,48,49,49,50,50,52,52,53,53,54,54,55,55,57,57,58,58],"right_children":[2,4,6,8,10,12,14,16,18,20,22,24,26,28,30,32,34,36,38,40,42,44,46,48,50,52,54,56,58,60,-1,62,64,66,68,70,72,74,76,78,-1,80,82,-1,84,86,88,90,92,94,96,-1,98,100,102,104,-1,106,108,-1,-1,-1,-1,-1,-1,-1,-1,-1,-1,-1,-1,-1,-1,-1,-1,-1,-1,-1,-1,-1,-1,-1,-1,-1,-1,-1,-1,-1,-1,-1,-1,-1,-1,-1,-1,-1,-1,-1,-1,-1,-1,-1,-1,-1,-1,-1,-1,-1,-1],"split_conditions":[1.0519375E1,2.2155867E0,8.361513E-1,2.556093E-1,3.431395E-2,2.10237E0,3.8981882E-1,2.3731557E-1,-5.151965E-1,-5.050449E-1,-7.7773625E-1,3.2012546E-1,1.3947997E2,5.996741E-2,6.9076866E-1,9.9985605E-1,9.98754E-1,1.6943082E0,2.2618303E0,2.5740435E0,6.748268E0,2.4032726E1,5.115943E0,-2.6418227E-1,1.191273E-1,-8.305553E-1,2.6838426E-2,2.9670681E1,9.2733E-1,3.1054222E1,1.5145053E-2,5.882524E-2,1.6347098E-1,1.0396357E0,6.4621296E0,1.51346605E-2,-9.829649E-1,3.9693956E0,3.9125218E0,2.533843E0,-1.8569175E-2,4.9418354E0,5.6700797E0,-1.7033843E-2,3.2761663E-1,7.844777E-1,1.2738052E1,6.4751015E0,5.165858E-1,2.2416191E-1,6.377933E-1,-2.0254487E-3,1.7317805E0,9.6303785E-1,4.4277006E-1,1.7662561E0,-1.929068E-2,1.0093102E-1,1.5023494E0,3.0049107E-3,-1.15657365E-2,1.8505496E-4,1.7232183E-2,-1.23644695E-2,9.498811E-3,1.046418E-2,-1.4024668E-2,-1.9050222E-2,-5.754765E-3,-1.0230097E-3,1.119977E-2,-1.4646243E-2,-1.7870739E-3,1.4181095E-2,1.8970933E-2,-4.796076E-3,1.3586016E-2,-1.4315203E-2,5.216211E-3,-1.6507903E-2,-7.006613E-3,-9.728404E-3,7.6377434E-3,1.0858749E-2,-1.1329827E-2,2.8591156E-3,-1.3005739E-2,6.455444E-3,1.7565837E-2,-2.6605362E-3,-1.5247948E-2,1.3567547E-2,-5.5566705E-3,-8.47154E-3,-1.8524203E-2,-8.342776E-3,1.1383285E-2,1.8649494E-2,3.1702002E-3,-2.5391656E-3,-1.6013872E-2,1.1455127E-3,1.4060086E-2,-1.0886216E-2,-1.8892381E-2,1.3084213E-2,1.0604329E-3,-1.6676484E-2,-4.8079444E-3],"split_indices":[0,3,3,2,4,2,4,1,7,8,8,1,0,4,8,7,7,0,1,3,2,6,2,7,4,7,4,0,3,0,0,2,2,1,0,4,7,6,2,3,0,2,6,0,5,0,6,6,3,5,8,0,1,5,9,3,0,4,8,0,0,0,0,0,0,0,0,0,0,0,0,0,0,0,0,0,0,0,0,0,0,0,0,0,0,0,0,0,0,0,0,0,0,0,0,0,0,0,0,0,0,0,0,0,0,0,0,0,0],"split_type":[0,0,0,0,0,0,0,0,0,0,0,0,0,0,0,0,0,0,0,0,0,0,0,0,0,0,0,0,0,0,0,0,0,0,0,0,0,0,0,0,0,0,0,0,0,0,0,0,0,0,0,0,0,0,0,0,0,0,0,0,0,0,0,0,0,0,0,0,0,0,0,0,0,0,0,0,0,0,0,0,0,0,0,0,0,0,0,0,0,0,0,0,0,0,0,0,0,0,0,0,0,0,0,0,0,0,0,0,0],"sum_hessian":[7.8056104E3,6.5396143E3,1.2659961E3,5.9865425E3,5.5307214E2,1.4651231E2,1.1194838E3,1.8439317E2,5.802149E3,3.4933118E2,2.0374095E2,9.47569E1,5.175542E1,1.1134545E3,6.029317E0,3.7429764E1,1.4696341E2,2.4165935E2,5.5604897E3,1.5394763E2,1.9538356E2,3.358509E1,1.7015587E2,1.9084236E1,7.567266E1,4.1811348E1,9.944074E0,1.0472092E3,6.624526E1,2.5904598E0,3.4388568E0,2.2145765E1,1.52839985E1,1.6636312E1,1.303271E2,1.5702275E2,8.463659E1,5.4467617E3,1.13728035E2,1.6414684E1,1.3753294E2,1.1405301E2,8.133055E1,2.3352757E1,1.0232333E1,3.29629E1,1.3719296E2,4.569401E0,1.4514835E1,7.0544716E1,5.1279473E0,1.4922388E0,4.0319107E1,6.3915877E0,3.5524862E0,1.3856009E2,9.086492E2,3.2323422E0,6.301292E1,1.0316244E0,1.5588355E0,1.4376247E0,2.0708141E1,1.0028968E1,5.2550306E0,7.6016593E0,9.034654E0,1.2921964E2,1.1074712E0,3.7742214E1,1.1928054E2,3.0145948E1,5.4490643E1,3.4776923E2,5.0989927E3,5.6350586E1,5.7377445E1,1.4049564E1,2.3651204E0,7.246601E1,4.1586994E1,1.9260525E1,6.2070026E1,2.5126164E0,7.7197165E0,1.718992E1,1.5772976E1,3.5122425E1,1.0207054E2,1.0218519E0,3.547549E0,1.319004E1,1.3247956E0,9.998486E0,6.0546227E1,2.587575E0,2.5403724E0,3.9271183E1,1.0479243E0,1.2482862E0,5.1433015E0,1.0058839E0,2.5466022E0,3.3481544E1,1.0507855E2,2.2055807E0,1.0267615E0,5.575313E1,7.2597895E0],"tree_param":{"num_deleted":"0","num_feature":"10","num_nodes":"109","size_leaf_vector":"0"}},{"base_weights":[9.7556293E-1,1.4861169E0,-1.6609529E0,1.6663612E0,-4.6389404E-1,-3.554684E-1,-1.8517135E0,-1.1974924E0,1.7577366E0,-1.1300354E0,6.7817855E-1,-1.1577274E0,1.0878124E0,-1.8650292E0,5.8401585E-1,7.730879E-1,-1.7034006E0,2.959728E-1,1.8203462E0,-1.7712235E0,-6.1857146E-1,-1.3620726E0,1.0864587E0,4.433173E-1,-1.533398E0,1.6706533E0,-7.340128E-1,-1.6098504E0,-1.9034287E0,-7.0747286E-1,1.4893105E0,1.606337E0,-4.680688E-1,-2.9870582E-1,-1.8805997E0,8.027274E-1,-6.376996E-1,1.8530595E0,6.077836E-1,-1.1257815E0,-1.8395938E0,-1.3009076E0,3.4222135E-1,-1.6878635E0,-5.346822E-1,-4.8463544E-1,1.4648147E0,-1.3652512E0,1.089232E0,-1.7385118E0,1.7064701E-1,-1.6834788E-2,1.8178111E0,-1.5555403E0,1.0267982E0,-9.0315723E-1,-1.8349335E0,2.1159135E-1,-1.1663634E0,2.7981564E-2,1.7109523E0,1.0035766E0,-1.1992165E0,9.8875E-1,-1.390279E0,-1.8873324E0,-5.7247007E-1,-1.03958696E-1,1.0928082E0,-1.0517823E0,2.8389543E-1,1.46764E0,1.8834833E0,-4.4370142E-1,1.3898145E0,-1.4186056E0,5.179691E-1,-1.6352183E0,-6.938608E-1,-9.635533E-1,7.5630057E-1,1.0781062E0,-1.1231642E0,2.832085E-1,-1.2886362E0,6.393111E-1,1.7400234E0,-2.6471055E-1,-1.5414779E0,1.326269E0,-9.496649E-1,-6.970463E-1,-1.8439144E0,1.1411829E0,-8.6282754E-1,9.6731544E-1,-8.2338333E-1,2.2544631E-1,1.854112E0,-3.0065468E-1,-1.6563525E0,-7.7151835E-2,1.3289145E0,-1.5734499E0,9.149188E-1,-1.8705528E0,-4.9011335E-1],"categories":[],"categories_nodes":[],"categories_segments":[],"categories_sizes":[],"default_left":[1,1,1,1,1,1,1,1,1,1,1,1,1,1,1,1,1,1,1,1,1,1,1,1,1,1,1,1,0,1,0,1,1,1,1,1,1,1,1,1,0,1,1,0,1,1,1,1,1,1,1,1,1,1,1,1,1,0,0,0,0,0,0,0,0,0,0,0,0,0,0,0,0,0,0,0,0,0,0,0,0,0,0,0,0,0,0,0,0,0,0,0,0,0,0,0,0,0,0,0,0,0,0,0,0,0,0],"id":4,"left_children":[1,3,5,7,9,11,13,15,17,19,21,23,25,27,29,31,33,35,37,39,41,43,45,47,49,51,53,55,-1,57,-1,59,61,63,65,67,69,71,73,75,-1,77,79,-1,81,83,85,87,89,91,93,95,97,99,101,103,105,-1,-1,-1,-1,-1,-1,-1,-1,-1,-1,-1,-1,-1,-1,-1,-1,-1,-1,-1,-1,-1,-1,-1,-1,-1,-1,-1,-1,-1,-1,-1,-1,-1,-1,-1,-1,-1,-1,-1,-1,-1,-1,-1,-1,-1,-1,-1,-1,-1,-1],"loss_changes":[1.0504743E4,2.2983457E3,3.1467432E2,1.5680312E3,4.2214676E2,1.896142E2,3.691333E1,1.86367E2,5.302246E2,1.1375256E2,1.7197058E2,6.3856903E1,6.3484627E1,7.7026367E0,8.96554E0,4.0678963E1,3.628009E1,1.13776825E2,2.1946094E2,4.762848E0,1.2916672E2,8.416565E0,1.0241765E2,2.5712929E1,3.0111145E1,1.1137451E1,2.3159758E1,2.2234558E1,0E0,1.7088538E0,0E0,3.8035393E0,1.8722836E1,2.6345985E1,7.543945E-2,4.1041534E1,3.2650593E1,6.0722656E1,1.21966705E2,9.114672E0,0E0,2.220755E1,4.52429E1,0E0,1.1869913E1,2.1329548E1,3.0271332E1,7.364521E-1,8.91342E0,7.082245E0,1.1090138E1,4.4306254E0,1.960556E0,8.381367E-1,1.885036E0,4.8055714E1,4.493683E0,0E0,0E0,0E0,0E0,0E0,0E0,0E0,0E0,0E0,0E0,0E0,0E0,0E0,0E0,0E0,0E0,0E0,0E0,0E0,0E0,0E0,0E0,0E0,0E0,0E0,0E0,0E0,0E0,0E0,0E0,0E0,0E0,0E0,0E0,0E0,0E0,0E0,0E0,0E0,0E0,0E0,0E0,0E0,0E0,0E0,0E0,0E0,0E0,0E0,0E0],"parents":[2147483647,0,0,1,1,2,2,3,3,4,4,5,5,6,6,7,7,8,8,9,9,10,10,11,11,12,12,13,13,14,14,15,15,16,16,17,17,18,18,19,19,20,20,21,21,22,22,23,23,24,24,25,25,26,26,27,27,29,29,31,31,32,32,33,33,34,34,35,35,36,36,37,37,38,38,39,39,41,41,42,42,44,44,45,45,46,46,47,47,48,48,49,49,50,50,51,51,52,52,53,53,54,54,55,55,56,56],"right_children":[2,4,6,8,10,12,14,16,18,20,22,24,26,28,30,32,34,36,38,40,42,44,46,48,50,52,54,56,-1,58,-1,60,62,64,66,68,70,72,74,76,-1,78,80,-1,82,84,86,88,90,92,94,96,98,100,102,104,106,-1,-1,-1,-1,-1,-1,-1,-1,-1,-1,-1,-1,-1,-1,-1,-1,-1,-1,-1,-1,-1,-1,-1,-1,-1,-1,-1,-1,-1,-1,-1,-1,-1,-1,-1,-1,-1,-1,-1,-1,-1,-1,-1,-1,-1,-1,-1,-1,-1,-1],"split_conditions":[1.0519375E1,2.2155867E0,9.160782E-1,2.5621402E-1,3.431395E-2,2.119506E0,3.8981882E-1,2.3731557E-1,-5.3034866E-1,-5.050449E-1,-7.7773625E-1,3.2012546E-1,1.13816696E2,2.8287788E1,6.9076866E-1,9.9985605E-1,9.98754E-1,1.6943082E0,2.0860753E0,2.5740435E0,6.748268E0,2.4032726E1,5.115943E0,-2.6418227E-1,6.242352E-2,2.2639541E-1,2.6838426E-2,1.7659702E0,-1.9034287E-2,2.3660746E0,1.4893104E-2,1.2698501E-2,2.9128868E-2,1.0396357E0,6.4621296E0,1.51346605E-2,3.254223E-2,4.678795E0,3.6127124E0,2.533843E0,-1.8395938E-2,4.9418354E0,5.6700797E0,-1.6878635E-2,3.2761663E-1,7.844777E-1,1.2738052E1,6.4751015E0,5.184194E-1,1.4077939E-1,1.0043796E0,5.747751E-1,1.2704399E-1,3.5701352E-1,8.502332E-1,4.374749E0,1.5731323E-1,2.1159134E-3,-1.1663633E-2,2.7981563E-4,1.7109523E-2,1.0035766E-2,-1.1992165E-2,9.8875E-3,-1.390279E-2,-1.8873325E-2,-5.7247006E-3,-1.039587E-3,1.0928082E-2,-1.0517823E-2,2.8389543E-3,1.46764E-2,1.8834833E-2,-4.437014E-3,1.38981445E-2,-1.4186055E-2,5.1796907E-3,-1.6352182E-2,-6.9386084E-3,-9.635533E-3,7.5630057E-3,1.0781062E-2,-1.1231641E-2,2.832085E-3,-1.2886362E-2,6.3931104E-3,1.7400233E-2,-2.6471054E-3,-1.5414779E-2,1.326269E-2,-9.496649E-3,-6.970463E-3,-1.8439144E-2,1.1411829E-2,-8.628275E-3,9.673154E-3,-8.233833E-3,2.254463E-3,1.854112E-2,-3.0065468E-3,-1.6563525E-2,-7.7151833E-4,1.3289145E-2,-1.5734497E-2,9.149187E-3,-1.8705528E-2,-4.9011335E-3],"split_indices":[0,3,3,2,4,2,4,1,7,8,8,1,0,0,8,7,7,0,1,3,2,6,2,7,4,7,4,3,0,5,0,4,3,1,0,4,4,6,2,3,0,2,6,0,5,0,6,6,3,5,5,3,9,1,7,2,4,0,0,0,0,0,0,0,0,0,0,0,0,0,0,0,0,0,0,0,0,0,0,0,0,0,0,0,0,0,0,0,0,0,0,0,0,0,0,0,0,0,0,0,0,0,0,0,0,0,0],"split_type":[0,0,0,0,0,0,0,0,0,0,0,0,0,0,0,0,0,0,0,0,0,0,0,0,0,0,0,0,0,0,0,0,0,0,0,0,0,0,0,0,0,0,0,0,0,0,0,0,0,0,0,0,0,0,0,0,0,0,0,0,0,0,0,0,0,0,0,0,0,0,0,0,0,0,0,0,0,0,0,0,0,0,0,0,0,0,0,0,0,0,0,0,0,0,0,0,0,0,0,0,0,0,0,0,0,0,0],"sum_hessian":[7.801097E3,6.535879E3,1.2652184E3,5.9830005E3,5.5287823E2,1.6167143E2,1.1035469E3,1.8461942E2,5.7983813E3,3.49206E2,2.0367226E2,1.0403861E2,5.7632828E1,1.0977799E3,5.7670574E0,3.7607002E1,1.470124E2,2.3838844E2,5.5599927E3,1.5385951E2,1.9534647E2,3.3571777E1,1.7010048E2,1.9738102E1,8.430051E1,4.37267E1,1.3906128E1,1.4920161E2,9.4857825E2,2.4666555E0,3.3004017E0,2.232495E1,1.5282054E1,1.6768745E1,1.3024367E2,1.5461224E2,8.37762E1,5.413418E3,1.4657506E2,1.6409851E1,1.3744966E2,1.1401867E2,8.1327805E1,2.3341076E1,1.02307E1,3.295917E1,1.3714131E2,4.9011507E0,1.483695E1,7.522549E1,9.075025E0,3.5783753E0,4.0148323E1,9.561618E0,4.34451E0,3.72525E1,1.1194911E2,1.000921E0,1.4657345E0,1.4665312E0,2.085842E1,4.9487214E0,1.0333332E1,7.7372475E0,9.031498E0,1.2913626E2,1.1074064E0,3.7631527E1,1.1698071E2,5.770669E1,2.6069506E1,3.996568E2,5.013761E3,6.2701694E1,8.387336E1,1.4044822E1,2.3650281E0,7.243421E1,4.1584454E1,1.9261333E1,6.206647E1,2.512621E0,7.718079E0,1.718999E1,1.5769183E1,3.5119987E1,1.0202132E2,1.0218391E0,3.8793116E0,1.3604806E1,1.2321448E0,7.6132617E0,6.761222E1,4.6262727E0,4.448752E0,1.5219569E0,2.0564184E0,1.0555651E0,3.909276E1,1.0071534E0,8.554464E0,1.0934843E0,3.2510257E0,2.731609E1,9.936409E0,1.0867966E2,3.2694526E0],"tree_param":{"num_deleted":"0","num_feature":"10","num_nodes":"107","size_leaf_vector":"0"}},{"base_weights":[9.6650845E-1,1.4723257E0,-1.6456777E0,1.6509482E0,-4.595674E-1,-2.777396E-1,-1.8243557E0,-1.186417E0,1.7414833E0,-9.82721E-1,9.6921253E-1,-1.2090507E0,1.1988316E0,-1.8380957E0,6.1181295E-1,7.6610386E-1,-1.6878383E0,3.0255702E-1,1.8039715E0,-1.7330579E0,-4.5706233E-1,-1.2967869E0,1.3235115E0,4.6254355E-1,-1.6056412E0,-1.3116878E0,1.5148561E0,-1.8661971E0,-1.3728825E0,-6.464879E-1,1.4921992E0,1.5919354E0,-4.6362317E-1,-3.0382732E-1,-1.8645613E0,8.100833E-1,-6.36253E-1,1.8323572E0,4.417251E-1,-1.0235045E0,-1.8091122E0,-1.4361058E0,2.9219875E-1,-1.6570026E0,1.1512797E-1,-1.4891155E-1,1.5772632E0,-1.2887068E0,1.0929177E0,-1.726888E0,8.900331E-2,-3.3182517E-1,-1.4919635E0,1.7596143E0,-2.0942637E-1,-1.6736884E0,-1.8936862E0,1.0272664E0,-1.5102122E0,2.9892248E-1,-1.1445926E0,1.12095885E-2,1.6953069E0,-1.2189015E0,9.419312E-1,9.477945E-1,-1.3797699E0,-1.8712195E0,-5.6948423E-1,-1.0034893E-1,1.0971931E0,-1.4436165E0,-1.718002E-1,1.3920885E0,1.8621122E0,-4.7221002E-1,1.3325958E0,-1.2752324E0,4.1753963E-1,-1.8156745E0,-4.436196E-1,-9.4127053E-1,-1.6806326E0,6.8242145E-1,-9.179159E-1,-6.283758E-1,-1.7244333E0,-1.1869196E0,1.0231049E0,7.6657236E-1,-8.8228077E-1,7.919222E-1,1.8040928E0,-2.633749E-1,-1.4730829E0,1.2702954E0,-5.305633E-1,-1.0026469E0,-1.8193396E0,-9.208595E-1,1.0941495E0,1.7869657E0,3.1020468E-1,1.0163673E0,-1.3021661E0,-1.0689603E0,-1.8546474E0,1.2914817E0,1.0268641E-1,-1.0229099E0,-1.8172959E0],"categories":[],"categories_nodes":[],"categories_segments":[],"categories_sizes":[],"default_left":[1,1,1,1,1,1,1,1,1,1,1,1,1,1,1,1,1,1,1,1,1,1,1,1,1,1,1,1,1,1,0,1,1,1,1,1,1,1,1,1,1,1,1,1,1,1,1,1,1,1,1,0,0,1,1,1,0,1,1,0,0,0,0,0,0,0,0,0,0,0,0,0,0,0,0,0,0,0,0,0,0,0,0,0,0,0,0,0,0,0,0,0,0,0,0,0,0,0,0,0,0,0,0,0,0,0,0,0,0,0,0],"id":5,"left_children":[1,3,5,7,9,11,13,15,17,19,21,23,25,27,29,31,33,35,37,39,41,43,45,47,49,51,53,55,57,59,-1,61,63,65,67,69,71,73,75,77,79,81,83,85,87,89,91,93,95,97,99,-1,-1,101,103,105,-1,107,109,-1,-1,-1,-1,-1,-1,-1,-1,-1,-1,-1,-1,-1,-1,-1,-1,-1,-1,-1,-1,-1,-1,-1,-1,-1,-1,-1,-1,-1,-1,-1,-1,-1,-1,-1,-1,-1,-1,-1,-1,-1,-1,-1,-1,-1,-1,-1,-1,-1,-1,-1,-1],"loss_changes":[1.0303685E4,2.2548652E3,3.0874316E2,1.5380918E3,4.147724E2,2.0407774E2,3.8576904E1,1.828949E2,5.205176E2,1.5924069E2,1.2124762E2,6.0975037E1,4.7601677E1,1.1986328E1,8.747343E0,3.9927666E1,3.5608063E1,1.1600603E2,2.139414E2,7.1491394E0,1.7643741E2,1.0686302E1,4.8526184E1,2.1498905E1,1.5288162E1,7.3510075E-1,2.211567E1,2.3693848E0,2.3693512E1,2.0325835E0,0E0,3.7901535E0,1.8428642E1,2.5469196E1,6.365967E-2,4.1350883E1,3.1856113E1,6.8671875E1,9.40004E1,7.22513E0,5.328369E-1,1.1025497E1,6.5205055E1,6.1328888E-2,7.278857E0,1.404611E1,1.8226257E1,6.0940075E-1,4.6833725E0,2.7817688E0,6.965048E0,0E0,0E0,1.2387695E0,1.1100213E1,1.3271301E1,0E0,9.009142E-1,7.710083E0,0E0,0E0,0E0,0E0,0E0,0E0,0E0,0E0,0E0,0E0,0E0,0E0,0E0,0E0,0E0,0E0,0E0,0E0,0E0,0E0,0E0,0E0,0E0,0E0,0E0,0E0,0E0,0E0,0E0,0E0,0E0,0E0,0E0,0E0,0E0,0E0,0E0,0E0,0E0,0E0,0E0,0E0,0E0,0E0,0E0,0E0,0E0,0E0,0E0,0E0,0E0,0E0],"parents":[2147483647,0,0,1,1,2,2,3,3,4,4,5,5,6,6,7,7,8,8,9,9,10,10,11,11,12,12,13,13,14,14,15,15,16,16,17,17,18,18,19,19,20,20,21,21,22,22,23,23,24,24,25,25,26,26,27,27,28,28,29,29,31,31,32,32,33,33,34,34,35,35,36,36,37,37,38,38,39,39,40,40,41,41,42,42,43,43,44,44,45,45,46,46,47,47,48,48,49,49,50,50,53,53,54,54,55,55,57,57,58,58],"right_children":[2,4,6,8,10,12,14,16,18,20,22,24,26,28,30,32,34,36,38,40,42,44,46,48,50,52,54,56,58,60,-1,62,64,66,68,70,72,74,76,78,80,82,84,86,88,90,92,94,96,98,100,-1,-1,102,104,106,-1,108,110,-1,-1,-1,-1,-1,-1,-1,-1,-1,-1,-1,-1,-1,-1,-1,-1,-1,-1,-1,-1,-1,-1,-1,-1,-1,-1,-1,-1,-1,-1,-1,-1,-1,-1,-1,-1,-1,-1,-1,-1,-1,-1,-1,-1,-1,-1,-1,-1,-1,-1,-1,-1],"split_conditions":[1.0519375E1,2.2155867E0,8.361513E-1,2.5621402E-1,5.0620705E-2,1.8456087E0,3.8981882E-1,2.3731557E-1,-5.151965E-1,-5.311395E-1,-8.908193E-1,3.2012546E-1,-8.1634957E-1,5.996741E-2,6.9076866E-1,9.9985605E-1,9.988502E-1,1.6943082E0,2.2618303E0,2.5740435E0,5.6505585E0,3.137756E1,4.900481E0,-2.6418227E-1,1.191273E-1,9.544762E-1,2.3489993E2,2.9670681E1,9.2733E-1,3.1054222E1,1.4921991E-2,5.882524E-2,1.6347098E-1,1.0396357E0,6.4621296E0,1.51346605E-2,-9.829649E-1,3.9693956E0,3.9125218E0,2.533843E0,-5.60056E-1,7.779341E-1,2.4803102E-1,4.3961894E-2,-1.6706377E0,2.6474624E0,1.2738052E1,6.4751015E0,4.9069154E-1,1.9886439E-1,6.377933E-1,-3.3182516E-3,-1.4919635E-2,1.7317805E0,6.639708E-1,1.7662561E0,-1.8936861E-2,1.0093102E-1,9.557282E-1,2.9892246E-3,-1.14459265E-2,1.12095884E-4,1.6953068E-2,-1.2189015E-2,9.419312E-3,9.477945E-3,-1.3797699E-2,-1.8712195E-2,-5.6948424E-3,-1.0034892E-3,1.0971931E-2,-1.4436165E-2,-1.7180019E-3,1.3920885E-2,1.862112E-2,-4.7221E-3,1.3325958E-2,-1.2752324E-2,4.175396E-3,-1.8156745E-2,-4.436196E-3,-9.412705E-3,-1.6806325E-2,6.8242145E-3,-9.179158E-3,-6.283758E-3,-1.7244333E-2,-1.1869196E-2,1.0231049E-2,7.6657236E-3,-8.822807E-3,7.919222E-3,1.8040927E-2,-2.6337488E-3,-1.4730829E-2,1.2702953E-2,-5.305633E-3,-1.0026469E-2,-1.8193396E-2,-9.208595E-3,1.0941494E-2,1.7869657E-2,3.1020467E-3,1.0163673E-2,-1.3021661E-2,-1.0689603E-2,-1.8546473E-2,1.2914817E-2,1.026864E-3,-1.0229099E-2,-1.8172959E-2],"split_indices":[0,3,3,2,4,2,4,1,7,8,8,1,7,4,8,7,7,0,1,3,2,6,2,7,4,5,0,0,3,0,0,2,2,1,0,4,7,6,2,3,8,0,5,0,8,3,6,6,3,3,8,0,0,1,3,3,0,4,5,0,0,0,0,0,0,0,0,0,0,0,0,0,0,0,0,0,0,0,0,0,0,0,0,0,0,0,0,0,0,0,0,0,0,0,0,0,0,0,0,0,0,0,0,0,0,0,0,0,0,0,0],"split_type":[0,0,0,0,0,0,0,0,0,0,0,0,0,0,0,0,0,0,0,0,0,0,0,0,0,0,0,0,0,0,0,0,0,0,0,0,0,0,0,0,0,0,0,0,0,0,0,0,0,0,0,0,0,0,0,0,0,0,0,0,0,0,0,0,0,0,0,0,0,0,0,0,0,0,0,0,0,0,0,0,0,0,0,0,0,0,0,0,0,0,0,0,0,0,0,0,0,0,0,0,0,0,0,0,0,0,0,0,0,0,0],"sum_hessian":[7.7953735E3,6.5311367E3,1.2642367E3,5.9785103E3,5.526265E2,1.463503E2,1.1178864E3,1.8449052E2,5.79402E3,4.0474112E2,1.4788539E2,8.985662E1,5.6493675E1,1.111861E3,6.025384E0,3.7589638E1,1.4690088E2,2.4138757E2,5.5526323E3,1.6579076E2,2.3895036E2,1.9636368E1,1.2824902E2,1.719882E1,7.26578E1,5.964078E0,5.05296E1,1.0456846E3,6.617645E1,2.5897026E0,3.4356813E0,2.2311592E1,1.5278046E1,1.694159E1,1.2995929E2,1.5677252E2,8.461505E1,5.4389536E3,1.1367864E2,1.7449753E1,1.48341E2,1.03193245E2,1.3575711E2,1.550664E1,4.129728E0,1.8913649E1,1.0933538E2,4.2758036E0,1.2923017E1,6.77887E1,4.869103E0,1.3681808E0,4.595897E0,4.423066E1,6.2989383E0,1.3839279E2,9.0729175E2,3.2307878E0,6.2945667E1,1.0315967E0,1.5581058E0,1.4375436E0,2.087405E1,1.0024273E1,5.2537727E0,7.886495E0,9.055095E0,1.2885196E2,1.1073239E0,3.7742043E1,1.1903049E2,3.0130558E1,5.4484493E1,3.4733908E2,5.0916147E3,5.6344917E1,5.7333725E1,1.4952795E1,2.4969573E0,1.4730339E2,1.0376024E0,3.573257E1,6.746068E1,1.0298414E2,3.2772976E1,1.5888133E0,1.3917827E1,1.57046E0,2.5592678E0,8.392187E0,1.0521461E1,2.5508785E1,8.382659E1,1.0218228E0,3.2539809E0,1.184627E1,1.0767472E0,9.014749E0,5.8773945E1,2.4706821E0,2.3984208E0,4.318288E1,1.0477813E0,3.0016701E0,3.2972682E0,3.3465397E1,1.049274E2,2.2040966E0,1.0266911E0,2.6006989E1,3.693868E1],"tree_param":{"num_deleted":"0","num_feature":"10","num_nodes":"111","size_leaf_vector":"0"}},{"base_weights":[9.576775E-1,1.4588791E0,-1.6308216E0,1.6359273E0,-4.5533916E-1,-3.490705E-1,-1.8181933E0,-1.175613E0,1.7256451E0,-1.1098543E0,6.6677284E-1,-1.1370989E0,1.0687442E0,-1.8312856E0,5.742008E-1,7.592109E-1,-1.6726782E0,2.9957417E-1,1.7876189E0,-1.7394563E0,-6.0812455E-1,-1.3371315E0,1.067687E0,4.3329313E-1,-1.5057577E0,1.6419595E0,-7.220519E-1,-1.5801766E0,-1.8690892E0,-6.9922465E-1,1.4677188E0,1.5778836E0,-4.5925304E-1,-2.932739E-1,-1.8468623E0,8.0225325E-1,-6.301846E-1,1.8196548E0,5.974343E-1,-1.1060494E0,-1.8065946E0,-1.2784555E0,3.3511055E-1,-1.6584339E0,-5.221104E-1,-4.750838E-1,1.4394585E0,-1.3453519E0,1.068658E0,-1.7075881E0,1.691733E-1,-1.41956415E-2,1.7864789E0,-1.5319394E0,1.0128039E0,-8.843077E-1,-1.8020937E0,2.1070607E-1,-1.1541739E0,2.0614853E-2,1.68151E0,9.950433E-1,-1.1822792E0,9.7204125E-1,-1.3665551E0,-1.853414E0,-5.6651896E-1,-9.937165E-2,1.0866805E0,-1.0394758E0,2.656937E-1,1.4394622E0,1.8495783E0,-4.405838E-1,1.3679965E0,-1.39456E0,5.1156414E-1,-1.8214397E0,-9.4281113E-1,-1.6067567E0,-6.827855E-1,-9.583614E-1,7.454128E-1,1.0719446E0,-1.1047255E0,2.817897E-1,-1.2682147E0,4.015322E-1,1.6499398E0,-2.6204637E-1,-1.5186722E0,1.302941E0,-9.4208366E-1,-6.7958164E-1,-1.8118651E0,1.1282027E0,-8.520965E-1,9.5728385E-1,-8.1109565E-1,2.1657056E-1,1.8224373E0,-2.9617587E-1,-1.6312565E0,-7.6499745E-2,1.3110572E0,-1.548964E0,9.161746E-1,-1.8372685E0,-4.772942E-1],"categories":[],"categories_nodes":[],"categories_segments":[],"categories_sizes":[],"default_left":[1,1,1,1,1,1,1,1,1,1,1,1,1,1,1,1,1,1,1,1,1,1,1,1,1,1,1,1,0,1,0,1,1,1,1,1,1,1,1,1,1,1,1,0,1,1,1,1,1,1,1,1,1,1,1,1,1,0,0,0,0,0,0,0,0,0,0,0,0,0,0,0,0,0,0,0,0,0,0,0,0,0,0,0,0,0,0,0,0,0,0,0,0,0,0,0,0,0,0,0,0,0,0,0,0,0,0,0,0],"id":6,"left_children":[1,3,5,7,9,11,13,15,17,19,21,23,25,27,29,31,33,35,37,39,41,43,45,47,49,51,53,55,-1,57,-1,59,61,63,65,67,69,71,73,75,77,79,81,-1,83,85,87,89,91,93,95,97,99,101,103,105,107,-1,-1,-1,-1,-1,-1,-1,-1,-1,-1,-1,-1,-1,-1,-1,-1,-1,-1,-1,-1,-1,-1,-1,-1,-1,-1,-1,-1,-1,-1,-1,-1,-1,-1,-1,-1,-1,-1,-1,-1,-1,-1,-1,-1,-1,-1,-1,-1,-1,-1,-1,-1],"loss_changes":[1.0108141E4,2.2126084E3,3.0294678E2,1.5089658E3,4.0711572E2,1.8272313E2,3.558667E1,1.7951416E2,5.1116016E2,1.0945529E2,1.6569543E2,6.138507E1,6.1289932E1,7.458496E0,8.720695E0,3.9198708E1,3.496234E1,1.1376473E2,2.104668E2,4.5769653E0,1.2450202E2,8.176773E0,9.872571E1,2.4854424E1,2.9084915E1,1.0714546E1,2.2475391E1,2.156845E1,0E0,1.6779045E0,0E0,3.7245293E0,1.8289154E1,2.5441671E1,4.8980713E-2,4.0557846E1,3.166389E1,5.880078E1,1.1811835E2,8.83242E0,5.5114746E-2,2.1376251E1,4.4399555E1,0E0,1.1607622E1,2.073439E1,2.9483643E1,7.0915127E-1,8.682198E0,6.927658E0,1.082468E1,4.319414E0,1.9245453E0,8.117485E-1,1.8356924E0,4.7169327E1,4.3775635E0,0E0,0E0,0E0,0E0,0E0,0E0,0E0,0E0,0E0,0E0,0E0,0E0,0E0,0E0,0E0,0E0,0E0,0E0,0E0,0E0,0E0,0E0,0E0,0E0,0E0,0E0,0E0,0E0,0E0,0E0,0E0,0E0,0E0,0E0,0E0,0E0,0E0,0E0,0E0,0E0,0E0,0E0,0E0,0E0,0E0,0E0,0E0,0E0,0E0,0E0,0E0,0E0],"parents":[2147483647,0,0,1,1,2,2,3,3,4,4,5,5,6,6,7,7,8,8,9,9,10,10,11,11,12,12,13,13,14,14,15,15,16,16,17,17,18,18,19,19,20,20,21,21,22,22,23,23,24,24,25,25,26,26,27,27,29,29,31,31,32,32,33,33,34,34,35,35,36,36,37,37,38,38,39,39,40,40,41,41,42,42,44,44,45,45,46,46,47,47,48,48,49,49,50,50,51,51,52,52,53,53,54,54,55,55,56,56],"right_children":[2,4,6,8,10,12,14,16,18,20,22,24,26,28,30,32,34,36,38,40,42,44,46,48,50,52,54,56,-1,58,-1,60,62,64,66,68,70,72,74,76,78,80,82,-1,84,86,88,90,92,94,96,98,100,102,104,106,108,-1,-1,-1,-1,-1,-1,-1,-1,-1,-1,-1,-1,-1,-1,-1,-1,-1,-1,-1,-1,-1,-1,-1,-1,-1,-1,-1,-1,-1,-1,-1,-1,-1,-1,-1,-1,-1,-1,-1,-1,-1,-1,-1,-1,-1,-1,-1,-1,-1,-1,-1,-1],"split_conditions":[1.0519375E1,2.2155867E0,9.160782E-1,2.5621402E-1,3.431395E-2,2.119506E0,3.8981882E-1,2.3731557E-1,-5.151965E-1,-5.050449E-1,-7.7773625E-1,3.2012546E-1,1.13816696E2,2.8287788E1,6.9076866E-1,9.9985605E-1,9.98754E-1,1.6943082E0,2.0860753E0,2.5740435E0,6.748268E0,2.4032726E1,5.115943E0,-2.6418227E-1,6.242352E-2,2.2639541E-1,2.6838426E-2,1.7659702E0,-1.8690892E-2,2.3660746E0,1.4677188E-2,1.2698501E-2,2.9128868E-2,1.0396357E0,6.4621296E0,1.51346605E-2,3.190209E-2,4.678795E0,3.6127124E0,2.533843E0,3.373047E-2,4.9418354E0,5.6700797E0,-1.6584339E-2,3.2761663E-1,7.844777E-1,7.1988273E0,6.4751015E0,5.184194E-1,1.4077939E-1,1.0043796E0,5.747751E-1,1.2704399E-1,3.5701352E-1,8.502332E-1,4.374749E0,1.5731323E-1,2.1070607E-3,-1.1541738E-2,2.0614853E-4,1.68151E-2,9.950433E-3,-1.1822792E-2,9.720412E-3,-1.366555E-2,-1.853414E-2,-5.6651896E-3,-9.937164E-4,1.0866805E-2,-1.0394758E-2,2.6569369E-3,1.4394621E-2,1.8495781E-2,-4.405838E-3,1.36799645E-2,-1.3945599E-2,5.1156413E-3,-1.8214397E-2,-9.428111E-3,-1.6067566E-2,-6.827855E-3,-9.583614E-3,7.454128E-3,1.07194455E-2,-1.1047254E-2,2.817897E-3,-1.2682146E-2,4.015322E-3,1.6499398E-2,-2.6204637E-3,-1.5186722E-2,1.302941E-2,-9.420836E-3,-6.795816E-3,-1.811865E-2,1.1282027E-2,-8.5209645E-3,9.572838E-3,-8.110956E-3,2.1657054E-3,1.8224372E-2,-2.9617585E-3,-1.6312564E-2,-7.6499744E-4,1.3110572E-2,-1.548964E-2,9.161746E-3,-1.8372685E-2,-4.772942E-3],"split_indices":[0,3,3,2,4,2,4,1,7,8,8,1,0,0,8,7,7,0,1,3,2,6,2,7,4,7,4,3,0,5,0,4,3,1,0,4,4,6,2,3,4,2,6,0,5,0,6,6,3,5,5,3,9,1,7,2,4,0,0,0,0,0,0,0,0,0,0,0,0,0,0,0,0,0,0,0,0,0,0,0,0,0,0,0,0,0,0,0,0,0,0,0,0,0,0,0,0,0,0,0,0,0,0,0,0,0,0,0,0],"split_type":[0,0,0,0,0,0,0,0,0,0,0,0,0,0,0,0,0,0,0,0,0,0,0,0,0,0,0,0,0,0,0,0,0,0,0,0,0,0,0,0,0,0,0,0,0,0,0,0,0,0,0,0,0,0,0,0,0,0,0,0,0,0,0,0,0,0,0,0,0,0,0,0,0,0,0,0,0,0,0,0,0,0,0,0,0,0,0,0,0,0,0,0,0,0,0,0,0,0,0,0,0,0,0,0,0,0,0,0,0],"sum_hessian":[7.7884814E3,6.525424E3,1.2630577E3,5.97311E3,5.523142E2,1.6145538E2,1.1016023E3,1.8433641E2,5.7887734E3,3.4884677E2,2.0346744E2,1.0390337E2,5.7552017E1,1.09584E3,5.7623816E0,3.7569588E1,1.4676683E2,2.4133286E2,5.5474404E3,1.5361462E2,1.9523216E2,3.3531326E1,1.6993611E2,1.9721125E1,8.418225E1,4.3660007E1,1.3892009E1,1.4898875E2,9.468512E2,2.4657242E0,3.2966573E0,2.2294903E1,1.5274683E1,1.6755987E1,1.3001085E2,1.56732E2,8.460086E1,5.4015195E3,1.459207E2,1.6396694E1,1.3721793E2,1.1391824E2,8.131392E1,2.3307907E1,1.0223417E1,3.294474E1,1.3699136E2,4.8964677E0,1.48246565E1,7.511173E1,9.070515E0,3.5764582E0,4.008355E1,9.550491E0,4.341517E0,3.723024E1,1.11758514E2,1.0008371E0,1.4648873E0,1.465824E0,2.0829079E1,4.9473505E0,1.03273325E1,7.733325E0,9.022661E0,1.2890363E2,1.1072236E0,3.774194E1,1.1899006E2,5.796065E1,2.6640207E1,3.9769617E2,5.0038237E3,6.2353302E1,8.356739E1,1.4031913E1,2.3647804E0,1.3380959E2,3.4083397E0,7.2347046E1,4.1571198E1,1.9260313E1,6.2053604E1,2.5116289E0,7.711788E0,1.7187586E1,1.5757154E1,2.3586952E1,1.1340442E2,1.0218031E0,3.8746645E0,1.3592882E1,1.2317743E0,7.6096525E0,6.750208E1,4.623801E0,4.4467134E0,1.5209947E0,2.0554636E0,1.0548004E0,3.902875E1,1.0066959E0,8.543796E0,1.0930184E0,3.2484987E0,2.7294167E1,9.936073E0,1.0849114E2,3.2673697E0],"tree_param":{"num_deleted":"0","num_feature":"10","num_nodes":"109","size_leaf_vector":"0"}},{"base_weights":[9.490708E-1,1.4610965E0,-1.5397073E0,1.6267756E0,-3.9563105E-1,1.3776418E-2,-1.7528979E0,-1.1617199E0,1.7171457E0,-1.679786E0,1.7272565E-1,-8.9794517E-1,1.4398218E0,-1.8097908E0,-9.4714785E-1,7.400758E-1,-1.6621747E0,3.0831328E-1,1.7759844E0,-8.784114E-1,-1.7558243E0,-1.0385525E0,8.279083E-1,3.8708282E-1,-1.5699351E0,1.7143962E0,-3.9339995E-1,-1.4218276E0,-1.8460689E0,-3.5467E-2,-1.5966415E0,1.5697976E0,-4.727936E-1,-3.325626E-1,-1.8351268E0,7.79901E-1,-6.4957714E-1,1.802424E0,4.8825714E-1,-1.4997168E0,-1.0801854E-1,-1.7921886E0,-1.0276973E0,-1.3982959E0,2.6100364E-1,4.9462553E-2,1.4587321E0,1.3103287E0,-1.0029964E0,-6.988835E-1,-1.7738994E0,-4.5658457E-1,1.7799609E0,-1.3061869E0,1.0283133E0,-5.551167E-1,-1.7501498E0,-4.410915E-1,-1.847112E0,1.0800798E0,-1.2919582E0,-1.7146642E0,9.580837E-1,4.0931306E-3,1.6705793E0,9.4612676E-1,-1.1946825E0,9.4084305E-1,-1.379059E0,-9.972245E-2,1.0613996E0,-1.2063084E0,5.296645E-2,1.3832642E0,1.8307369E0,-5.018574E-1,1.2871485E0,-2.27222E-1,-1.6385955E0,1.1056907E0,-1.3378762E0,-1.4374149E0,9.093913E-1,-9.512154E-1,-1.6392769E0,-3.989635E-1,1.0145628E0,4.5850247E-1,-1.213074E0,4.482541E-1,1.6622043E0,-2.628141E-1,1.4842685E0,-1.3389857E0,5.48641E-1,5.0095305E-2,-1.5058472E0,-1.7981617E0,-5.1032543E-1,1.8216993E0,6.7089367E-1,-2.9461247E-1,-1.4865111E0,1.04728386E-1,1.2945464E0,-1.3478475E0,1.1344755E0,-1.7701966E0,-2.891418E-1,-1.8480755E0,-5.7610244E-1,-1.8698741E-1,1.718818E0,-1.4663931E0,3.0937277E-2,-3.0516073E-1,-1.747198E0],"categories":[],"categories_nodes":[],"categories_segments":[],"categories_sizes":[],"default_left":[1,1,1,1,1,1,1,1,1,1,1,1,1,1,1,1,1,1,1,1,1,1,1,1,1,1,1,1,1,1,1,1,1,1,0,1,1,1,1,1,1,0,1,1,1,1,1,1,1,1,1,0,1,1,1,1,1,0,1,1,1,1,0,0,0,0,0,0,0,0,0,0,0,0,0,0,0,0,0,0,0,0,0,0,0,0,0,0,0,0,0,0,0,0,0,0,0,0,0,0,0,0,0,0,0,0,0,0,0,0,0,0,0,0,0,0,0],"id":7,"left_children":[1,3,5,7,9,11,13,15,17,19,21,23,25,27,29,31,33,35,37,39,41,43,45,47,49,51,53,55,57,59,61,63,65,67,-1,69,71,73,75,77,79,-1,81,83,85,87,89,91,93,95,97,-1,99,101,103,105,107,-1,109,111,113,115,-1,-1,-1,-1,-1,-1,-1,-1,-1,-1,-1,-1,-1,-1,-1,-1,-1,-1,-1,-1,-1,-1,-1,-1,-1,-1,-1,-1,-1,-1,-1,-1,-1,-1,-1,-1,-1,-1,-1,-1,-1,-1,-1,-1,-1,-1,-1,-1,-1,-1,-1,-1,-1,-1,-1],"loss_changes":[9.918302E3,1.9860977E3,4.399187E2,1.4952451E3,3.8678317E2,2.1097504E2,5.182715E1,1.788372E2,4.7526953E2,8.363312E0,2.9289658E2,8.6091484E1,3.2527115E1,1.2713867E1,4.6797028E1,4.056082E1,3.3433044E1,1.0500463E2,1.8671289E2,7.538929E0,2.0628662E0,6.096202E1,1.1747266E2,4.5968582E1,1.0343857E1,8.673248E0,1.3096222E1,2.6786148E1,6.411133E-1,4.897095E1,1.5568375E1,3.7370377E0,1.8380922E1,2.5633055E1,0E0,3.8601555E1,3.0126545E1,6.1533203E1,8.941245E1,1.1878853E0,1.3809314E1,0E0,8.735018E0,9.39476E0,1.4799497E1,5.642457E1,2.6432922E1,6.229786E0,8.269325E0,8.54944E0,6.820221E-1,0E0,1.2687073E0,6.485014E-1,8.7273264E-1,3.938587E1,1.5466003E0,0E0,1.5039062E-1,1.5313335E1,3.8339462E0,1.5076294E0,0E0,0E0,0E0,0E0,0E0,0E0,0E0,0E0,0E0,0E0,0E0,0E0,0E0,0E0,0E0,0E0,0E0,0E0,0E0,0E0,0E0,0E0,0E0,0E0,0E0,0E0,0E0,0E0,0E0,0E0,0E0,0E0,0E0,0E0,0E0,0E0,0E0,0E0,0E0,0E0,0E0,0E0,0E0,0E0,0E0,0E0,0E0,0E0,0E0,0E0,0E0,0E0,0E0,0E0,0E0],"parents":[2147483647,0,0,1,1,2,2,3,3,4,4,5,5,6,6,7,7,8,8,9,9,10,10,11,11,12,12,13,13,14,14,15,15,16,16,17,17,18,18,19,19,20,20,21,21,22,22,23,23,24,24,25,25,26,26,27,27,28,28,29,29,30,30,31,31,32,32,33,33,35,35,36,36,37,37,38,38,39,39,40,40,42,42,43,43,44,44,45,45,46,46,47,47,48,48,49,49,50,50,52,52,53,53,54,54,55,55,56,56,58,58,59,59,60,60,61,61],"right_children":[2,4,6,8,10,12,14,16,18,20,22,24,26,28,30,32,34,36,38,40,42,44,46,48,50,52,54,56,58,60,62,64,66,68,-1,70,72,74,76,78,80,-1,82,84,86,88,90,92,94,96,98,-1,100,102,104,106,108,-1,110,112,114,116,-1,-1,-1,-1,-1,-1,-1,-1,-1,-1,-1,-1,-1,-1,-1,-1,-1,-1,-1,-1,-1,-1,-1,-1,-1,-1,-1,-1,-1,-1,-1,-1,-1,-1,-1,-1,-1,-1,-1,-1,-1,-1,-1,-1,-1,-1,-1,-1,-1,-1,-1,-1,-1,-1,-1],"split_conditions":[8.458039E0,2.2155867E0,7.984415E-1,2.6258898E-1,-7.6517E-1,1.9681214E0,6.1934896E-2,2.3731557E-1,-5.3034866E-1,2.5740435E0,5.6505585E0,5.835683E-1,1.6930153E2,1.583264E1,3.6432587E1,9.9985605E-1,9.988502E-1,1.6943082E0,2.2618303E0,9.223374E0,8.836615E-2,4.861425E-2,3.2785192E-2,2.957421E-1,2.0142338E1,-9.672789E-1,2.6204214E-2,1.7728019E0,8.0661017E-1,1.9008853E0,3.9966903E0,5.9604563E-2,2.9128868E-2,1.0396357E0,-1.8351268E-2,1.51346605E-2,-9.336988E-1,3.9693956E0,3.596434E0,1.1981614E-2,1.0696988E0,-1.7921885E-2,-1.0857991E0,7.779341E-1,1.6907341E1,2.4770597E-1,7.1895127E0,8.21188E-1,5.0593235E-2,2.0593596E0,1.7619684E-1,-4.5658457E-3,1.7436416E0,7.0074875E1,4.635734E-1,5.6771097E0,9.895791E-1,-4.410915E-3,5.996741E-2,4.068815E0,6.0168106E1,9.406325E-1,9.580837E-3,4.0931303E-5,1.6705792E-2,9.461267E-3,-1.1946824E-2,9.40843E-3,-1.3790589E-2,-9.972245E-4,1.0613996E-2,-1.2063083E-2,5.296645E-4,1.3832642E-2,1.830737E-2,-5.0185737E-3,1.2871484E-2,-2.2722199E-3,-1.6385954E-2,1.1056907E-2,-1.3378762E-2,-1.4374148E-2,9.093912E-3,-9.512153E-3,-1.6392767E-2,-3.989635E-3,1.0145628E-2,4.5850244E-3,-1.2130739E-2,4.482541E-3,1.6622042E-2,-2.628141E-3,1.4842685E-2,-1.3389857E-2,5.48641E-3,5.0095306E-4,-1.5058472E-2,-1.7981617E-2,-5.103254E-3,1.8216992E-2,6.7089368E-3,-2.9461246E-3,-1.4865111E-2,1.0472839E-3,1.2945463E-2,-1.3478475E-2,1.1344754E-2,-1.7701965E-2,-2.891418E-3,-1.8480755E-2,-5.761024E-3,-1.8698741E-3,1.7188178E-2,-1.4663931E-2,3.0937276E-4,-3.0516072E-3,-1.747198E-2],"split_indices":[0,3,3,2,8,2,4,1,7,3,2,1,0,0,0,7,7,0,1,6,4,4,4,3,0,7,4,3,3,3,8,2,3,1,0,4,7,6,2,4,0,0,8,0,6,5,6,7,4,1,4,0,1,6,9,2,9,0,4,2,6,3,0,0,0,0,0,0,0,0,0,0,0,0,0,0,0,0,0,0,0,0,0,0,0,0,0,0,0,0,0,0,0,0,0,0,0,0,0,0,0,0,0,0,0,0,0,0,0,0,0,0,0,0,0,0,0],"split_type":[0,0,0,0,0,0,0,0,0,0,0,0,0,0,0,0,0,0,0,0,0,0,0,0,0,0,0,0,0,0,0,0,0,0,0,0,0,0,0,0,0,0,0,0,0,0,0,0,0,0,0,0,0,0,0,0,0,0,0,0,0,0,0,0,0,0,0,0,0,0,0,0,0,0,0,0,0,0,0,0,0,0,0,0,0,0,0,0,0,0,0,0,0,0,0,0,0,0,0,0,0,0,0,0,0,0,0,0,0,0,0,0,0,0,0,0,0],"sum_hessian":[7.7804556E3,6.4532227E3,1.3272329E3,5.9246772E3,5.2854553E2,1.6027455E2,1.1669584E3,1.8560854E2,5.7390684E3,1.6155956E2,3.6698596E2,9.79939E1,6.228066E1,1.0888312E3,7.81272E1,3.8567608E1,1.4704092E2,2.3032881E2,5.5087397E3,1.5088875E1,1.4647067E2,1.2861748E2,2.3836848E2,3.3794178E1,6.4199715E1,5.4223976E1,8.0566845E0,9.654577E1,9.9228546E2,3.2941917E1,4.5185284E1,2.2726301E1,1.5841307E1,1.7261528E1,1.297794E2,1.5446738E2,7.586143E1,5.397518E3,1.1122146E2,7.8285923E0,7.2602825E0,1.381117E2,8.358985E0,1.00673134E2,2.7944338E1,1.0718234E2,1.3118616E2,2.0341427E1,1.3452751E1,1.3020555E1,5.1179165E1,1.4147491E0,5.2809227E1,4.956016E0,3.100668E0,2.7264154E1,6.928161E1,1.0506347E0,9.912348E2,1.752402E1,1.5417898E1,4.3504307E1,1.6809766E0,1.4373169E0,2.1288984E1,5.2370033E0,1.0604303E1,7.832133E0,9.429396E0,3.7605103E1,1.16862274E2,4.19227E1,3.3938732E1,3.4467056E2,5.0528477E3,4.9832645E1,6.1388813E1,1.0297248E0,6.798867E0,3.704945E0,3.5553374E0,7.112547E0,1.2464383E0,3.699161E1,6.3681522E1,1.51481495E1,1.2796188E1,8.143549E1,2.5746847E1,2.2525188E1,1.08660965E2,1.9743255E0,1.8367102E1,1.11708765E1,2.2818751E0,7.2393312E0,5.781223E0,4.9799862E1,1.3793006E0,5.0274647E1,2.5345793E0,1.1482743E0,3.8077419E0,1.0055839E0,2.095084E0,1.869501E1,8.569147E0,6.813509E1,1.1465195E0,9.900303E2,1.2045538E0,6.110283E0,1.1413737E1,1.3525919E1,1.8919792E0,1.2156798E0,4.2288628E1],"tree_param":{"num_deleted":"0","num_feature":"10","num_nodes":"117","size_leaf_vector":"0"}},{"base_weights":[9.4067216E-1,1.4743674E0,-1.4056851E0,1.6260906E0,-3.1000367E-1,1.8874478E-1,-1.7180746E0,-1.1532449E0,1.7161473E0,-1.6422315E0,2.5562215E-1,1.01255E0,-1.262557E0,-1.7542828E0,6.9159575E-2,9.419119E-1,-1.5939096E0,4.4018206E-1,1.7661506E0,-7.8013396E-1,-1.7246376E0,-9.7858477E-1,8.697202E-1,1.4737701E0,-4.914969E-1,-1.5224574E0,5.6242806E-1,-1.2858633E0,-1.8232726E0,-1.3197155E0,8.233057E-1,1.6316525E0,-2.0274936E-1,-4.374075E-4,-1.8077099E0,8.540976E-1,-2.8801417E-1,1.7909167E0,5.228659E-1,-1.4498973E0,1.6145898E-1,-1.7850392E0,-1.1076179E0,-1.3283882E0,2.4488233E-1,-1.1021704E-1,1.3542444E0,-1.2565819E0,1.6193614E0,-1.4145151E0,8.088241E-1,-1.6315064E0,4.812907E-1,-7.1931505E-1,1.5754274E0,-2.0493723E-1,-1.6774244E0,-1.839499E0,-1.6417612E0,1.6360286E-1,-1.5513872E0,-1.3286419E0,1.375472E0,2.529632E-1,1.6920339E0,1.097808E0,-1.0936725E0,1.0249707E0,-1.2976428E0,-1.8170648E0,-4.2272186E-1,-2.9624347E-2,1.1174927E0,-8.000485E-1,7.2062016E-1,1.559217E0,1.8373836E0,-5.164904E-1,1.3348254E0,-3.1276557E-1,-1.5783215E0,1.0802553E0,-1.1330305E0,-1.4293826E0,4.7298107E-1,-1.5678772E0,-9.0210015E-1,-8.425307E-1,6.516665E-1,1.4666364E0,-3.9588186E-1,1.5400985E0,-2.6183793E-1,-2.6878867E-1,-1.4277499E0,4.9511126E-1,1.6967444E0,-1.5603392E0,-2.628693E-3,-1.1933202E0,1.3659654E0,-2.3621978E-1,-1.7683983E0,-9.8726296E-1,1.1924117E0,-1.3292208E0,7.3479474E-1,-1.2316061E0,1.3187594E0,-1.752661E0,-7.048981E-1,8.645268E-1,-1.6783843E0,1.6976061E0,-7.688211E-1],"categories":[],"categories_nodes":[],"categories_segments":[],"categories_sizes":[],"default_left":[1,1,1,1,1,1,1,1,1,1,1,1,1,1,1,1,1,1,1,1,1,1,1,1,1,1,1,1,1,1,1,1,1,1,1,1,1,1,1,1,1,0,1,1,1,1,1,1,1,1,1,1,1,1,0,1,1,0,1,0,0,0,1,0,0,0,0,0,0,0,0,0,0,0,0,0,0,0,0,0,0,0,0,0,0,0,0,0,0,0,0,0,0,0,0,0,0,0,0,0,0,0,0,0,0,0,0,0,0,0,0,0,0,0,0],"id":8,"left_children":[1,3,5,7,9,11,13,15,17,19,21,23,25,27,29,31,33,35,37,39,41,43,45,47,49,51,53,55,57,59,61,63,65,67,69,71,73,75,77,79,81,-1,83,85,87,89,91,93,95,97,99,101,103,105,-1,107,109,-1,111,-1,-1,-1,113,-1,-1,-1,-1,-1,-1,-1,-1,-1,-1,-1,-1,-1,-1,-1,-1,-1,-1,-1,-1,-1,-1,-1,-1,-1,-1,-1,-1,-1,-1,-1,-1,-1,-1,-1,-1,-1,-1,-1,-1,-1,-1,-1,-1,-1,-1,-1,-1,-1,-1,-1,-1],"loss_changes":[9.734936E3,1.7149258E3,7.179573E2,1.4628369E3,3.7500293E2,2.8456384E2,7.809009E1,1.7117613E2,3.599414E2,9.189148E0,2.6598032E2,1.0595909E2,4.176143E1,3.581958E1,2.7153402E1,2.604125E1,5.1855865E1,6.491014E1,1.6657422E2,9.544735E0,3.0364075E0,5.026744E1,1.1130789E2,4.8285477E1,4.477456E1,1.7339233E1,1.6040121E1,6.5259E1,4.8828125E-3,3.3954163E0,2.1724232E1,1.2727852E0,1.6418835E1,2.6612535E1,9.707031E-1,3.1931328E1,4.1117718E1,5.4558594E1,9.154813E1,7.808552E-1,9.592806E0,0E0,8.116436E0,7.8661346E0,1.2399582E1,3.5888294E1,4.74787E1,7.073202E-1,8.807648E0,4.448063E0,1.9173983E1,1.3349258E1,6.067174E0,6.080392E0,0E0,6.788305E1,7.0796814E0,0E0,1.0040115E1,0E0,0E0,0E0,1.0849207E1,0E0,0E0,0E0,0E0,0E0,0E0,0E0,0E0,0E0,0E0,0E0,0E0,0E0,0E0,0E0,0E0,0E0,0E0,0E0,0E0,0E0,0E0,0E0,0E0,0E0,0E0,0E0,0E0,0E0,0E0,0E0,0E0,0E0,0E0,0E0,0E0,0E0,0E0,0E0,0E0,0E0,0E0,0E0,0E0,0E0,0E0,0E0,0E0,0E0,0E0,0E0,0E0],"parents":[2147483647,0,0,1,1,2,2,3,3,4,4,5,5,6,6,7,7,8,8,9,9,10,10,11,11,12,12,13,13,14,14,15,15,16,16,17,17,18,18,19,19,20,20,21,21,22,22,23,23,24,24,25,25,26,26,27,27,28,28,29,29,30,30,31,31,32,32,33,33,34,34,35,35,36,36,37,37,38,38,39,39,40,40,42,42,43,43,44,44,45,45,46,46,47,47,48,48,49,49,50,50,51,51,52,52,53,53,55,55,56,56,58,58,62,62],"right_children":[2,4,6,8,10,12,14,16,18,20,22,24,26,28,30,32,34,36,38,40,42,44,46,48,50,52,54,56,58,60,62,64,66,68,70,72,74,76,78,80,82,-1,84,86,88,90,92,94,96,98,100,102,104,106,-1,108,110,-1,112,-1,-1,-1,114,-1,-1,-1,-1,-1,-1,-1,-1,-1,-1,-1,-1,-1,-1,-1,-1,-1,-1,-1,-1,-1,-1,-1,-1,-1,-1,-1,-1,-1,-1,-1,-1,-1,-1,-1,-1,-1,-1,-1,-1,-1,-1,-1,-1,-1,-1,-1,-1,-1,-1,-1,-1],"split_conditions":[6.5411987E0,2.2155867E0,9.160782E-1,2.6258898E-1,-7.587348E-1,4.6940273E1,1.8321693E-1,1.6079423E-1,-5.3034866E-1,2.5740435E0,5.5893073E0,1.2230546E0,5.1159427E-2,1.5003272E1,5.0921087E0,9.9985605E-1,9.9907506E-1,1.1131122E0,2.2618303E0,9.952872E0,-1.0935104E0,4.861425E-2,1.035496E1,-9.633286E-1,1.6212535E0,4.020583E0,2.3229156E0,1.7709422E0,4.1318964E-2,2.2656345E-1,-3.7284008E-1,5.6717865E-2,3.1699963E-2,1.0396357E0,1.4002295E1,1.5022414E-2,4.3174562E0,1.0721632E1,3.5916748E0,1.1867997E-2,1.0696988E0,-1.7850392E-2,5.1238433E-2,4.569645E0,4.9281535E0,2.939989E-2,3.1968677E0,2.829698E-1,3.1717534E0,1.2278847E-1,-6.99703E-1,2.3717555E-1,1.21143915E-1,2.205484E0,1.5754273E-2,5.4358735E0,5.423642E-2,-1.839499E-2,4.1386213E-2,1.6360285E-3,-1.5513872E-2,-1.3286418E-2,5.6721355E1,2.5296318E-3,1.692034E-2,1.0978079E-2,-1.0936725E-2,1.0249706E-2,-1.2976428E-2,-1.8170647E-2,-4.2272187E-3,-2.9624347E-4,1.11749265E-2,-8.000485E-3,7.2062016E-3,1.5592169E-2,1.8373836E-2,-5.164904E-3,1.3348253E-2,-3.1276557E-3,-1.5783215E-2,1.0802552E-2,-1.1330305E-2,-1.4293825E-2,4.7298106E-3,-1.567877E-2,-9.021001E-3,-8.425307E-3,6.516665E-3,1.4666364E-2,-3.9588185E-3,1.5400985E-2,-2.6183792E-3,-2.6878866E-3,-1.4277498E-2,4.9511124E-3,1.6967444E-2,-1.5603391E-2,-2.6286929E-5,-1.1933201E-2,1.3659653E-2,-2.3621977E-3,-1.7683983E-2,-9.872629E-3,1.1924116E-2,-1.3292207E-2,7.347947E-3,-1.2316061E-2,1.3187594E-2,-1.752661E-2,-7.0489813E-3,8.645268E-3,-1.6783843E-2,1.697606E-2,-7.688211E-3],"split_indices":[0,3,3,2,8,0,4,1,7,3,2,1,4,0,2,7,7,0,1,6,8,4,6,7,2,2,8,3,4,1,8,2,3,1,5,4,2,6,2,4,0,0,4,2,6,5,3,3,6,4,7,1,9,2,0,2,4,0,4,0,0,0,0,0,0,0,0,0,0,0,0,0,0,0,0,0,0,0,0,0,0,0,0,0,0,0,0,0,0,0,0,0,0,0,0,0,0,0,0,0,0,0,0,0,0,0,0,0,0,0,0,0,0,0,0],"split_type":[0,0,0,0,0,0,0,0,0,0,0,0,0,0,0,0,0,0,0,0,0,0,0,0,0,0,0,0,0,0,0,0,0,0,0,0,0,0,0,0,0,0,0,0,0,0,0,0,0,0,0,0,0,0,0,0,0,0,0,0,0,0,0,0,0,0,0,0,0,0,0,0,0,0,0,0,0,0,0,0,0,0,0,0,0,0,0,0,0,0,0,0,0,0,0,0,0,0,0,0,0,0,0,0,0,0,0,0,0,0,0,0,0,0,0],"sum_hessian":[7.7713647E3,6.3315757E3,1.4397892E3,5.8354795E3,4.9609625E2,2.3594196E2,1.2038472E3,1.8277759E2,5.6527017E3,1.4728651E2,3.4880972E2,1.5070135E2,8.5240585E1,1.1799603E3,2.3886866E1,3.1564672E1,1.512129E2,2.1353758E2,5.4391646E3,1.3763685E1,1.3352283E2,1.15694595E2,2.3311513E2,1.15349304E2,3.535206E1,7.475966E1,1.04809265E1,1.5399815E2,1.0259622E3,8.142065E0,1.5744801E1,1.9430784E1,1.2133888E1,1.8007036E1,1.3320587E2,1.3603867E2,7.749892E1,5.332501E3,1.066633E2,7.7273316E0,6.0363536E0,1.1989317E2,1.3629655E1,8.990419E1,2.5790405E1,7.738285E1,1.5573227E2,5.4531183E0,1.0989619E2,2.0624306E1,1.4727752E1,7.107723E1,3.682429E0,4.7547193E0,5.7262077E0,4.135601E1,1.12642136E2,9.333868E2,9.257537E1,1.1395717E0,7.0024934E0,2.9278617E0,1.2816938E1,1.0330296E0,1.8397755E1,4.8384995E0,7.2953887E0,1.017434E1,7.8326955E0,1.320023E2,1.2035655E0,3.1440283E1,1.0459838E2,5.1540916E1,2.5958002E1,8.965512E2,4.4359497E3,4.6940533E1,5.9722767E1,1.1327561E0,6.594576E0,3.6272905E0,2.409063E0,1.14038315E1,2.2258234E0,5.5849766E1,3.4054424E1,6.7296224E0,1.9060783E1,1.1234568E1,6.6148285E1,1.3971199E2,1.6020279E1,1.1849887E0,4.26813E0,7.5535464E0,1.0234264E2,1.8598272E1,2.0260332E0,2.9575672E0,1.17701845E1,6.5938826E0,6.4483345E1,1.0747064E0,2.6077225E0,3.4102328E0,1.3444866E0,2.4822365E1,1.6533646E1,1.0380909E2,8.83305E0,1.0076998E0,9.156767E1,1.1324056E1,1.4928828E0],"tree_param":{"num_deleted":"0","num_feature":"10","num_nodes":"115","size_leaf_vector":"0"}},{"base_weights":[9.324717E-1,1.46153E0,-1.3935132E0,1.6120185E0,-3.0723113E-1,1.8697423E-1,-1.7032793E0,-1.1431592E0,1.7013025E0,-1.6281381E0,2.5318888E-1,1.0033408E0,-1.2513708E0,-1.7391809E0,6.7801595E-2,9.338983E-1,-1.580206E0,4.3594873E-1,1.7509454E0,-7.740443E-1,-1.7098293E0,-8.990205E-1,8.9916545E-1,1.4606335E0,-4.8727655E-1,-1.5091594E0,5.5803865E-1,-1.2741965E0,-1.8077097E0,-1.3089159E0,8.1545246E-1,1.6180782E0,-2.0080297E-1,-5.7753694E-4,-1.7923167E0,8.459778E-1,-2.8515968E-1,1.7755297E0,5.1795596E-1,-1.4385742E0,1.5979956E-1,-1.7691965E0,-1.0936756E0,-1.2484232E0,2.9679438E-1,4.4232167E-2,1.4417838E0,-1.2472644E0,1.6051157E0,-1.4021133E0,8.0122775E-1,-1.6173315E0,4.7709867E-1,-7.135134E-1,1.5631614E0,-2.0293769E-1,-1.6624951E0,-1.823835E0,-1.627396E0,1.6273248E-1,-1.5389895E0,-1.3194326E0,1.3634375E0,2.516825E-1,1.6779375E0,1.0890585E0,-1.0845276E0,1.0160933E0,-1.2869945E0,-1.8015785E0,-4.2048255E-1,-2.9337317E-2,1.1070026E0,-7.922848E-1,7.136438E-1,1.3783101E0,1.8021438E0,-5.114857E-1,1.3226818E0,-3.111199E-1,-1.5658563E0,1.071793E0,-1.1254723E0,-1.3508081E0,9.01713E-1,-1.4629631E0,-6.197778E-1,-3.0557907E-1,1.0392029E0,-8.277208E-1,5.6161696E-1,1.6134875E0,-1.3341872E-1,-2.673443E-1,-1.4170146E0,4.9079692E-1,1.6818923E0,-1.5467736E0,-2.6110236E-3,-1.1847779E0,1.354037E0,-2.3416977E-1,-1.7532041E0,-9.824174E-1,1.1841949E0,-1.3196331E0,7.3076177E-1,-1.2199773E0,1.307109E0,-1.737132E0,-6.986282E-1,8.60077E-1,-1.6638175E0,1.6833973E0,-7.643516E-1],"categories":[],"categories_nodes":[],"categories_segments":[],"categories_sizes":[],"default_left":[1,1,1,1,1,1,1,1,1,1,1,1,1,1,1,1,1,1,1,1,1,1,1,1,1,1,1,1,1,1,1,1,1,1,1,1,1,1,1,1,1,0,1,1,1,1,1,1,1,1,1,1,1,1,0,1,1,0,1,0,0,0,1,0,0,0,0,0,0,0,0,0,0,0,0,0,0,0,0,0,0,0,0,0,0,0,0,0,0,0,0,0,0,0,0,0,0,0,0,0,0,0,0,0,0,0,0,0,0,0,0,0,0,0,0],"id":9,"left_children":[1,3,5,7,9,11,13,15,17,19,21,23,25,27,29,31,33,35,37,39,41,43,45,47,49,51,53,55,57,59,61,63,65,67,69,71,73,75,77,79,81,-1,83,85,87,89,91,93,95,97,99,101,103,105,-1,107,109,-1,111,-1,-1,-1,113,-1,-1,-1,-1,-1,-1,-1,-1,-1,-1,-1,-1,-1,-1,-1,-1,-1,-1,-1,-1,-1,-1,-1,-1,-1,-1,-1,-1,-1,-1,-1,-1,-1,-1,-1,-1,-1,-1,-1,-1,-1,-1,-1,-1,-1,-1,-1,-1,-1,-1,-1,-1],"loss_changes":[9.554142E3,1.6838994E3,7.047827E2,1.435749E3,3.6812515E2,2.791965E2,7.662329E1,1.6809837E2,3.5389844E2,9.01001E0,2.6103726E2,1.040188E2,4.1025726E1,3.5276123E1,2.6664236E1,2.5584461E1,5.0932373E1,6.3657227E1,1.6375586E2,9.387109E0,2.9794006E0,5.305773E1,1.0409573E2,4.7474503E1,4.3946922E1,1.7031036E1,1.5778771E1,6.408467E1,1.3671875E-2,3.3437643E0,2.1373692E1,1.2469254E0,1.6145977E1,2.6152113E1,9.4525146E-1,3.1330368E1,4.032444E1,5.3822266E1,8.982545E1,7.6436996E-1,9.45239E0,0E0,8.619711E0,1.2280624E1,1.3430344E1,4.025861E1,3.735617E1,6.940613E-1,8.651794E0,4.3706856E0,1.8863264E1,1.3119705E1,5.993886E0,5.999523E0,0E0,6.662114E1,6.9537964E0,0E0,9.898468E0,0E0,0E0,0E0,1.0686182E1,0E0,0E0,0E0,0E0,0E0,0E0,0E0,0E0,0E0,0E0,0E0,0E0,0E0,0E0,0E0,0E0,0E0,0E0,0E0,0E0,0E0,0E0,0E0,0E0,0E0,0E0,0E0,0E0,0E0,0E0,0E0,0E0,0E0,0E0,0E0,0E0,0E0,0E0,0E0,0E0,0E0,0E0,0E0,0E0,0E0,0E0,0E0,0E0,0E0,0E0,0E0,0E0],"parents":[2147483647,0,0,1,1,2,2,3,3,4,4,5,5,6,6,7,7,8,8,9,9,10,10,11,11,12,12,13,13,14,14,15,15,16,16,17,17,18,18,19,19,20,20,21,21,22,22,23,23,24,24,25,25,26,26,27,27,28,28,29,29,30,30,31,31,32,32,33,33,34,34,35,35,36,36,37,37,38,38,39,39,40,40,42,42,43,43,44,44,45,45,46,46,47,47,48,48,49,49,50,50,51,51,52,52,53,53,55,55,56,56,58,58,62,62],"right_children":[2,4,6,8,10,12,14,16,18,20,22,24,26,28,30,32,34,36,38,40,42,44,46,48,50,52,54,56,58,60,62,64,66,68,70,72,74,76,78,80,82,-1,84,86,88,90,92,94,96,98,100,102,104,106,-1,108,110,-1,112,-1,-1,-1,114,-1,-1,-1,-1,-1,-1,-1,-1,-1,-1,-1,-1,-1,-1,-1,-1,-1,-1,-1,-1,-1,-1,-1,-1,-1,-1,-1,-1,-1,-1,-1,-1,-1,-1,-1,-1,-1,-1,-1,-1,-1,-1,-1,-1,-1,-1,-1,-1,-1,-1,-1,-1],"split_conditions":[6.5411987E0,2.2155867E0,9.160782E-1,2.6258898E-1,-7.587348E-1,4.6940273E1,1.8321693E-1,1.6079423E-1,-5.3034866E-1,2.5740435E0,5.89313E0,1.2230546E0,5.1159427E-2,1.5003272E1,5.0921087E0,9.9985605E-1,9.9907506E-1,1.1131122E0,2.2618303E0,9.952872E0,-1.0857991E0,4.861425E-2,1.306918E1,-9.633286E-1,1.6212535E0,4.020583E0,2.3229156E0,1.7709422E0,4.1318964E-2,2.2656345E-1,-3.7284008E-1,5.6717865E-2,3.1699963E-2,1.0396357E0,1.4002295E1,1.5022414E-2,4.3174562E0,3.9693956E0,3.5916748E0,1.1867997E-2,1.0696988E0,-1.7691964E-2,9.46372E-2,4.9418354E0,1.786237E1,1.7948281E-2,3.1866622E0,2.829698E-1,3.1717534E0,1.2278847E-1,-6.99703E-1,2.3717555E-1,1.21143915E-1,2.205484E0,1.5631614E-2,5.4358735E0,5.423642E-2,-1.8238349E-2,4.1386213E-2,1.6273247E-3,-1.5389895E-2,-1.3194326E-2,5.6721355E1,2.5168248E-3,1.6779374E-2,1.0890585E-2,-1.0845276E-2,1.0160932E-2,-1.2869944E-2,-1.8015785E-2,-4.2048255E-3,-2.9337316E-4,1.1070026E-2,-7.922848E-3,7.1364376E-3,1.3783101E-2,1.8021438E-2,-5.1148566E-3,1.3226817E-2,-3.111199E-3,-1.5658563E-2,1.0717929E-2,-1.1254723E-2,-1.3508081E-2,9.01713E-3,-1.462963E-2,-6.197778E-3,-3.0557907E-3,1.0392029E-2,-8.277208E-3,5.6161694E-3,1.6134875E-2,-1.3341872E-3,-2.673443E-3,-1.4170146E-2,4.907969E-3,1.6818922E-2,-1.5467735E-2,-2.6110236E-5,-1.1847778E-2,1.354037E-2,-2.3416977E-3,-1.7532041E-2,-9.8241735E-3,1.1841949E-2,-1.31963305E-2,7.3076175E-3,-1.21997725E-2,1.307109E-2,-1.737132E-2,-6.986282E-3,8.6007705E-3,-1.6638175E-2,1.6833972E-2,-7.6435157E-3],"split_indices":[0,3,3,2,8,0,4,1,7,3,2,1,4,0,2,7,7,0,1,6,8,4,6,7,2,2,8,3,4,1,8,2,3,1,5,4,2,6,2,4,0,0,4,2,6,4,3,3,6,4,7,1,9,2,0,2,4,0,4,0,0,0,0,0,0,0,0,0,0,0,0,0,0,0,0,0,0,0,0,0,0,0,0,0,0,0,0,0,0,0,0,0,0,0,0,0,0,0,0,0,0,0,0,0,0,0,0,0,0,0,0,0,0,0,0],"split_type":[0,0,0,0,0,0,0,0,0,0,0,0,0,0,0,0,0,0,0,0,0,0,0,0,0,0,0,0,0,0,0,0,0,0,0,0,0,0,0,0,0,0,0,0,0,0,0,0,0,0,0,0,0,0,0,0,0,0,0,0,0,0,0,0,0,0,0,0,0,0,0,0,0,0,0,0,0,0,0,0,0,0,0,0,0,0,0,0,0,0,0,0,0,0,0,0,0,0,0,0,0,0,0,0,0,0,0,0,0,0,0,0,0,0,0],"sum_hessian":[7.7612686E3,6.323357E3,1.4379114E3,5.827624E3,4.9573303E2,2.3570325E2,1.2022081E3,1.8255125E2,5.6450728E3,1.4710414E2,3.4862888E2,1.5055476E2,8.5148476E1,1.17834E3,2.386814E1,3.1536726E1,1.5101454E2,2.1347841E2,5.431594E3,1.3756221E1,1.3334793E2,1.2509998E2,2.2352888E2,1.1522582E2,3.5328945E1,7.467533E1,1.04731455E1,1.5387247E2,1.0244675E3,8.135957E0,1.5732182E1,1.9408298E1,1.21284275E1,1.7996191E1,1.3301834E2,1.3598364E2,7.749475E1,5.324981E3,1.0661341E2,7.721243E0,6.034978E0,1.1992195E2,1.3425975E1,9.677849E1,2.8321499E1,8.720803E1,1.3632086E2,5.449932E0,1.0977589E2,2.0608652E1,1.4720293E1,7.099469E1,3.6806455E0,4.7518454E0,5.7213006E0,4.1341103E1,1.1253137E2,9.320045E2,9.246292E1,1.139558E0,6.9963994E0,2.9258044E0,1.2806377E1,1.0329921E0,1.8375305E1,4.8366413E0,7.291786E0,1.016936E1,7.826831E0,1.3181514E2,1.2032031E0,3.1440243E1,1.045434E2,5.1535343E1,2.595941E1,3.376912E2,4.9872896E3,4.6935627E1,5.9677784E1,1.1326509E0,6.588592E0,3.6272664E0,2.4077115E0,1.2179517E1,1.2464584E0,7.11647E1,2.5613783E1,1.5960172E1,1.2361327E1,3.2252613E1,5.4955418E1,1.2289995E2,1.3420914E1,1.1848804E0,4.265052E0,7.5525417E0,1.0222335E2,1.8582619E1,2.026034E0,2.9563189E0,1.1763974E1,6.593845E0,6.440084E1,1.074142E0,2.6065035E0,3.4079359E0,1.3439095E0,2.4817936E1,1.6523167E1,1.03699196E2,8.832179E0,1.007957E0,9.145497E1,1.1313931E1,1.4924461E0],"tree_param":{"num_deleted":"0","num_feature":"10","num_nodes":"115","size_leaf_vector":"0"}},{"base_weights":[9.244714E-1,1.4490049E0,-1.3816423E0,1.5769742E0,-5.9724694E-1,1.8524158E-1,-1.6888583E0,-1.1333096E0,1.6629269E0,-1.2426672E0,4.6005785E-1,9.943283E-1,-1.2404338E0,-1.7244623E0,6.646712E-2,9.260415E-1,-1.5668361E0,4.775887E-1,1.7255719E0,-1.6916317E0,-7.439512E-1,-1.3773433E0,9.559746E-1,1.4477874E0,-4.831373E-1,-1.4961649E0,5.537321E-1,-1.2627826E0,-1.7925512E0,-1.3778039E0,7.6705253E-1,1.604807E0,-1.9888501E-1,-7.154387E-4,-1.7773176E0,8.217194E-1,-3.7564632E-1,1.7572721E0,6.04315E-1,1.3047576E-1,-1.7387128E0,-1.2816164E0,3.0284786E-1,-1.523068E0,-4.3234202E-1,-4.7610584E-1,1.34018E0,-1.2380965E0,1.5911894E0,-1.3899554E0,7.9376364E-1,-1.6034855E0,4.7296238E-1,-7.077964E-1,1.5511454E0,-2.0097233E-1,-1.6479151E0,-1.8085825E0,-1.6133592E0,-5.0962836E-2,-1.5707395E0,1.6373411E0,-5.577837E-1,2.5040865E-1,1.6641657E0,1.08043E0,-1.0755115E0,1.0073367E0,-1.2765212E0,-1.786491E0,-4.1825688E-1,1.2324324E-1,1.100993E0,2.6801348E-1,-9.925742E-1,1.7816199E0,1.270009E0,-3.685768E-1,1.333075E0,-7.435136E-1,7.3340946E-1,-1.635575E0,-7.315559E-1,-5.420023E-1,1.2063011E0,-1.0269564E0,-1.6774701E0,-1.0196037E0,9.190152E-1,4.336064E-1,-1.143075E0,1.6456427E-1,1.5595224E0,-2.6590812E-1,-1.4064702E0,4.865249E-1,1.6673872E0,-1.5334905E0,-2.5934996E-3,-1.176357E0,1.3423213E0,-2.3213808E-1,-1.7383857E0,-9.7762E-1,1.1760925E0,-1.3101997E0,7.2676176E-1,-1.2085431E0,1.2956597E0,-1.7219824E0,-6.9242877E-1,8.556658E-1,-1.6495863E0,-1.2964267E0,4.6835828E-1],"categories":[],"categories_nodes":[],"categories_segments":[],"categories_sizes":[],"default_left":[1,1,1,1,1,1,1,1,1,1,1,1,1,1,1,1,1,1,1,1,1,1,1,1,1,1,1,1,1,1,1,1,1,1,1,1,1,1,1,1,0,1,1,1,1,1,1,1,1,1,1,1,1,1,0,1,1,0,1,0,0,0,1,0,0,0,0,0,0,0,0,0,0,0,0,0,0,0,0,0,0,0,0,0,0,0,0,0,0,0,0,0,0,0,0,0,0,0,0,0,0,0,0,0,0,0,0,0,0,0,0,0,0,0,0],"id":10,"left_children":[1,3,5,7,9,11,13,15,17,19,21,23,25,27,29,31,33,35,37,39,41,43,45,47,49,51,53,55,57,59,61,63,65,67,69,71,73,75,77,79,-1,81,83,85,87,89,91,93,95,97,99,101,103,105,-1,107,109,-1,111,-1,-1,-1,113,-1,-1,-1,-1,-1,-1,-1,-1,-1,-1,-1,-1,-1,-1,-1,-1,-1,-1,-1,-1,-1,-1,-1,-1,-1,-1,-1,-1,-1,-1,-1,-1,-1,-1,-1,-1,-1,-1,-1,-1,-1,-1,-1,-1,-1,-1,-1,-1,-1,-1,-1,-1],"loss_changes":[9.378018E3,1.6546455E3,6.919641E2,1.3865449E3,2.5471828E2,2.7396268E2,7.5197754E1,1.650994E2,4.2700098E2,5.058206E1,1.306147E2,1.02127045E2,4.0308502E1,3.475293E1,2.6197775E1,2.5139303E1,5.003653E1,8.563441E1,1.9343555E2,1.0611938E1,6.3127514E1,3.5510979E0,6.2443718E1,4.668289E1,4.313863E1,1.6730911E1,1.5523151E1,6.294333E1,2.34375E-2,2.0891151E0,2.094461E1,1.2220078E0,1.587843E1,2.5701159E1,9.21051E-1,4.0319E1,3.3703182E1,6.0865234E1,1.0824214E2,2.6422584E0,0E0,1.317939E1,3.014341E1,2.7567673E-1,5.2863054E0,1.5360727E1,2.2649475E1,6.812153E-1,8.501862E0,4.295532E0,1.8558987E1,1.2898163E1,5.9217434E0,5.9200945E0,0E0,6.538748E1,6.8334045E0,0E0,9.760269E0,0E0,0E0,0E0,6.3932667E0,0E0,0E0,0E0,0E0,0E0,0E0,0E0,0E0,0E0,0E0,0E0,0E0,0E0,0E0,0E0,0E0,0E0,0E0,0E0,0E0,0E0,0E0,0E0,0E0,0E0,0E0,0E0,0E0,0E0,0E0,0E0,0E0,0E0,0E0,0E0,0E0,0E0,0E0,0E0,0E0,0E0,0E0,0E0,0E0,0E0,0E0,0E0,0E0,0E0,0E0,0E0,0E0],"parents":[2147483647,0,0,1,1,2,2,3,3,4,4,5,5,6,6,7,7,8,8,9,9,10,10,11,11,12,12,13,13,14,14,15,15,16,16,17,17,18,18,19,19,20,20,21,21,22,22,23,23,24,24,25,25,26,26,27,27,28,28,29,29,30,30,31,31,32,32,33,33,34,34,35,35,36,36,37,37,38,38,39,39,41,41,42,42,43,43,44,44,45,45,46,46,47,47,48,48,49,49,50,50,51,51,52,52,53,53,55,55,56,56,58,58,62,62],"right_children":[2,4,6,8,10,12,14,16,18,20,22,24,26,28,30,32,34,36,38,40,42,44,46,48,50,52,54,56,58,60,62,64,66,68,70,72,74,76,78,80,-1,82,84,86,88,90,92,94,96,98,100,102,104,106,-1,108,110,-1,112,-1,-1,-1,114,-1,-1,-1,-1,-1,-1,-1,-1,-1,-1,-1,-1,-1,-1,-1,-1,-1,-1,-1,-1,-1,-1,-1,-1,-1,-1,-1,-1,-1,-1,-1,-1,-1,-1,-1,-1,-1,-1,-1,-1,-1,-1,-1,-1,-1,-1,-1,-1,-1,-1,-1,-1],"split_conditions":[6.5411987E0,2.531835E0,9.160782E-1,2.6258898E-1,3.2681666E-2,4.6940273E1,1.8321693E-1,1.6079423E-1,-2.7368182E-1,-3.9469498E-1,-7.7773625E-1,1.2230546E0,5.1159427E-2,1.5003272E1,4.653831E0,9.9985605E-1,9.9907506E-1,1.4776664E0,2.0307317E0,2.5740435E0,7.573477E0,-1.0857991E0,5.1150928E0,-9.633286E-1,1.6212535E0,4.020583E0,2.3229156E0,1.7709422E0,4.1318964E-2,2.519258E-1,1.964344E0,5.6717865E-2,3.1699963E-2,1.0396357E0,1.4002295E1,1.6654935E-2,5.886016E-1,1.6724904E0,3.1196084E-2,6.012917E-1,-1.7387128E-2,5.097004E0,1.225298E1,1.3878722E-1,9.46372E-2,2.7815259E-1,7.1988273E0,2.829698E-1,3.1717534E0,1.2278847E-1,-6.99703E-1,2.3717555E-1,1.21143915E-1,2.205484E0,1.5511454E-2,5.4358735E0,5.423642E-2,-1.8085824E-2,4.1386213E-2,-5.096283E-4,-1.5707394E-2,1.637341E-2,2.6980639E1,2.5040864E-3,1.6641658E-2,1.08043E-2,-1.0755114E-2,1.00733675E-2,-1.2765212E-2,-1.786491E-2,-4.1825688E-3,1.2324324E-3,1.100993E-2,2.6801347E-3,-9.925742E-3,1.7816199E-2,1.270009E-2,-3.6857678E-3,1.333075E-2,-7.4351355E-3,7.3340945E-3,-1.6355751E-2,-7.315559E-3,-5.420023E-3,1.2063011E-2,-1.0269565E-2,-1.6774701E-2,-1.0196037E-2,9.190152E-3,4.3360638E-3,-1.143075E-2,1.6456427E-3,1.5595224E-2,-2.6590812E-3,-1.4064701E-2,4.865249E-3,1.6673872E-2,-1.5334905E-2,-2.5934996E-5,-1.176357E-2,1.3423213E-2,-2.3213807E-3,-1.7383857E-2,-9.7762E-3,1.1760925E-2,-1.3101997E-2,7.2676176E-3,-1.208543E-2,1.2956596E-2,-1.7219823E-2,-6.9242874E-3,8.5566575E-3,-1.6495863E-2,-1.2964266E-2,4.6835826E-3],"split_indices":[0,3,3,2,4,0,4,1,7,8,8,1,4,0,2,7,7,0,1,3,2,8,2,7,2,2,8,3,4,1,3,2,3,1,5,4,9,3,4,9,0,2,6,5,4,5,6,3,6,4,7,1,9,2,0,2,4,0,4,0,0,0,6,0,0,0,0,0,0,0,0,0,0,0,0,0,0,0,0,0,0,0,0,0,0,0,0,0,0,0,0,0,0,0,0,0,0,0,0,0,0,0,0,0,0,0,0,0,0,0,0,0,0,0,0],"split_type":[0,0,0,0,0,0,0,0,0,0,0,0,0,0,0,0,0,0,0,0,0,0,0,0,0,0,0,0,0,0,0,0,0,0,0,0,0,0,0,0,0,0,0,0,0,0,0,0,0,0,0,0,0,0,0,0,0,0,0,0,0,0,0,0,0,0,0,0,0,0,0,0,0,0,0,0,0,0,0,0,0,0,0,0,0,0,0,0,0,0,0,0,0,0,0,0,0,0,0,0,0,0,0,0,0,0,0,0,0,0,0,0,0,0,0],"sum_hessian":[7.750118E3,6.314284E3,1.435834E3,5.942857E3,3.7142728E2,2.3543732E2,1.2003966E3,1.823014E2,5.7605557E3,2.305284E2,1.408989E2,1.5039119E2,8.504613E1,1.1765498E3,2.3846857E1,3.1505745E1,1.5079565E2,2.8959488E2,5.470961E3,1.200566E2,1.10471794E2,2.9568493E1,1.113304E2,1.1508864E2,3.5302547E1,7.4581726E1,1.0464399E1,1.53729E2,1.0228208E3,7.47348E0,1.6373377E1,1.9383446E1,1.2122299E1,1.7984274E1,1.3281139E2,2.0638974E2,8.320513E1,5.319986E3,1.5097473E2,2.979368E0,1.1707723E2,7.283658E1,3.763522E1,2.5088058E1,4.480433E0,2.3499521E1,8.783088E1,5.4463396E0,1.09642296E2,2.0590929E1,1.471162E1,7.090308E1,3.678641E0,4.7486606E0,5.7157383E0,4.1323086E1,1.12405914E2,9.304818E2,9.2338936E1,1.109241E0,6.364239E0,9.739555E0,6.6338224E0,1.0329517E0,1.8350494E1,4.8345113E0,7.287788E0,1.0163902E1,7.8203716E0,1.3160855E2,1.2028322E0,5.936256E1,1.4702718E2,4.099713E1,4.2207996E1,5.064276E3,2.5571014E2,6.486905E1,8.610568E1,1.1211021E0,1.858266E0,4.311746E1,2.9719116E1,1.9655119E1,1.79801E1,7.7707963E0,1.7317263E1,3.2943137E0,1.1861193E0,1.0088797E1,1.3410725E1,1.4085681E1,7.37452E1,1.1847684E0,4.2615714E0,7.551456E0,1.0209084E2,1.8564894E1,2.026035E0,2.9548721E0,1.1756747E1,6.59379E0,6.4309296E1,1.0735292E0,2.6051118E0,3.4053607E0,1.3433002E0,2.4811707E1,1.651138E1,1.03574814E2,8.8311E0,1.0081756E0,9.133076E1,3.7041109E0,2.9297116E0],"tree_param":{"num_deleted":"0","num_feature":"10","num_nodes":"115","size_leaf_vector":"0"}},{"base_weights":[9.1664416E-1,1.3964343E0,-1.5623673E0,1.5809783E0,-2.9774457E-1,-2.2190008E-1,-1.726834E0,-1.1253034E0,1.6686984E0,-9.622719E-1,7.6126885E-1,-1.0584605E0,1.3510021E0,-1.7403884E0,6.138045E-1,7.2952014E-1,-1.603025E0,2.6070368E-1,1.7173641E0,-3.4480435E-1,-1.490449E0,-1.2252498E0,1.0861346E0,5.4636735E-1,-1.4735794E0,1.6828328E0,-3.4162828E-1,-1.7696527E0,-1.2637223E0,-5.0937134E-1,1.4308254E0,1.5139891E0,-4.351153E-1,-2.815768E-1,-1.7705473E0,8.9994484E-1,-4.827698E-1,1.7465453E0,7.1052164E-1,-1.3043516E0,2.2245024E-1,-1.081895E0,-1.719685E0,1.8333456E-1,-1.4190954E0,-5.016067E-1,1.415852E0,-1.23134E0,1.102049E0,-1.601169E0,2.1906494E-1,1.750503E0,-3.205623E-1,-1.2586832E0,1.0136083E0,-1.578693E0,-1.7972091E0,1.0150285E0,-1.4313089E0,5.2796763E-1,-1.1370956E0,-1.5419375E-3,1.616098E0,-1.1703755E0,9.2911726E-1,9.2998147E-1,-1.3108436E0,1.1161381E0,-3.741392E-1,-1.0186455E0,1.4488533E-1,1.3534251E0,1.7730421E0,-2.4539699E-1,1.4682587E0,-9.272428E-1,-1.7597241E0,-1.0615673E0,5.942316E-1,-3.5794008E-1,-1.5131819E0,-1.7349684E0,-7.5444406E-1,-7.940291E-1,1.0982394E0,-1.4977154E0,-2.4613231E-1,3.2979403E-2,-1.4379282E0,6.946673E-1,1.6580398E0,-1.4120978E0,-2.64249E-1,1.2663314E0,-4.63059E-1,-5.9947807E-1,-1.7124E0,-7.598565E-1,1.1167499E0,3.5246423E-1,1.7799112E0,-3.116225E-1,-1.4214268E0,1.0117429E-1,1.277404E0,-9.999147E-1,-1.7616086E0,1.4124804E0,-2.0857865E-1,-1.5560154E0,-4.0417102E-1],"categories":[],"categories_nodes":[],"categories_segments":[],"categories_sizes":[],"default_left":[1,1,1,1,1,1,1,1,1,1,1,1,1,1,1,1,1,1,1,1,1,1,1,1,1,1,1,1,1,1,0,1,1,1,0,1,1,1,1,1,1,1,1,1,1,1,1,1,1,1,1,1,0,1,1,1,0,1,1,0,0,0,0,0,0,0,0,0,0,0,0,0,0,0,0,0,0,0,0,0,0,0,0,0,0,0,0,0,0,0,0,0,0,0,0,0,0,0,0,0,0,0,0,0,0,0,0,0,0,0,0],"id":11,"left_children":[1,3,5,7,9,11,13,15,17,19,21,23,25,27,29,31,33,35,37,39,41,43,45,47,49,51,53,55,57,59,-1,61,63,65,-1,67,69,71,73,75,77,79,81,83,85,87,89,91,93,95,97,99,-1,101,103,105,-1,107,109,-1,-1,-1,-1,-1,-1,-1,-1,-1,-1,-1,-1,-1,-1,-1,-1,-1,-1,-1,-1,-1,-1,-1,-1,-1,-1,-1,-1,-1,-1,-1,-1,-1,-1,-1,-1,-1,-1,-1,-1,-1,-1,-1,-1,-1,-1,-1,-1,-1,-1,-1,-1],"loss_changes":[9.207109E3,2.0279092E3,2.763899E2,1.3901328E3,4.4959518E2,1.8346965E2,3.654004E1,1.6438339E2,3.8770117E2,1.27442444E2,1.603948E2,6.1344444E1,2.7800468E1,1.3273926E1,7.3145437E0,3.57526E1,3.199533E1,9.093802E1,1.5962598E2,9.945428E1,1.7915863E1,9.847488E0,1.1188405E2,2.0525906E1,1.6001297E1,6.0783386E0,1.2183424E1,2.6618652E0,2.7349678E1,3.0484424E0,0E0,3.588848E0,1.7373825E1,2.3295753E1,0E0,2.871762E1,2.9977474E1,5.3018555E1,1.132874E2,1.00168915E1,5.5696487E1,2.3997429E1,6.61499E-1,5.4620333E0,2.488205E0,1.8695484E1,2.9607697E1,5.172353E-1,4.52326E0,6.49527E0,6.085416E0,9.975281E-1,0E0,4.3257713E-1,8.566375E-1,1.3061829E1,0E0,2.8383818E0,7.5153656E0,0E0,0E0,0E0,0E0,0E0,0E0,0E0,0E0,0E0,0E0,0E0,0E0,0E0,0E0,0E0,0E0,0E0,0E0,0E0,0E0,0E0,0E0,0E0,0E0,0E0,0E0,0E0,0E0,0E0,0E0,0E0,0E0,0E0,0E0,0E0,0E0,0E0,0E0,0E0,0E0,0E0,0E0,0E0,0E0,0E0,0E0,0E0,0E0,0E0,0E0,0E0,0E0],"parents":[2147483647,0,0,1,1,2,2,3,3,4,4,5,5,6,6,7,7,8,8,9,9,10,10,11,11,12,12,13,13,14,14,15,15,16,16,17,17,18,18,19,19,20,20,21,21,22,22,23,23,24,24,25,25,26,26,27,27,28,28,29,29,31,31,32,32,33,33,35,35,36,36,37,37,38,38,39,39,40,40,41,41,42,42,43,43,44,44,45,45,46,46,47,47,48,48,49,49,50,50,51,51,53,53,54,54,55,55,57,57,58,58],"right_children":[2,4,6,8,10,12,14,16,18,20,22,24,26,28,30,32,34,36,38,40,42,44,46,48,50,52,54,56,58,60,-1,62,64,66,-1,68,70,72,74,76,78,80,82,84,86,88,90,92,94,96,98,100,-1,102,104,106,-1,108,110,-1,-1,-1,-1,-1,-1,-1,-1,-1,-1,-1,-1,-1,-1,-1,-1,-1,-1,-1,-1,-1,-1,-1,-1,-1,-1,-1,-1,-1,-1,-1,-1,-1,-1,-1,-1,-1,-1,-1,-1,-1,-1,-1,-1,-1,-1,-1,-1,-1,-1,-1,-1],"split_conditions":[1.0519375E1,1.9966873E0,7.984415E-1,2.5621402E-1,3.431395E-2,2.10237E0,3.8981882E-1,2.3731557E-1,-6.677267E-1,2.8342485E0,-8.0138355E-1,3.2012546E-1,1.6930153E2,5.996741E-2,6.9076866E-1,9.9985605E-1,9.98754E-1,1.001953E0,2.0301838E0,5.255474E0,3.1830115E0,2.4596012E0,4.8993535E0,-2.6418227E-1,1.191273E-1,1.7436416E0,2.6204214E-2,2.9670681E1,9.2733E-1,2.1450405E0,1.4308253E-2,1.2698501E-2,1.6347098E-1,1.0396357E0,-1.7705472E-2,1.5659062E0,3.5580373E0,3.9693956E0,3.5651584E0,2.0935326E0,-5.55159E-1,5.340024E-1,3.3734944E-2,9.876602E0,9.3881226E1,2.1303353E0,1.2738052E1,-9.669101E-1,5.165858E-1,1.4077939E-1,6.314341E-1,1.5898848E-1,-3.205623E-3,7.0074875E1,4.635734E-1,1.7662561E0,-1.7972091E-2,4.8069417E-1,1.5023494E0,5.279676E-3,-1.1370955E-2,-1.5419375E-5,1.616098E-2,-1.1703755E-2,9.291172E-3,9.299815E-3,-1.3108436E-2,1.116138E-2,-3.7413917E-3,-1.0186455E-2,1.4488533E-3,1.3534252E-2,1.773042E-2,-2.4539698E-3,1.4682587E-2,-9.272428E-3,-1.7597241E-2,-1.0615673E-2,5.942316E-3,-3.5794007E-3,-1.5131819E-2,-1.7349685E-2,-7.5444407E-3,-7.940291E-3,1.0982394E-2,-1.4977153E-2,-2.461323E-3,3.29794E-4,-1.4379282E-2,6.9466727E-3,1.6580397E-2,-1.4120977E-2,-2.64249E-3,1.2663314E-2,-4.63059E-3,-5.9947805E-3,-1.7124E-2,-7.598565E-3,1.1167498E-2,3.5246422E-3,1.7799111E-2,-3.116225E-3,-1.4214267E-2,1.0117429E-3,1.2774039E-2,-9.999147E-3,-1.7616086E-2,1.4124803E-2,-2.0857863E-3,-1.5560153E-2,-4.04171E-3],"split_indices":[0,3,3,2,4,2,4,1,7,3,8,1,0,4,8,7,7,0,1,2,3,3,2,7,4,1,4,0,3,5,0,4,2,1,0,5,2,6,2,0,8,9,4,6,6,0,6,7,3,5,8,9,0,6,9,3,0,5,8,0,0,0,0,0,0,0,0,0,0,0,0,0,0,0,0,0,0,0,0,0,0,0,0,0,0,0,0,0,0,0,0,0,0,0,0,0,0,0,0,0,0,0,0,0,0,0,0,0,0,0,0],"split_type":[0,0,0,0,0,0,0,0,0,0,0,0,0,0,0,0,0,0,0,0,0,0,0,0,0,0,0,0,0,0,0,0,0,0,0,0,0,0,0,0,0,0,0,0,0,0,0,0,0,0,0,0,0,0,0,0,0,0,0,0,0,0,0,0,0,0,0,0,0,0,0,0,0,0,0,0,0,0,0,0,0,0,0,0,0,0,0,0,0,0,0,0,0,0,0,0,0,0,0,0,0,0,0,0,0,0,0,0,0,0,0],"sum_hessian":[7.738101E3,6.4836807E3,1.2544208E3,5.846859E3,6.368215E2,1.3734613E2,1.1170746E3,1.8319588E2,5.663663E3,3.913451E2,2.454764E2,8.987335E1,4.7472786E1,1.110898E3,6.1766615E0,3.7411846E1,1.4578404E2,1.8943004E2,5.474233E3,1.8118399E2,2.101611E2,3.4112236E1,2.1136415E2,1.8404884E1,7.146847E1,3.9696327E1,7.7764573E0,1.0440852E3,6.68127E1,2.759571E0,3.4170907E0,2.2175215E1,1.5236631E1,1.6703608E1,1.2908043E2,1.017417E2,8.768833E1,5.3193286E3,1.5490453E2,6.683275E1,1.1435125E2,7.759233E1,1.3256877E2,4.1331086E0,2.9979126E1,3.6255558E1,1.751086E2,4.093444E0,1.43114395E1,6.650913E1,4.9593387E0,3.8521397E1,1.1749318E0,4.6805143E0,3.0959427E0,1.3901726E2,9.05068E2,4.230596E0,6.25821E1,1.1002622E0,1.6593088E0,1.4619175E0,2.0713297E1,9.992969E0,5.2436624E0,7.7166905E0,8.986917E0,8.7088104E1,1.4653597E1,4.696656E1,4.0721775E1,3.3917816E2,4.9801504E3,6.879401E1,8.611052E1,3.821877E1,2.8613976E1,2.5259033E1,8.909222E1,2.9650743E1,4.794159E1,1.2971739E2,2.8513756E0,2.0622215E0,2.070887E0,2.783647E1,2.1426563E0,2.369299E1,1.2562568E1,4.4994057E1,1.3011455E2,3.0611403E0,1.0323037E0,1.3124697E1,1.186743E0,7.28585E0,5.922328E1,2.4457722E0,2.5135663E0,1.06114E0,3.7460255E1,1.1137906E0,3.5667236E0,1.0046217E0,2.091321E0,3.493695E1,1.0408031E2,3.0768247E0,1.1537714E0,5.534738E1,7.2347198E0],"tree_param":{"num_deleted":"0","num_feature":"10","num_nodes":"111","size_leaf_vector":"0"}},{"base_weights":[9.090026E-1,1.424887E0,-1.3592649E0,1.5719664E0,-2.999848E-1,1.822443E-1,-1.6617358E0,-1.1145087E0,1.659057E0,-1.5901331E0,2.4616508E-1,9.7789335E-1,-1.2200586E0,-1.6968292E0,6.599134E-2,9.1096896E-1,-1.5414118E0,4.2309147E-1,1.7077417E0,-7.6643294E-1,-1.6690321E0,-8.7923956E-1,8.771285E-1,1.4243845E0,-4.7540054E-1,-1.4720198E0,5.458482E-1,-1.2452456E0,-1.7635125E0,-1.3591621E0,7.572447E-1,1.57943E0,-1.949837E-1,-1.0509877E-3,-1.7488348E0,8.222256E-1,-2.7817017E-1,1.7318826E0,5.0147074E-1,-1.4231441E0,1.5637514E-1,-1.7281818E0,-1.0666612E0,-1.2191763E0,2.979465E-1,4.114081E-2,1.4090163E0,-1.2208983E0,1.5658273E0,-1.3693321E0,7.828383E-1,-1.5780227E0,4.6947715E-1,-6.987985E-1,1.5303168E0,-2.0221965E-1,-1.6239635E0,-1.7793565E0,-1.5865561E0,-5.0739285E-2,-1.5495175E0,1.6153647E0,-5.4793906E-1,2.4281166E-1,1.6383736E0,1.0693153E0,-1.0617441E0,9.900786E-1,-1.2560265E0,-1.7579263E0,-4.083596E-1,-3.6656525E-2,1.0788703E0,-7.762645E-1,7.023486E-1,1.5030065E0,1.7778442E0,-5.0707906E-1,1.2917268E0,-3.0727E-1,-1.5493337E0,1.0553598E0,-1.1112418E0,-1.3828523E0,4.7504315E-1,-1.4319487E0,-6.042065E-1,-3.0036616E-1,1.0226709E0,-8.127274E-1,5.480255E-1,1.5778162E0,-1.3661784E-1,-2.595352E-1,-1.3880751E0,4.7763342E-1,1.6410649E0,-1.510531E0,-5.4105665E-3,-1.161543E0,1.3246096E0,-2.3024967E-1,-1.7108845E0,-9.655599E-1,1.164634E0,-1.2929829E0,7.161767E-1,-1.1966699E0,1.276437E0,-1.6970594E0,-6.824273E-1,8.567609E-1,-1.6226213E0,-1.2799759E0,4.6742138E-1],"categories":[],"categories_nodes":[],"categories_segments":[],"categories_sizes":[],"default_left":[1,1,1,1,1,1,1,1,1,1,1,1,1,1,1,1,1,1,1,1,1,1,1,1,1,1,1,1,1,1,1,1,1,1,1,1,1,1,1,1,1,0,1,1,1,1,1,1,1,1,1,1,1,1,0,1,1,0,1,0,0,0,1,0,0,0,0,0,0,0,0,0,0,0,0,0,0,0,0,0,0,0,0,0,0,0,0,0,0,0,0,0,0,0,0,0,0,0,0,0,0,0,0,0,0,0,0,0,0,0,0,0,0,0,0],"id":12,"left_children":[1,3,5,7,9,11,13,15,17,19,21,23,25,27,29,31,33,35,37,39,41,43,45,47,49,51,53,55,57,59,61,63,65,67,69,71,73,75,77,79,81,-1,83,85,87,89,91,93,95,97,99,101,103,105,-1,107,109,-1,111,-1,-1,-1,113,-1,-1,-1,-1,-1,-1,-1,-1,-1,-1,-1,-1,-1,-1,-1,-1,-1,-1,-1,-1,-1,-1,-1,-1,-1,-1,-1,-1,-1,-1,-1,-1,-1,-1,-1,-1,-1,-1,-1,-1,-1,-1,-1,-1,-1,-1,-1,-1,-1,-1,-1,-1],"loss_changes":[9.042708E3,1.5974629E3,6.680366E2,1.3589824E3,3.4948306E2,2.6429697E2,